%YAML:1.0
pair: !!opencv-ml-boost-tree
   boosting_type: DiscreteAdaboost
   splitting_criteria: 3
   ntrees: 100
   weight_trimming_rate: 9.4999999999999996e-01
   is_classifier: 1
   var_all: 81
   var_count: 81
   ord_var_count: 81
   cat_var_count: 0
   training_params:
      use_surrogates: 1
      max_categories: 10
      max_depth: 1
      min_sample_count: 10
      cross_validation_folds: 0
      priors: !!opencv-matrix
         rows: 1
         cols: 2
         dt: d
         data: [ 1., 1. ]
   var_type: [ 0, 0, 0, 0, 0, 0, 0, 0, 0, 0, 0, 0, 0, 0, 0, 0, 0, 0, 0,
       0, 0, 0, 0, 0, 0, 0, 0, 0, 0, 0, 0, 0, 0, 0, 0, 0, 0, 0, 0, 0, 0,
       0, 0, 0, 0, 0, 0, 0, 0, 0, 0, 0, 0, 0, 0, 0, 0, 0, 0, 0, 0, 0, 0,
       0, 0, 0, 0, 0, 0, 0, 0, 0, 0, 0, 0, 0, 0, 0, 0, 0, 0 ]
   cat_count: !!opencv-matrix
      rows: 1
      cols: 1
      dt: i
      data: [ 2 ]
   cat_map: !!opencv-matrix
      rows: 1
      cols: 2
      dt: i
      data: [ -1, 1 ]
   trees:
      -
         best_tree_idx: -1
         nodes:
            -
               depth: 0
               sample_count: 10595
               value: 2.2317822662616686e+00
               norm_class_idx: 1
               Tn: 0
               complexity: 0
               alpha: 0.
               node_risk: 0.
               tree_risk: 0.
               tree_error: 0.
               splits:
                  - { var:20, quality:9.0306746959686279e-01,
                      le:2.2591596841812134e-01 }
            -
               depth: 1
               sample_count: 10594
               value: 2.2317822662616686e+00
               norm_class_idx: 1
               Tn: 0
               complexity: 0
               alpha: 0.
               node_risk: 0.
               tree_risk: 0.
               tree_error: 0.
            -
               depth: 1
               sample_count: 1
               value: -2.2317822662616686e+00
               norm_class_idx: 0
               Tn: 0
               complexity: 0
               alpha: 0.
               node_risk: 0.
               tree_risk: 0.
               tree_error: 0.
      -
         best_tree_idx: -1
         nodes:
            -
               depth: 0
               sample_count: 10595
               value: -2.4584630610639213e-01
               norm_class_idx: 0
               Tn: 0
               complexity: 0
               alpha: 0.
               node_risk: 0.
               tree_risk: 0.
               tree_error: 0.
               splits:
                  - { var:4, quality:5.6115388870239258e-01,
                      le:4.2141746962442994e-04 }
                  - { var:5, quality:5.5094563961029053e-01,
                      le:4.1432701982557774e-04 }
                  - { var:1, quality:5.5081903934478760e-01,
                      le:4.3673650361597538e-04 }
                  - { var:3, quality:5.5080676078796387e-01,
                      le:4.4441418140195310e-04 }
                  - { var:7, quality:5.4884499311447144e-01,
                      le:4.2760520591400564e-04 }
                  - { var:8, quality:5.2416825294494629e-01,
                      le:3.9817963261157274e-04 }
                  - { var:2, quality:5.1505869626998901e-01,
                      le:3.6265631206333637e-04 }
                  - { var:6, quality:5.1350450515747070e-01,
                      le:3.5327544901520014e-04 }
                  - { var:0, quality:4.8771491646766663e-01,
                      le:2.9000645736232400e-04 }
                  - { var:25, quality:3.9966452121734619e-01,
                      le:2.9576942324638367e-05 }
                  - { var:23, quality:3.9923542737960815e-01,
                      le:1.9652768969535828e-05 }
                  - { var:14, quality:3.9910885691642761e-01,
                      le:9.0524554252624512e-06 }
                  - { var:26, quality:3.9897149801254272e-01,
                      le:1.0930001735687256e-05 }
                  - { var:24, quality:3.9894220232963562e-01,
                      le:4.8828311264514923e-05 }
                  - { var:10, quality:3.9893290400505066e-01,
                      le:4.7851353883743286e-06 }
                  - { var:18, quality:3.9885419607162476e-01,
                      le:1.0024383664131165e-04 }
                  - { var:21, quality:3.9877551794052124e-01,
                      le:2.4299323558807373e-04 }
                  - { var:22, quality:3.9872762560844421e-01,
                      le:1.8397346138954163e-05 }
                  - { var:15, quality:3.9870759844779968e-01,
                      le:7.7264383435249329e-05 }
                  - { var:17, quality:3.9868903160095215e-01,
                      le:3.5099685192108154e-05 }
                  - { var:16, quality:3.9868903160095215e-01,
                      le:2.2448599338531494e-05 }
                  - { var:12, quality:3.9867827296257019e-01,
                      le:1.2568198144435883e-04 }
                  - { var:19, quality:3.9866900444030762e-01,
                      le:1.3167969882488251e-05 }
                  - { var:11, quality:3.9863967895507812e-01,
                      le:1.9909814000129700e-05 }
                  - { var:13, quality:3.9855170249938965e-01,
                      le:5.6773424148559570e-05 }
                  - { var:9, quality:3.9847299456596375e-01,
                      le:4.8548914492130280e-05 }
                  - { var:20, quality:3.9833712577819824e-01,
                      le:1.1786818504333496e-05 }
            -
               depth: 1
               sample_count: 2553
               value: -2.4584630610639213e-01
               norm_class_idx: 0
               Tn: 0
               complexity: 0
               alpha: 0.
               node_risk: 0.
               tree_risk: 0.
               tree_error: 0.
            -
               depth: 1
               sample_count: 8042
               value: 2.4584630610639213e-01
               norm_class_idx: 1
               Tn: 0
               complexity: 0
               alpha: 0.
               node_risk: 0.
               tree_risk: 0.
               tree_error: 0.
      -
         best_tree_idx: -1
         nodes:
            -
               depth: 0
               sample_count: 10595
               value: -2.1640929286399424e-01
               norm_class_idx: 0
               Tn: 0
               complexity: 0
               alpha: 0.
               node_risk: 0.
               tree_risk: 0.
               tree_error: 0.
               splits:
                  - { var:10, quality:5.5389213562011719e-01,
                      le:1.6079364344477654e-02 }
                  - { var:9, quality:3.7555760145187378e-01,
                      le:1.1396071873605251e-02 }
                  - { var:26, quality:3.6866107583045959e-01,
                      le:1.1664912104606628e-02 }
                  - { var:11, quality:3.6054196953773499e-01,
                      le:4.1594170033931732e-03 }
                  - { var:17, quality:3.5869306325912476e-01,
                      le:4.0877219289541245e-03 }
                  - { var:18, quality:3.5688018798828125e-01,
                      le:7.8335367143154144e-03 }
                  - { var:20, quality:3.5685390233993530e-01,
                      le:6.6872616298496723e-03 }
                  - { var:21, quality:3.5364860296249390e-01,
                      le:1.4501698315143585e-03 }
                  - { var:13, quality:3.5267937183380127e-01,
                      le:7.1878125891089439e-04 }
                  - { var:16, quality:3.5258287191390991e-01,
                      le:8.1399641931056976e-04 }
                  - { var:19, quality:3.5245707631111145e-01,
                      le:3.5579819232225418e-03 }
                  - { var:15, quality:3.5170915722846985e-01,
                      le:1.0349536314606667e-03 }
                  - { var:25, quality:3.5155409574508667e-01,
                      le:9.1843307018280029e-05 }
                  - { var:57, quality:3.5109737515449524e-01,
                      gt:9.8627448081970215e-01 }
                  - { var:0, quality:3.5108569264411926e-01,
                      gt:6.4883530139923096e-03 }
                  - { var:77, quality:3.5108399391174316e-01,
                      le:8.0578312918078154e-05 }
                  - { var:22, quality:3.5104677081108093e-01,
                      le:1.1072121560573578e-04 }
                  - { var:63, quality:3.5095205903053284e-01,
                      gt:9.8627448081970215e-01 }
                  - { var:80, quality:3.5094490647315979e-01,
                      le:8.1352387496735901e-05 }
                  - { var:60, quality:3.5093343257904053e-01,
                      gt:9.8627448081970215e-01 }
                  - { var:58, quality:3.5090541839599609e-01,
                      gt:9.9019610881805420e-01 }
                  - { var:79, quality:3.5086432099342346e-01,
                      le:8.0818426795303822e-05 }
                  - { var:6, quality:3.5085585713386536e-01,
                      gt:5.5920272134244442e-03 }
                  - { var:1, quality:3.5085362195968628e-01,
                      gt:5.1630311645567417e-03 }
                  - { var:12, quality:3.5082033276557922e-01,
                      le:4.5175664126873016e-04 }
                  - { var:78, quality:3.5073855519294739e-01,
                      le:8.4283747128210962e-05 }
                  - { var:64, quality:3.5071671009063721e-01,
                      gt:9.9411761760711670e-01 }
                  - { var:69, quality:3.5071179270744324e-01,
                      gt:9.8235297203063965e-01 }
                  - { var:8, quality:3.5070756077766418e-01,
                      le:1.1301694030407816e-05 }
                  - { var:4, quality:3.5070335865020752e-01,
                      gt:5.1643545739352703e-03 }
                  - { var:23, quality:3.5068574547767639e-01,
                      le:5.6529417634010315e-05 }
                  - { var:3, quality:3.5065177083015442e-01,
                      gt:5.3106797859072685e-03 }
                  - { var:24, quality:3.5062593221664429e-01,
                      le:3.7031248211860657e-05 }
                  - { var:2, quality:3.5057666897773743e-01,
                      gt:6.9129196926951408e-03 }
                  - { var:75, quality:3.5054987668991089e-01,
                      gt:9.9019610881805420e-01 }
                  - { var:54, quality:3.5051780939102173e-01,
                      gt:9.9019610881805420e-01 }
                  - { var:51, quality:3.5049897432327271e-01,
                      gt:9.7058820724487305e-01 }
                  - { var:72, quality:3.5047766566276550e-01,
                      gt:9.7450983524322510e-01 }
                  - { var:5, quality:3.5036113858222961e-01,
                      le:2.0968172975699417e-06 }
                  - { var:14, quality:3.5032814741134644e-01,
                      gt:1.6455408930778503e-01 }
                  - { var:66, quality:3.5031998157501221e-01,
                      gt:9.7450983524322510e-01 }
            -
               depth: 1
               sample_count: 4285
               value: 2.1640929286399424e-01
               norm_class_idx: 1
               Tn: 0
               complexity: 0
               alpha: 0.
               node_risk: 0.
               tree_risk: 0.
               tree_error: 0.
            -
               depth: 1
               sample_count: 6310
               value: -2.1640929286399424e-01
               norm_class_idx: 0
               Tn: 0
               complexity: 0
               alpha: 0.
               node_risk: 0.
               tree_risk: 0.
               tree_error: 0.
      -
         best_tree_idx: -1
         nodes:
            -
               depth: 0
               sample_count: 10595
               value: -1.8332640210306803e-01
               norm_class_idx: 0
               Tn: 0
               complexity: 0
               alpha: 0.
               node_risk: 0.
               tree_risk: 0.
               tree_error: 0.
               splits:
                  - { var:0, quality:5.4570364952087402e-01,
                      le:1.1931335320696235e-03 }
                  - { var:2, quality:5.0378954410552979e-01,
                      le:1.3163657858967781e-03 }
                  - { var:6, quality:5.0231331586837769e-01,
                      le:1.3356548734009266e-03 }
                  - { var:8, quality:4.9121436476707458e-01,
                      le:1.4451694441959262e-03 }
                  - { var:3, quality:4.6212852001190186e-01,
                      le:1.4300718903541565e-03 }
                  - { var:5, quality:4.6183562278747559e-01,
                      le:1.4450586168095469e-03 }
                  - { var:4, quality:4.6057665348052979e-01,
                      le:1.5382734127342701e-03 }
                  - { var:7, quality:4.6028110384941101e-01,
                      le:1.5332653420045972e-03 }
                  - { var:1, quality:4.5958375930786133e-01,
                      le:1.5147947706282139e-03 }
                  - { var:13, quality:3.6837956309318542e-01,
                      le:2.9782880097627640e-02 }
                  - { var:14, quality:3.6819717288017273e-01,
                      le:2.7520488947629929e-02 }
                  - { var:12, quality:3.6353531479835510e-01,
                      le:3.5063505172729492e-02 }
                  - { var:15, quality:3.6311754584312439e-01,
                      le:2.9847376048564911e-02 }
                  - { var:24, quality:3.6299076676368713e-01,
                      le:4.0174257010221481e-02 }
                  - { var:23, quality:3.6297395825386047e-01,
                      le:3.5348206758499146e-02 }
                  - { var:26, quality:3.6100465059280396e-01,
                      le:9.6217438578605652e-02 }
                  - { var:22, quality:3.6098331212997437e-01,
                      le:3.1732019037008286e-02 }
                  - { var:25, quality:3.5956352949142456e-01,
                      le:3.9346605539321899e-02 }
                  - { var:16, quality:3.5829234123229980e-01,
                      le:3.5516362637281418e-02 }
                  - { var:11, quality:3.5814204812049866e-01,
                      le:6.0525797307491302e-02 }
                  - { var:20, quality:3.5740047693252563e-01,
                      le:3.9974037557840347e-02 }
                  - { var:21, quality:3.5710793733596802e-01,
                      le:3.3828929066658020e-02 }
                  - { var:19, quality:3.5693001747131348e-01,
                      le:1.0969737172126770e-01 }
                  - { var:17, quality:3.5598155856132507e-01,
                      le:1.2397465109825134e-01 }
                  - { var:18, quality:3.5526570677757263e-01,
                      le:3.5874390602111816e-01 }
                  - { var:10, quality:3.5485637187957764e-01,
                      le:2.9691138863563538e-01 }
                  - { var:9, quality:3.5472318530082703e-01,
                      le:3.1925171613693237e-01 }
                  - { var:78, quality:3.5461974143981934e-01,
                      le:9.9803924560546875e-01 }
                  - { var:69, quality:3.5454580187797546e-01,
                      le:9.9803924560546875e-01 }
                  - { var:72, quality:3.5454481840133667e-01,
                      le:9.9803924560546875e-01 }
                  - { var:51, quality:3.5444593429565430e-01,
                      le:9.9803924560546875e-01 }
            -
               depth: 1
               sample_count: 6358
               value: -1.8332640210306803e-01
               norm_class_idx: 0
               Tn: 0
               complexity: 0
               alpha: 0.
               node_risk: 0.
               tree_risk: 0.
               tree_error: 0.
            -
               depth: 1
               sample_count: 4237
               value: 1.8332640210306803e-01
               norm_class_idx: 1
               Tn: 0
               complexity: 0
               alpha: 0.
               node_risk: 0.
               tree_risk: 0.
               tree_error: 0.
      -
         best_tree_idx: -1
         nodes:
            -
               depth: 0
               sample_count: 10595
               value: 1.5687834710809564e-01
               norm_class_idx: 1
               Tn: 0
               complexity: 0
               alpha: 0.
               node_risk: 0.
               tree_risk: 0.
               tree_error: 0.
               splits:
                  - { var:11, quality:5.3913933038711548e-01,
                      le:2.8980562463402748e-02 }
                  - { var:10, quality:4.1045328974723816e-01,
                      le:6.9761179387569427e-02 }
                  - { var:12, quality:3.9983949065208435e-01,
                      le:3.7169005721807480e-02 }
                  - { var:18, quality:3.9344784617424011e-01,
                      le:2.3256447911262512e-01 }
                  - { var:19, quality:3.9295154809951782e-01,
                      le:7.1662999689579010e-02 }
                  - { var:17, quality:3.9072903990745544e-01,
                      le:6.9032892584800720e-02 }
                  - { var:13, quality:3.8728722929954529e-01,
                      le:4.2795903980731964e-02 }
                  - { var:24, quality:3.8707339763641357e-01,
                      le:1.0406656563282013e-01 }
                  - { var:23, quality:3.8682943582534790e-01,
                      le:4.1094742715358734e-02 }
                  - { var:9, quality:3.8662123680114746e-01,
                      le:2.3509478569030762e-01 }
                  - { var:1, quality:3.8659164309501648e-01,
                      le:5.3252819925546646e-03 }
                  - { var:16, quality:3.8657885789871216e-01,
                      le:1.4164546132087708e-01 }
                  - { var:6, quality:3.8653224706649780e-01,
                      le:5.1982458680868149e-03 }
                  - { var:22, quality:3.8643798232078552e-01,
                      le:9.6525304019451141e-02 }
                  - { var:20, quality:3.8643759489059448e-01,
                      le:8.9480578899383545e-02 }
                  - { var:2, quality:3.8643267750740051e-01,
                      le:4.9216700717806816e-03 }
                  - { var:8, quality:3.8635894656181335e-01,
                      le:6.6488287411630154e-03 }
                  - { var:25, quality:3.8634717464447021e-01,
                      le:1.3442885875701904e-01 }
                  - { var:15, quality:3.8631954789161682e-01,
                      le:9.8945185542106628e-02 }
                  - { var:0, quality:3.8626310229301453e-01,
                      le:6.4339949749410152e-03 }
                  - { var:4, quality:3.8623043894767761e-01,
                      le:5.0125424750149250e-03 }
                  - { var:26, quality:3.8606491684913635e-01,
                      le:2.7846568822860718e-01 }
                  - { var:7, quality:3.8599571585655212e-01,
                      le:5.6398576125502586e-03 }
                  - { var:5, quality:3.8599571585655212e-01,
                      le:5.4694148711860180e-03 }
                  - { var:3, quality:3.8599571585655212e-01,
                      le:5.7028513401746750e-03 }
                  - { var:21, quality:3.8595798611640930e-01,
                      le:2.0673036575317383e-01 }
                  - { var:14, quality:3.8595026731491089e-01,
                      le:1.7568112909793854e-01 }
            -
               depth: 1
               sample_count: 7906
               value: 1.5687834710809564e-01
               norm_class_idx: 1
               Tn: 0
               complexity: 0
               alpha: 0.
               node_risk: 0.
               tree_risk: 0.
               tree_error: 0.
            -
               depth: 1
               sample_count: 2689
               value: -1.5687834710809564e-01
               norm_class_idx: 0
               Tn: 0
               complexity: 0
               alpha: 0.
               node_risk: 0.
               tree_risk: 0.
               tree_error: 0.
      -
         best_tree_idx: -1
         nodes:
            -
               depth: 0
               sample_count: 9528
               value: -1.3418541118252475e-01
               norm_class_idx: 0
               Tn: 0
               complexity: 0
               alpha: 0.
               node_risk: 0.
               tree_risk: 0.
               tree_error: 0.
               splits:
                  - { var:9, quality:5.3192460536956787e-01,
                      le:8.3734124898910522e-02 }
                  - { var:10, quality:4.9269941449165344e-01,
                      le:2.4771670997142792e-01 }
                  - { var:3, quality:4.9229219555854797e-01,
                      le:5.4671489633619785e-03 }
                  - { var:13, quality:4.9228748679161072e-01,
                      gt:1.1839903891086578e-05 }
                  - { var:5, quality:4.9226635694503784e-01,
                      le:5.4094605147838593e-03 }
                  - { var:18, quality:4.9225395917892456e-01,
                      le:9.3578296899795532e-01 }
                  - { var:17, quality:4.9224922060966492e-01,
                      le:2.8488558530807495e-01 }
                  - { var:7, quality:4.9223208427429199e-01,
                      le:5.1788282580673695e-03 }
                  - { var:22, quality:4.9220895767211914e-01,
                      le:2.2917875647544861e-01 }
                  - { var:1, quality:4.9220895767211914e-01,
                      le:6.6288812085986137e-03 }
            -
               depth: 1
               sample_count: 8663
               value: -1.3418541118252475e-01
               norm_class_idx: 0
               Tn: 0
               complexity: 0
               alpha: 0.
               node_risk: 0.
               tree_risk: 0.
               tree_error: 0.
            -
               depth: 1
               sample_count: 865
               value: 1.3418541118252475e-01
               norm_class_idx: 1
               Tn: 0
               complexity: 0
               alpha: 0.
               node_risk: 0.
               tree_risk: 0.
               tree_error: 0.
      -
         best_tree_idx: -1
         nodes:
            -
               depth: 0
               sample_count: 9487
               value: -7.7860811579121156e-02
               norm_class_idx: 0
               Tn: 0
               complexity: 0
               alpha: 0.
               node_risk: 0.
               tree_risk: 0.
               tree_error: 0.
               splits:
                  - { var:10, quality:5.1266866922378540e-01,
                      le:1.3561543077230453e-02 }
                  - { var:9, quality:3.6199888586997986e-01,
                      le:4.7294748947024345e-03 }
                  - { var:11, quality:3.5813519358634949e-01,
                      le:1.8782652914524078e-03 }
                  - { var:26, quality:3.5744529962539673e-01,
                      le:7.5025111436843872e-04 }
                  - { var:25, quality:3.5619369149208069e-01,
                      le:1.9364058971405029e-05 }
                  - { var:18, quality:3.5571956634521484e-01,
                      le:2.8119236230850220e-04 }
                  - { var:1, quality:3.5570442676544189e-01,
                      gt:5.1797227934002876e-03 }
                  - { var:19, quality:3.5564607381820679e-01,
                      le:2.6806187815964222e-04 }
                  - { var:21, quality:3.5563939809799194e-01,
                      le:1.8987245857715607e-04 }
                  - { var:17, quality:3.5556396842002869e-01,
                      le:2.4958439171314240e-03 }
                  - { var:13, quality:3.5554587841033936e-01,
                      le:7.1878125891089439e-04 }
                  - { var:3, quality:3.5551589727401733e-01,
                      gt:5.3106797859072685e-03 }
                  - { var:0, quality:3.5550716519355774e-01,
                      gt:7.9930257052183151e-03 }
                  - { var:57, quality:3.5547167062759399e-01,
                      gt:9.9411761760711670e-01 }
                  - { var:22, quality:3.5545143485069275e-01,
                      le:1.1072121560573578e-04 }
                  - { var:8, quality:3.5542446374893188e-01,
                      le:1.4022671166458167e-06 }
                  - { var:4, quality:3.5538575053215027e-01,
                      gt:5.3440374322235584e-03 }
                  - { var:12, quality:3.5538202524185181e-01,
                      gt:1.5659765899181366e-01 }
                  - { var:24, quality:3.5536983609199524e-01,
                      gt:1.4580157399177551e-01 }
                  - { var:23, quality:3.5529175400733948e-01,
                      le:5.6529417634010315e-05 }
                  - { var:14, quality:3.5526812076568604e-01,
                      gt:1.7568112909793854e-01 }
            -
               depth: 1
               sample_count: 2775
               value: -7.7860811579121156e-02
               norm_class_idx: 0
               Tn: 0
               complexity: 0
               alpha: 0.
               node_risk: 0.
               tree_risk: 0.
               tree_error: 0.
            -
               depth: 1
               sample_count: 6712
               value: 7.7860811579121156e-02
               norm_class_idx: 1
               Tn: 0
               complexity: 0
               alpha: 0.
               node_risk: 0.
               tree_risk: 0.
               tree_error: 0.
      -
         best_tree_idx: -1
         nodes:
            -
               depth: 0
               sample_count: 9520
               value: -1.4090029622640884e-01
               norm_class_idx: 0
               Tn: 0
               complexity: 0
               alpha: 0.
               node_risk: 0.
               tree_risk: 0.
               tree_error: 0.
               splits:
                  - { var:9, quality:5.1397085189819336e-01,
                      le:1.1852617375552654e-02 }
                  - { var:10, quality:3.5200121998786926e-01,
                      le:1.4022788032889366e-02 }
                  - { var:19, quality:3.3771681785583496e-01,
                      le:1.3374853879213333e-03 }
                  - { var:17, quality:3.3746281266212463e-01,
                      le:4.1684359312057495e-03 }
                  - { var:26, quality:3.3694157004356384e-01,
                      le:4.6793259680271149e-03 }
                  - { var:80, quality:3.3613917231559753e-01,
                      le:1.1891066969837993e-04 }
                  - { var:78, quality:3.3605927228927612e-01,
                      le:1.2007471377728507e-04 }
                  - { var:18, quality:3.3592259883880615e-01,
                      le:4.8520825803279877e-03 }
                  - { var:77, quality:3.3567997813224792e-01,
                      le:1.7368452972732484e-05 }
                  - { var:79, quality:3.3567172288894653e-01,
                      le:9.7618205472826958e-05 }
                  - { var:15, quality:3.3549326658248901e-01,
                      le:2.4908781051635742e-04 }
                  - { var:11, quality:3.3512032032012939e-01,
                      le:1.6099736094474792e-03 }
                  - { var:0, quality:3.3479130268096924e-01,
                      gt:6.8589700385928154e-03 }
                  - { var:61, quality:3.3471325039863586e-01,
                      gt:9.9411761760711670e-01 }
                  - { var:6, quality:3.3460545539855957e-01,
                      gt:6.2076644971966743e-03 }
                  - { var:64, quality:3.3448728919029236e-01,
                      gt:9.9411761760711670e-01 }
                  - { var:60, quality:3.3444762229919434e-01,
                      gt:9.8627448081970215e-01 }
                  - { var:8, quality:3.3434849977493286e-01,
                      gt:6.6851139999926090e-03 }
                  - { var:14, quality:3.3427405357360840e-01,
                      gt:1.2409310042858124e-01 }
                  - { var:2, quality:3.3426979184150696e-01,
                      gt:6.9574052467942238e-03 }
                  - { var:57, quality:3.3425551652908325e-01,
                      gt:9.9411761760711670e-01 }
                  - { var:24, quality:3.3418375253677368e-01,
                      gt:1.1316023021936417e-01 }
                  - { var:66, quality:3.3410331606864929e-01,
                      gt:9.6666669845581055e-01 }
                  - { var:25, quality:3.3410272002220154e-01,
                      le:1.9364058971405029e-05 }
                  - { var:23, quality:3.3407166600227356e-01,
                      le:9.5103867352008820e-05 }
                  - { var:1, quality:3.3404740691184998e-01,
                      gt:5.6355893611907959e-03 }
                  - { var:4, quality:3.3403640985488892e-01,
                      gt:5.6075714528560638e-03 }
            -
               depth: 1
               sample_count: 3578
               value: 1.4090029622640884e-01
               norm_class_idx: 1
               Tn: 0
               complexity: 0
               alpha: 0.
               node_risk: 0.
               tree_risk: 0.
               tree_error: 0.
            -
               depth: 1
               sample_count: 5942
               value: -1.4090029622640884e-01
               norm_class_idx: 0
               Tn: 0
               complexity: 0
               alpha: 0.
               node_risk: 0.
               tree_risk: 0.
               tree_error: 0.
      -
         best_tree_idx: -1
         nodes:
            -
               depth: 0
               sample_count: 9357
               value: -4.2589517886832712e-02
               norm_class_idx: 0
               Tn: 0
               complexity: 0
               alpha: 0.
               node_risk: 0.
               tree_risk: 0.
               tree_error: 0.
               splits:
                  - { var:7, quality:5.0875896215438843e-01,
                      le:7.0411653723567724e-04 }
                  - { var:1, quality:4.9817761778831482e-01,
                      le:7.3229992995038629e-04 }
                  - { var:4, quality:4.9319607019424438e-01,
                      le:6.9464824628084898e-04 }
                  - { var:5, quality:4.9214807152748108e-01,
                      le:7.2149792686104774e-04 }
                  - { var:3, quality:4.9045637249946594e-01,
                      le:6.7693844903260469e-04 }
                  - { var:8, quality:4.7402700781822205e-01,
                      le:6.2899733893573284e-04 }
                  - { var:2, quality:4.6142938733100891e-01,
                      le:6.0134340310469270e-04 }
                  - { var:6, quality:4.6068605780601501e-01,
                      le:6.2594865448772907e-04 }
                  - { var:0, quality:4.2403879761695862e-01,
                      le:5.0241861026734114e-04 }
                  - { var:11, quality:3.0640712380409241e-01,
                      le:8.2968007773160934e-03 }
                  - { var:13, quality:3.0587875843048096e-01,
                      le:5.4582897573709488e-03 }
                  - { var:21, quality:3.0507105588912964e-01,
                      le:6.0092220082879066e-03 }
                  - { var:14, quality:3.0452448129653931e-01,
                      le:3.9916448295116425e-03 }
                  - { var:15, quality:3.0436193943023682e-01,
                      le:2.7750246226787567e-03 }
                  - { var:24, quality:3.0343511700630188e-01,
                      le:1.3422843068838120e-02 }
                  - { var:20, quality:3.0219459533691406e-01,
                      le:7.4995001778006554e-03 }
                  - { var:23, quality:3.0074524879455566e-01,
                      le:1.0307593271136284e-02 }
                  - { var:22, quality:3.0024027824401855e-01,
                      le:6.3861412927508354e-03 }
                  - { var:12, quality:2.9917252063751221e-01,
                      le:6.2335655093193054e-03 }
                  - { var:25, quality:2.9903694987297058e-01,
                      le:5.4207704961299896e-03 }
                  - { var:16, quality:2.9852545261383057e-01,
                      le:3.0656792223453522e-03 }
                  - { var:10, quality:2.9826691746711731e-01,
                      le:8.8668689131736755e-03 }
                  - { var:18, quality:2.9804956912994385e-01,
                      le:6.6047403961420059e-03 }
                  - { var:9, quality:2.9788282513618469e-01,
                      le:2.6227589696645737e-03 }
                  - { var:26, quality:2.9776629805564880e-01,
                      le:3.9225928485393524e-03 }
                  - { var:19, quality:2.9730784893035889e-01,
                      le:3.8255881518125534e-03 }
                  - { var:17, quality:2.9701462388038635e-01,
                      le:3.4182034432888031e-03 }
                  - { var:49, quality:2.9513996839523315e-01,
                      gt:9.9411761760711670e-01 }
                  - { var:65, quality:2.9510235786437988e-01,
                      gt:9.9803924560546875e-01 }
                  - { var:62, quality:2.9507288336753845e-01,
                      gt:9.9803924560546875e-01 }
                  - { var:30, quality:2.9490080475807190e-01,
                      gt:9.9803924560546875e-01 }
                  - { var:52, quality:2.9489049315452576e-01,
                      gt:9.9019610881805420e-01 }
                  - { var:67, quality:2.9482895135879517e-01,
                      gt:9.9803924560546875e-01 }
            -
               depth: 1
               sample_count: 3876
               value: 4.2589517886832712e-02
               norm_class_idx: 1
               Tn: 0
               complexity: 0
               alpha: 0.
               node_risk: 0.
               tree_risk: 0.
               tree_error: 0.
            -
               depth: 1
               sample_count: 5481
               value: -4.2589517886832712e-02
               norm_class_idx: 0
               Tn: 0
               complexity: 0
               alpha: 0.
               node_risk: 0.
               tree_risk: 0.
               tree_error: 0.
      -
         best_tree_idx: -1
         nodes:
            -
               depth: 0
               sample_count: 9790
               value: 1.3519859310643101e-01
               norm_class_idx: 1
               Tn: 0
               complexity: 0
               alpha: 0.
               node_risk: 0.
               tree_risk: 0.
               tree_error: 0.
               splits:
                  - { var:34, quality:5.1405447721481323e-01,
                      le:3.2352942228317261e-01 }
                  - { var:35, quality:4.8645630478858948e-01,
                      le:2.6078432798385620e-01 }
                  - { var:33, quality:4.7632768750190735e-01,
                      le:2.0196078717708588e-01 }
                  - { var:31, quality:4.7400528192520142e-01,
                      le:3.0392158031463623e-01 }
                  - { var:37, quality:4.7030788660049438e-01,
                      le:3.1960785388946533e-01 }
                  - { var:32, quality:4.5825880765914917e-01,
                      le:2.7254903316497803e-01 }
                  - { var:38, quality:4.5809513330459595e-01,
                      le:2.7647060155868530e-01 }
                  - { var:30, quality:4.5399713516235352e-01,
                      le:2.0196078717708588e-01 }
                  - { var:40, quality:4.4993779063224792e-01,
                      le:3.2745099067687988e-01 }
                  - { var:28, quality:4.4821956753730774e-01,
                      le:3.2352942228317261e-01 }
                  - { var:36, quality:4.4821295142173767e-01,
                      le:2.0588235557079315e-01 }
                  - { var:43, quality:4.4031119346618652e-01,
                      le:3.1176471710205078e-01 }
                  - { var:41, quality:4.3658632040023804e-01,
                      le:2.7254903316497803e-01 }
                  - { var:46, quality:4.3319219350814819e-01,
                      le:3.3137255907058716e-01 }
                  - { var:29, quality:4.3261232972145081e-01,
                      le:2.4509803950786591e-01 }
                  - { var:27, quality:4.2813253402709961e-01,
                      le:2.0196078717708588e-01 }
                  - { var:49, quality:4.2735835909843445e-01,
                      le:3.1568628549575806e-01 }
                  - { var:44, quality:4.2547985911369324e-01,
                      le:2.5294119119644165e-01 }
                  - { var:52, quality:4.2476987838745117e-01,
                      le:3.1176471710205078e-01 }
                  - { var:39, quality:4.2465072870254517e-01,
                      le:1.9019608199596405e-01 }
                  - { var:55, quality:4.2375078797340393e-01,
                      le:2.9607844352722168e-01 }
                  - { var:47, quality:4.2145189642906189e-01,
                      le:2.6078432798385620e-01 }
                  - { var:58, quality:4.1936436295509338e-01,
                      le:3.0392158031463623e-01 }
                  - { var:50, quality:4.1627049446105957e-01,
                      le:2.5686275959014893e-01 }
                  - { var:61, quality:4.1532626748085022e-01,
                      le:2.9607844352722168e-01 }
                  - { var:42, quality:4.1451296210289001e-01,
                      le:1.9803921878337860e-01 }
                  - { var:64, quality:4.1432812809944153e-01,
                      le:3.0392158031463623e-01 }
                  - { var:45, quality:4.1216140985488892e-01,
                      le:1.6666667163372040e-01 }
                  - { var:67, quality:4.1184920072555542e-01,
                      le:3.0784314870834351e-01 }
                  - { var:56, quality:4.1153731942176819e-01,
                      le:2.3725490272045135e-01 }
                  - { var:53, quality:4.1126319766044617e-01,
                      le:2.4117647111415863e-01 }
                  - { var:59, quality:4.0899524092674255e-01,
                      le:2.3725490272045135e-01 }
                  - { var:48, quality:4.0869930386543274e-01,
                      le:1.9803921878337860e-01 }
                  - { var:70, quality:4.0725708007812500e-01,
                      le:2.9607844352722168e-01 }
                  - { var:54, quality:4.0650400519371033e-01,
                      le:1.9019608199596405e-01 }
                  - { var:62, quality:4.0475335717201233e-01,
                      le:2.5294119119644165e-01 }
                  - { var:65, quality:4.0456929802894592e-01,
                      le:2.5686275959014893e-01 }
                  - { var:73, quality:4.0348136425018311e-01,
                      le:3.1176471710205078e-01 }
                  - { var:51, quality:4.0238693356513977e-01,
                      le:1.8627451360225677e-01 }
                  - { var:68, quality:4.0053835511207581e-01,
                      le:2.4509803950786591e-01 }
                  - { var:57, quality:4.0049648284912109e-01,
                      le:1.7843137681484222e-01 }
                  - { var:76, quality:4.0023753046989441e-01,
                      le:3.2745099067687988e-01 }
                  - { var:63, quality:3.9927485585212708e-01,
                      le:1.9803921878337860e-01 }
                  - { var:60, quality:3.9873993396759033e-01,
                      le:1.5490196645259857e-01 }
                  - { var:71, quality:3.9777565002441406e-01,
                      le:2.4509803950786591e-01 }
                  - { var:74, quality:3.9708662033081055e-01,
                      le:2.3333333432674408e-01 }
                  - { var:79, quality:3.9693292975425720e-01,
                      le:3.0000001192092896e-01 }
                  - { var:77, quality:3.9447018504142761e-01,
                      le:2.4509803950786591e-01 }
                  - { var:66, quality:3.9354702830314636e-01,
                      le:2.0980392396450043e-01 }
                  - { var:69, quality:3.9101094007492065e-01,
                      le:1.7450980842113495e-01 }
                  - { var:80, quality:3.8970288634300232e-01,
                      le:2.3333333432674408e-01 }
                  - { var:72, quality:3.8956934213638306e-01,
                      le:1.7450980842113495e-01 }
                  - { var:75, quality:3.8859447836875916e-01,
                      le:1.7450980842113495e-01 }
                  - { var:78, quality:3.8370624184608459e-01,
                      le:1.5098039805889130e-01 }
                  - { var:10, quality:3.1393542885780334e-01,
                      le:1.5427060425281525e-03 }
                  - { var:19, quality:3.1304138898849487e-01,
                      le:1.0180361568927765e-03 }
                  - { var:11, quality:3.1301286816596985e-01,
                      gt:1.1830982565879822e-01 }
                  - { var:12, quality:3.1297448277473450e-01,
                      gt:7.9566895961761475e-02 }
                  - { var:3, quality:3.1290957331657410e-01,
                      le:8.4979164967080578e-06 }
                  - { var:5, quality:3.1257489323616028e-01,
                      le:1.1076626833528280e-05 }
                  - { var:25, quality:3.1255823373794556e-01,
                      gt:1.0095126181840897e-01 }
                  - { var:8, quality:3.1239104270935059e-01,
                      gt:5.8743357658386230e-03 }
                  - { var:2, quality:3.1235086917877197e-01,
                      gt:6.1131487600505352e-03 }
                  - { var:20, quality:3.1229016184806824e-01,
                      gt:1.3666886091232300e-01 }
                  - { var:6, quality:3.1225708127021790e-01,
                      gt:6.5617021173238754e-03 }
                  - { var:24, quality:3.1221443414688110e-01,
                      gt:1.0361556708812714e-01 }
                  - { var:1, quality:3.1220686435699463e-01,
                      le:1.0533403838053346e-05 }
                  - { var:7, quality:3.1218448281288147e-01,
                      le:8.2752430898835883e-06 }
                  - { var:13, quality:3.1202688813209534e-01,
                      gt:1.4950461685657501e-01 }
                  - { var:22, quality:3.1200131773948669e-01,
                      gt:5.0624392926692963e-02 }
                  - { var:21, quality:3.1194508075714111e-01,
                      gt:1.1692874133586884e-01 }
                  - { var:26, quality:3.1186339259147644e-01,
                      gt:2.3666352033615112e-01 }
                  - { var:0, quality:3.1186309456825256e-01,
                      gt:7.0919287391006947e-03 }
                  - { var:23, quality:3.1186121702194214e-01,
                      gt:9.0849205851554871e-02 }
                  - { var:14, quality:3.1183373928070068e-01,
                      gt:1.2409310042858124e-01 }
                  - { var:16, quality:3.1179976463317871e-01,
                      le:1.4166533946990967e-04 }
                  - { var:15, quality:3.1173586845397949e-01,
                      gt:2.9833427071571350e-01 }
                  - { var:9, quality:3.1171777844429016e-01,
                      gt:8.4276378154754639e-01 }
                  - { var:17, quality:3.1171408295631409e-01,
                      gt:2.8488558530807495e-01 }
            -
               depth: 1
               sample_count: 3635
               value: -1.3519859310643101e-01
               norm_class_idx: 0
               Tn: 0
               complexity: 0
               alpha: 0.
               node_risk: 0.
               tree_risk: 0.
               tree_error: 0.
            -
               depth: 1
               sample_count: 6155
               value: 1.3519859310643101e-01
               norm_class_idx: 1
               Tn: 0
               complexity: 0
               alpha: 0.
               node_risk: 0.
               tree_risk: 0.
               tree_error: 0.
      -
         best_tree_idx: -1
         nodes:
            -
               depth: 0
               sample_count: 9381
               value: -5.5177607596502511e-02
               norm_class_idx: 0
               Tn: 0
               complexity: 0
               alpha: 0.
               node_risk: 0.
               tree_risk: 0.
               tree_error: 0.
               splits:
                  - { var:18, quality:5.0902765989303589e-01,
                      le:1.0314855724573135e-01 }
                  - { var:19, quality:4.4565260410308838e-01,
                      le:7.8766100108623505e-02 }
                  - { var:17, quality:4.4156950712203979e-01,
                      le:1.0935294628143311e-01 }
                  - { var:0, quality:4.4130009412765503e-01,
                      le:8.0126505345106125e-03 }
                  - { var:9, quality:4.4126793742179871e-01,
                      le:3.7431681156158447e-01 }
                  - { var:1, quality:4.4112575054168701e-01,
                      le:5.8006625622510910e-03 }
                  - { var:25, quality:4.4107434153556824e-01,
                      le:1.3553625345230103e-01 }
                  - { var:3, quality:4.4103801250457764e-01,
                      le:5.8223893865942955e-03 }
                  - { var:13, quality:4.4103094935417175e-01,
                      gt:1.1482276022434235e-05 }
                  - { var:8, quality:4.4101944565773010e-01,
                      le:7.3531754314899445e-03 }
                  - { var:6, quality:4.4101944565773010e-01,
                      le:7.1858661249279976e-03 }
                  - { var:2, quality:4.4101944565773010e-01,
                      le:7.5221052393317223e-03 }
                  - { var:7, quality:4.4101655483245850e-01,
                      le:5.7887323200702667e-03 }
                  - { var:5, quality:4.4101285934448242e-01,
                      le:5.6035770103335381e-03 }
                  - { var:14, quality:4.4099912047386169e-01,
                      le:1.7568112909793854e-01 }
                  - { var:16, quality:4.4099080562591553e-01,
                      le:3.5844415426254272e-01 }
                  - { var:26, quality:4.4098654389381409e-01,
                      le:4.1110706329345703e-01 }
                  - { var:11, quality:4.4098478555679321e-01,
                      gt:2.7343630790710449e-06 }
            -
               depth: 1
               sample_count: 7969
               value: -5.5177607596502511e-02
               norm_class_idx: 0
               Tn: 0
               complexity: 0
               alpha: 0.
               node_risk: 0.
               tree_risk: 0.
               tree_error: 0.
            -
               depth: 1
               sample_count: 1412
               value: 5.5177607596502511e-02
               norm_class_idx: 1
               Tn: 0
               complexity: 0
               alpha: 0.
               node_risk: 0.
               tree_risk: 0.
               tree_error: 0.
      -
         best_tree_idx: -1
         nodes:
            -
               depth: 0
               sample_count: 9477
               value: 1.5234867536944890e-01
               norm_class_idx: 1
               Tn: 0
               complexity: 0
               alpha: 0.
               node_risk: 0.
               tree_risk: 0.
               tree_error: 0.
               splits:
                  - { var:20, quality:5.0764089822769165e-01,
                      le:2.2904504090547562e-02 }
                  - { var:19, quality:3.6903196573257446e-01,
                      le:3.9323575794696808e-02 }
                  - { var:21, quality:3.6581620573997498e-01,
                      le:2.6473801583051682e-02 }
                  - { var:16, quality:3.5796049237251282e-01,
                      le:2.8050376102328300e-02 }
                  - { var:10, quality:3.5780051350593567e-01,
                      le:6.9719210267066956e-02 }
                  - { var:26, quality:3.5728421807289124e-01,
                      le:7.1814544498920441e-02 }
                  - { var:22, quality:3.5535782575607300e-01,
                      le:3.3736396580934525e-02 }
                  - { var:9, quality:3.5402157902717590e-01,
                      le:6.2367647886276245e-02 }
                  - { var:17, quality:3.5382449626922607e-01,
                      le:4.0941428393125534e-02 }
                  - { var:15, quality:3.5274171829223633e-01,
                      le:4.1093371808528900e-02 }
                  - { var:14, quality:3.5175719857215881e-01,
                      le:4.5847639441490173e-02 }
                  - { var:11, quality:3.5135984420776367e-01,
                      le:7.9087860882282257e-02 }
                  - { var:18, quality:3.5032108426094055e-01,
                      le:5.6586253643035889e-01 }
                  - { var:13, quality:3.5023635625839233e-01,
                      le:3.7610858678817749e-02 }
                  - { var:25, quality:3.4996658563613892e-01,
                      le:8.4561884403228760e-02 }
                  - { var:12, quality:3.4975630044937134e-01,
                      le:7.3381319642066956e-02 }
                  - { var:36, quality:3.4961640834808350e-01,
                      le:9.9019610881805420e-01 }
                  - { var:39, quality:3.4931501746177673e-01,
                      le:9.9803924560546875e-01 }
                  - { var:45, quality:3.4923055768013000e-01,
                      le:9.9803924560546875e-01 }
                  - { var:0, quality:3.4921410679817200e-01,
                      le:4.5156897976994514e-03 }
                  - { var:31, quality:3.4919223189353943e-01,
                      le:9.9411761760711670e-01 }
                  - { var:3, quality:3.4914916753768921e-01,
                      le:4.8994338139891624e-03 }
                  - { var:2, quality:3.4911879897117615e-01,
                      le:4.2999070137739182e-03 }
                  - { var:42, quality:3.4909081459045410e-01,
                      le:9.9411761760711670e-01 }
                  - { var:5, quality:3.4908506274223328e-01,
                      le:4.4709322974085808e-03 }
                  - { var:27, quality:3.4906098246574402e-01,
                      le:9.8627448081970215e-01 }
                  - { var:1, quality:3.4886556863784790e-01,
                      le:5.6503238156437874e-03 }
                  - { var:7, quality:3.4875598549842834e-01,
                      le:4.9751913174986839e-03 }
                  - { var:6, quality:3.4867930412292480e-01,
                      le:5.3972392342984676e-03 }
                  - { var:8, quality:3.4867247939109802e-01,
                      le:5.0208624452352524e-03 }
                  - { var:37, quality:3.4862425923347473e-01,
                      le:9.9019610881805420e-01 }
                  - { var:28, quality:3.4862092137336731e-01,
                      le:9.9803924560546875e-01 }
                  - { var:4, quality:3.4853604435920715e-01,
                      le:4.5104911550879478e-03 }
                  - { var:33, quality:3.4841960668563843e-01,
                      le:9.7843134403228760e-01 }
                  - { var:24, quality:3.4841385483741760e-01,
                      gt:1.2599118053913116e-04 }
                  - { var:46, quality:3.4840500354766846e-01,
                      le:9.8235297203063965e-01 }
            -
               depth: 1
               sample_count: 6740
               value: 1.5234867536944890e-01
               norm_class_idx: 1
               Tn: 0
               complexity: 0
               alpha: 0.
               node_risk: 0.
               tree_risk: 0.
               tree_error: 0.
            -
               depth: 1
               sample_count: 2737
               value: -1.5234867536944890e-01
               norm_class_idx: 0
               Tn: 0
               complexity: 0
               alpha: 0.
               node_risk: 0.
               tree_risk: 0.
               tree_error: 0.
      -
         best_tree_idx: -1
         nodes:
            -
               depth: 0
               sample_count: 9269
               value: -5.0626394566833696e-02
               norm_class_idx: 0
               Tn: 0
               complexity: 0
               alpha: 0.
               node_risk: 0.
               tree_risk: 0.
               tree_error: 0.
               splits:
                  - { var:18, quality:5.0724238157272339e-01,
                      le:1.0314855724573135e-01 }
                  - { var:19, quality:4.4467681646347046e-01,
                      le:7.8766100108623505e-02 }
                  - { var:17, quality:4.4066977500915527e-01,
                      le:1.1093264818191528e-01 }
                  - { var:0, quality:4.4054755568504333e-01,
                      le:7.9930257052183151e-03 }
                  - { var:9, quality:4.4041651487350464e-01,
                      le:3.7431681156158447e-01 }
                  - { var:1, quality:4.4031754136085510e-01,
                      le:5.8006625622510910e-03 }
                  - { var:25, quality:4.4027441740036011e-01,
                      le:1.3553625345230103e-01 }
                  - { var:13, quality:4.4020164012908936e-01,
                      gt:1.1482276022434235e-05 }
                  - { var:3, quality:4.4019931554794312e-01,
                      le:5.8223893865942955e-03 }
                  - { var:7, quality:4.4017672538757324e-01,
                      le:5.7887323200702667e-03 }
                  - { var:8, quality:4.4017550349235535e-01,
                      le:7.3531754314899445e-03 }
                  - { var:6, quality:4.4017550349235535e-01,
                      le:7.1858661249279976e-03 }
                  - { var:2, quality:4.4017550349235535e-01,
                      le:7.5221052393317223e-03 }
                  - { var:5, quality:4.4017317891120911e-01,
                      le:5.3432197310030460e-03 }
                  - { var:14, quality:4.4015833735466003e-01,
                      le:1.7568112909793854e-01 }
                  - { var:11, quality:4.4015148282051086e-01,
                      gt:2.7343630790710449e-06 }
                  - { var:16, quality:4.4014960527420044e-01,
                      le:3.5844415426254272e-01 }
                  - { var:26, quality:4.4014513492584229e-01,
                      le:4.1110706329345703e-01 }
            -
               depth: 1
               sample_count: 7882
               value: -5.0626394566833696e-02
               norm_class_idx: 0
               Tn: 0
               complexity: 0
               alpha: 0.
               node_risk: 0.
               tree_risk: 0.
               tree_error: 0.
            -
               depth: 1
               sample_count: 1387
               value: 5.0626394566833696e-02
               norm_class_idx: 1
               Tn: 0
               complexity: 0
               alpha: 0.
               node_risk: 0.
               tree_risk: 0.
               tree_error: 0.
      -
         best_tree_idx: -1
         nodes:
            -
               depth: 0
               sample_count: 9295
               value: -5.8713023858018625e-02
               norm_class_idx: 0
               Tn: 0
               complexity: 0
               alpha: 0.
               node_risk: 0.
               tree_risk: 0.
               tree_error: 0.
               splits:
                  - { var:31, quality:5.0234222412109375e-01,
                      le:3.7843137979507446e-01 }
                  - { var:32, quality:4.7461706399917603e-01,
                      le:3.0784314870834351e-01 }
                  - { var:28, quality:4.5971933007240295e-01,
                      le:3.6274510622024536e-01 }
                  - { var:34, quality:4.5860239863395691e-01,
                      le:3.6274510622024536e-01 }
                  - { var:30, quality:4.5816558599472046e-01,
                      le:2.5294119119644165e-01 }
                  - { var:29, quality:4.4099295139312744e-01,
                      le:3.2352942228317261e-01 }
                  - { var:35, quality:4.4095852971076965e-01,
                      le:2.9607844352722168e-01 }
                  - { var:37, quality:4.3586352467536926e-01,
                      le:3.5490196943283081e-01 }
                  - { var:27, quality:4.3341448903083801e-01,
                      le:2.2549019753932953e-01 }
                  - { var:33, quality:4.3186631798744202e-01,
                      le:2.2549019753932953e-01 }
                  - { var:40, quality:4.2459404468536377e-01,
                      le:3.3921569585800171e-01 }
                  - { var:38, quality:4.2208591103553772e-01,
                      le:2.8431373834609985e-01 }
                  - { var:43, quality:4.1463544964790344e-01,
                      le:3.8235294818878174e-01 }
                  - { var:36, quality:4.1171780228614807e-01,
                      le:2.1372549235820770e-01 }
                  - { var:41, quality:4.1010576486587524e-01,
                      le:2.8039216995239258e-01 }
                  - { var:46, quality:4.0891534090042114e-01,
                      le:3.3137255907058716e-01 }
                  - { var:49, quality:4.0859645605087280e-01,
                      le:3.5098040103912354e-01 }
                  - { var:52, quality:4.0338191390037537e-01,
                      le:3.4705883264541626e-01 }
                  - { var:44, quality:4.0170529484748840e-01,
                      le:3.0784314870834351e-01 }
                  - { var:55, quality:3.9842090010643005e-01,
                      le:3.3921569585800171e-01 }
                  - { var:39, quality:3.9835548400878906e-01,
                      le:2.1764706075191498e-01 }
                  - { var:47, quality:3.9558893442153931e-01,
                      le:2.8039216995239258e-01 }
                  - { var:50, quality:3.9450246095657349e-01,
                      le:3.0000001192092896e-01 }
                  - { var:58, quality:3.9343494176864624e-01,
                      le:3.1960785388946533e-01 }
                  - { var:61, quality:3.9336168766021729e-01,
                      le:3.2352942228317261e-01 }
                  - { var:42, quality:3.9187231659889221e-01,
                      le:2.1372549235820770e-01 }
                  - { var:64, quality:3.9105758070945740e-01,
                      le:3.6666667461395264e-01 }
                  - { var:48, quality:3.8996285200119019e-01,
                      le:2.2156862914562225e-01 }
                  - { var:45, quality:3.8751888275146484e-01,
                      le:2.0980392396450043e-01 }
                  - { var:53, quality:3.8751527667045593e-01,
                      le:2.8823530673980713e-01 }
                  - { var:56, quality:3.8578090071678162e-01,
                      le:2.9607844352722168e-01 }
                  - { var:67, quality:3.8390985131263733e-01,
                      le:3.0784314870834351e-01 }
                  - { var:70, quality:3.8340488076210022e-01,
                      le:3.4705883264541626e-01 }
                  - { var:62, quality:3.8252452015876770e-01,
                      le:3.0392158031463623e-01 }
                  - { var:59, quality:3.8240256905555725e-01,
                      le:3.1960785388946533e-01 }
                  - { var:51, quality:3.8210499286651611e-01,
                      le:2.2941176593303680e-01 }
                  - { var:65, quality:3.8157984614372253e-01,
                      le:2.9607844352722168e-01 }
                  - { var:73, quality:3.8141912221908569e-01,
                      le:3.2745099067687988e-01 }
                  - { var:76, quality:3.7981685996055603e-01,
                      le:3.2745099067687988e-01 }
                  - { var:54, quality:3.7905225157737732e-01,
                      le:1.9019608199596405e-01 }
                  - { var:68, quality:3.7637829780578613e-01,
                      le:3.0000001192092896e-01 }
                  - { var:60, quality:3.7626799941062927e-01,
                      le:2.4901962280273438e-01 }
                  - { var:63, quality:3.7616339325904846e-01,
                      le:2.1764706075191498e-01 }
                  - { var:57, quality:3.7570637464523315e-01,
                      le:2.3725490272045135e-01 }
                  - { var:77, quality:3.7407714128494263e-01,
                      le:2.6862746477127075e-01 }
                  - { var:79, quality:3.7346705794334412e-01,
                      le:3.1568628549575806e-01 }
                  - { var:71, quality:3.7328749895095825e-01,
                      le:3.0392158031463623e-01 }
                  - { var:74, quality:3.7086680531501770e-01,
                      le:2.9215687513351440e-01 }
                  - { var:66, quality:3.6943832039833069e-01,
                      le:2.1764706075191498e-01 }
                  - { var:75, quality:3.6754944920539856e-01,
                      le:2.0980392396450043e-01 }
                  - { var:80, quality:3.6645752191543579e-01,
                      le:2.5294119119644165e-01 }
                  - { var:72, quality:3.6608979105949402e-01,
                      le:2.1764706075191498e-01 }
                  - { var:69, quality:3.6582753062248230e-01,
                      le:2.4117647111415863e-01 }
                  - { var:78, quality:3.5837829113006592e-01,
                      le:2.2941176593303680e-01 }
                  - { var:18, quality:2.7798795700073242e-01,
                      le:1.1322087608277798e-02 }
                  - { var:9, quality:2.7728170156478882e-01,
                      le:1.0081076994538307e-02 }
                  - { var:10, quality:2.7575889229774475e-01,
                      le:2.5136135518550873e-03 }
                  - { var:19, quality:2.7326506376266479e-01,
                      le:2.5048851966857910e-03 }
                  - { var:16, quality:2.7314162254333496e-01,
                      le:1.7462559044361115e-03 }
                  - { var:11, quality:2.7313736081123352e-01,
                      gt:1.0635618120431900e-01 }
                  - { var:25, quality:2.7243068814277649e-01,
                      gt:6.8777941167354584e-02 }
                  - { var:22, quality:2.7201634645462036e-01,
                      gt:4.9995146691799164e-02 }
                  - { var:24, quality:2.7192252874374390e-01,
                      gt:9.0404890477657318e-02 }
                  - { var:3, quality:2.7161800861358643e-01,
                      le:1.2218272786412854e-05 }
                  - { var:5, quality:2.7158808708190918e-01,
                      le:1.1076626833528280e-05 }
                  - { var:7, quality:2.7148354053497314e-01,
                      le:1.0851053957594559e-05 }
                  - { var:23, quality:2.7148282527923584e-01,
                      le:2.9405578970909119e-04 }
                  - { var:12, quality:2.7140173316001892e-01,
                      gt:7.7754735946655273e-02 }
                  - { var:1, quality:2.7137050032615662e-01,
                      le:1.1143405572511256e-05 }
                  - { var:26, quality:2.7123034000396729e-01,
                      le:1.6583409160375595e-03 }
                  - { var:2, quality:2.7113598585128784e-01,
                      gt:6.0506388545036316e-03 }
                  - { var:8, quality:2.7108246088027954e-01,
                      gt:5.9154522605240345e-03 }
                  - { var:4, quality:2.7099496126174927e-01,
                      le:1.5103491932677571e-05 }
                  - { var:0, quality:2.7089482545852661e-01,
                      gt:4.8993593081831932e-03 }
                  - { var:6, quality:2.7075845003128052e-01,
                      gt:6.3908817246556282e-03 }
                  - { var:20, quality:2.7073389291763306e-01,
                      gt:1.2171009182929993e-01 }
                  - { var:17, quality:2.7066323161125183e-01,
                      le:3.4795794636011124e-03 }
                  - { var:21, quality:2.7063632011413574e-01,
                      gt:8.1805072724819183e-02 }
                  - { var:14, quality:2.7056628465652466e-01,
                      gt:1.1688368022441864e-01 }
                  - { var:15, quality:2.7043902873992920e-01,
                      le:2.3060850799083710e-04 }
                  - { var:13, quality:2.7043724060058594e-01,
                      gt:1.0743068158626556e-01 }
            -
               depth: 1
               sample_count: 4394
               value: 5.8713023858018625e-02
               norm_class_idx: 1
               Tn: 0
               complexity: 0
               alpha: 0.
               node_risk: 0.
               tree_risk: 0.
               tree_error: 0.
            -
               depth: 1
               sample_count: 4901
               value: -5.8713023858018625e-02
               norm_class_idx: 0
               Tn: 0
               complexity: 0
               alpha: 0.
               node_risk: 0.
               tree_risk: 0.
               tree_error: 0.
      -
         best_tree_idx: -1
         nodes:
            -
               depth: 0
               sample_count: 9417
               value: -5.8078670892208091e-02
               norm_class_idx: 0
               Tn: 0
               complexity: 0
               alpha: 0.
               node_risk: 0.
               tree_risk: 0.
               tree_error: 0.
               splits:
                  - { var:12, quality:5.0304925441741943e-01,
                      le:2.1858928725123405e-02 }
                  - { var:13, quality:3.7615507841110229e-01,
                      le:3.5500928759574890e-02 }
                  - { var:11, quality:3.7590369582176208e-01,
                      le:4.1311196982860565e-02 }
                  - { var:18, quality:3.6639255285263062e-01,
                      le:2.7710694074630737e-01 }
                  - { var:19, quality:3.6348667740821838e-01,
                      le:7.7794544398784637e-02 }
                  - { var:23, quality:3.6317983269691467e-01,
                      le:4.2172670364379883e-02 }
                  - { var:17, quality:3.6317902803421021e-01,
                      le:1.0684970021247864e-01 }
                  - { var:24, quality:3.6219629645347595e-01,
                      le:8.8735558092594147e-02 }
                  - { var:15, quality:3.6201027035713196e-01,
                      le:4.8048771917819977e-02 }
                  - { var:20, quality:3.6185395717620850e-01,
                      le:9.4786420464515686e-02 }
                  - { var:25, quality:3.6167097091674805e-01,
                      le:7.2907395660877228e-02 }
                  - { var:14, quality:3.6163261532783508e-01,
                      le:7.2254046797752380e-02 }
                  - { var:0, quality:3.6139750480651855e-01,
                      le:6.4648035913705826e-03 }
                  - { var:9, quality:3.6134189367294312e-01,
                      le:2.4406605958938599e-01 }
                  - { var:6, quality:3.6111983656883240e-01,
                      le:5.6097269989550114e-03 }
                  - { var:22, quality:3.6109754443168640e-01,
                      le:3.4992791712284088e-02 }
                  - { var:7, quality:3.6106321215629578e-01,
                      le:4.9783485010266304e-03 }
                  - { var:16, quality:3.6098340153694153e-01,
                      le:1.4164546132087708e-01 }
                  - { var:21, quality:3.6092260479927063e-01,
                      le:8.0822616815567017e-02 }
                  - { var:26, quality:3.6069214344024658e-01,
                      le:2.7255290746688843e-01 }
                  - { var:4, quality:3.6067226529121399e-01,
                      le:5.3903800435364246e-03 }
                  - { var:2, quality:3.6065399646759033e-01,
                      le:6.4445021562278271e-03 }
                  - { var:8, quality:3.6062967777252197e-01,
                      le:6.8743312731385231e-03 }
                  - { var:1, quality:3.6061441898345947e-01,
                      le:5.7757291942834854e-03 }
                  - { var:3, quality:3.6057227849960327e-01,
                      le:5.3929956629872322e-03 }
                  - { var:10, quality:3.6056837439537048e-01,
                      le:2.5063824653625488e-01 }
            -
               depth: 1
               sample_count: 6612
               value: -5.8078670892208091e-02
               norm_class_idx: 0
               Tn: 0
               complexity: 0
               alpha: 0.
               node_risk: 0.
               tree_risk: 0.
               tree_error: 0.
            -
               depth: 1
               sample_count: 2805
               value: 5.8078670892208091e-02
               norm_class_idx: 1
               Tn: 0
               complexity: 0
               alpha: 0.
               node_risk: 0.
               tree_risk: 0.
               tree_error: 0.
      -
         best_tree_idx: -1
         nodes:
            -
               depth: 0
               sample_count: 9376
               value: 1.6728406479242242e-01
               norm_class_idx: 1
               Tn: 0
               complexity: 0
               alpha: 0.
               node_risk: 0.
               tree_risk: 0.
               tree_error: 0.
               splits:
                  - { var:26, quality:4.9702143669128418e-01,
                      le:5.8174058794975281e-02 }
                  - { var:17, quality:4.3178486824035645e-01,
                      le:1.3314068317413330e-01 }
                  - { var:25, quality:4.3084132671356201e-01,
                      le:7.4224919080734253e-02 }
                  - { var:18, quality:4.3041819334030151e-01,
                      le:7.8973305225372314e-01 }
                  - { var:9, quality:4.3015566468238831e-01,
                      le:2.9615849256515503e-01 }
                  - { var:13, quality:4.3010789155960083e-01,
                      le:1.4950461685657501e-01 }
                  - { var:24, quality:4.3007257580757141e-01,
                      le:1.4580157399177551e-01 }
                  - { var:16, quality:4.3002548813819885e-01,
                      le:1.9894859194755554e-01 }
                  - { var:5, quality:4.3001693487167358e-01,
                      le:5.2200136706233025e-03 }
                  - { var:11, quality:4.2998239398002625e-01,
                      le:2.5418770313262939e-01 }
                  - { var:1, quality:4.2997953295707703e-01,
                      le:5.9093036688864231e-03 }
                  - { var:22, quality:4.2995709180831909e-01,
                      le:2.1643698215484619e-01 }
                  - { var:3, quality:4.2994606494903564e-01,
                      le:5.9236339293420315e-03 }
                  - { var:12, quality:4.2991986870765686e-01,
                      le:2.8752788901329041e-01 }
                  - { var:7, quality:4.2991709709167480e-01,
                      le:6.1674951575696468e-03 }
                  - { var:8, quality:4.2991468310356140e-01,
                      le:7.5404527597129345e-03 }
                  - { var:6, quality:4.2991468310356140e-01,
                      le:7.5745601207017899e-03 }
                  - { var:2, quality:4.2991468310356140e-01,
                      le:7.8139230608940125e-03 }
                  - { var:0, quality:4.2991468310356140e-01,
                      le:9.0283434838056564e-03 }
            -
               depth: 1
               sample_count: 8285
               value: 1.6728406479242242e-01
               norm_class_idx: 1
               Tn: 0
               complexity: 0
               alpha: 0.
               node_risk: 0.
               tree_risk: 0.
               tree_error: 0.
            -
               depth: 1
               sample_count: 1091
               value: -1.6728406479242242e-01
               norm_class_idx: 0
               Tn: 0
               complexity: 0
               alpha: 0.
               node_risk: 0.
               tree_risk: 0.
               tree_error: 0.
      -
         best_tree_idx: -1
         nodes:
            -
               depth: 0
               sample_count: 9312
               value: -9.0538428392189049e-02
               norm_class_idx: 0
               Tn: 0
               complexity: 0
               alpha: 0.
               node_risk: 0.
               tree_risk: 0.
               tree_error: 0.
               splits:
                  - { var:9, quality:5.1815026998519897e-01,
                      le:6.4308479428291321e-02 }
                  - { var:10, quality:4.6076408028602600e-01,
                      le:1.5023326873779297e-01 }
                  - { var:13, quality:4.5934629440307617e-01,
                      le:1.4950461685657501e-01 }
                  - { var:18, quality:4.5926052331924438e-01,
                      le:9.3578296899795532e-01 }
                  - { var:17, quality:4.5925715565681458e-01,
                      gt:6.2133185565471649e-06 }
                  - { var:22, quality:4.5923852920532227e-01,
                      gt:1.4092773199081421e-05 }
                  - { var:3, quality:4.5923575758934021e-01,
                      le:5.7028513401746750e-03 }
                  - { var:5, quality:4.5922797918319702e-01,
                      le:5.4694148711860180e-03 }
                  - { var:1, quality:4.5919787883758545e-01,
                      le:6.2072267755866051e-03 }
                  - { var:7, quality:4.5917361974716187e-01,
                      le:5.1788282580673695e-03 }
                  - { var:26, quality:4.5916849374771118e-01,
                      le:4.1110706329345703e-01 }
            -
               depth: 1
               sample_count: 8113
               value: -9.0538428392189049e-02
               norm_class_idx: 0
               Tn: 0
               complexity: 0
               alpha: 0.
               node_risk: 0.
               tree_risk: 0.
               tree_error: 0.
            -
               depth: 1
               sample_count: 1199
               value: 9.0538428392189049e-02
               norm_class_idx: 1
               Tn: 0
               complexity: 0
               alpha: 0.
               node_risk: 0.
               tree_risk: 0.
               tree_error: 0.
      -
         best_tree_idx: -1
         nodes:
            -
               depth: 0
               sample_count: 9326
               value: -2.7581800448071722e-02
               norm_class_idx: 0
               Tn: 0
               complexity: 0
               alpha: 0.
               node_risk: 0.
               tree_risk: 0.
               tree_error: 0.
               splits:
                  - { var:16, quality:5.0177443027496338e-01,
                      le:3.0017653480172157e-03 }
                  - { var:14, quality:4.4731900095939636e-01,
                      le:7.3611736297607422e-06 }
                  - { var:22, quality:4.4720876216888428e-01,
                      le:1.1628493666648865e-05 }
                  - { var:18, quality:4.4714635610580444e-01,
                      gt:9.3578296899795532e-01 }
                  - { var:13, quality:4.4713723659515381e-01,
                      le:7.0565380156040192e-05 }
                  - { var:19, quality:4.4712406396865845e-01,
                      le:1.1421740055084229e-05 }
                  - { var:20, quality:4.4709959626197815e-01,
                      le:9.1902911663055420e-06 }
                  - { var:15, quality:4.4708883762359619e-01,
                      le:1.1736527085304260e-05 }
                  - { var:21, quality:4.4708794355392456e-01,
                      gt:1.8148158490657806e-01 }
                  - { var:6, quality:4.4706034660339355e-01,
                      le:4.0806480683386326e-07 }
                  - { var:9, quality:4.4705834984779358e-01,
                      gt:9.0845072269439697e-01 }
            -
               depth: 1
               sample_count: 1150
               value: 2.7581800448071722e-02
               norm_class_idx: 1
               Tn: 0
               complexity: 0
               alpha: 0.
               node_risk: 0.
               tree_risk: 0.
               tree_error: 0.
            -
               depth: 1
               sample_count: 8176
               value: -2.7581800448071722e-02
               norm_class_idx: 0
               Tn: 0
               complexity: 0
               alpha: 0.
               node_risk: 0.
               tree_risk: 0.
               tree_error: 0.
      -
         best_tree_idx: -1
         nodes:
            -
               depth: 0
               sample_count: 9288
               value: -5.2575086489272192e-02
               norm_class_idx: 0
               Tn: 0
               complexity: 0
               alpha: 0.
               node_risk: 0.
               tree_risk: 0.
               tree_error: 0.
               splits:
                  - { var:20, quality:4.9860319495201111e-01,
                      le:1.6382008790969849e-02 }
                  - { var:19, quality:3.3279502391815186e-01,
                      le:2.5777626782655716e-02 }
                  - { var:21, quality:3.2851174473762512e-01,
                      le:1.7075989395380020e-02 }
                  - { var:10, quality:3.1481674313545227e-01,
                      le:3.2745335251092911e-02 }
                  - { var:16, quality:3.1477072834968567e-01,
                      le:2.4124631658196449e-02 }
                  - { var:17, quality:3.1413853168487549e-01,
                      le:2.7977142482995987e-02 }
                  - { var:18, quality:3.0926355719566345e-01,
                      le:3.3575642853975296e-02 }
                  - { var:26, quality:3.0684006214141846e-01,
                      le:2.9845038428902626e-02 }
                  - { var:15, quality:3.0372291803359985e-01,
                      le:2.2352984175086021e-02 }
                  - { var:11, quality:3.0299580097198486e-01,
                      le:2.1411184221506119e-02 }
                  - { var:22, quality:3.0268406867980957e-01,
                      le:1.8027476966381073e-02 }
                  - { var:9, quality:3.0170598626136780e-01,
                      le:3.8847196847200394e-02 }
                  - { var:5, quality:2.9630160331726074e-01,
                      le:1.1439877562224865e-03 }
                  - { var:7, quality:2.9624375700950623e-01,
                      le:1.2662482913583517e-03 }
                  - { var:0, quality:2.9581752419471741e-01,
                      le:1.0362211614847183e-03 }
                  - { var:3, quality:2.9581543803215027e-01,
                      le:1.1306547094136477e-03 }
                  - { var:4, quality:2.9570090770721436e-01,
                      le:1.3143183896318078e-03 }
                  - { var:1, quality:2.9563787579536438e-01,
                      le:1.2608297402039170e-03 }
                  - { var:14, quality:2.9537811875343323e-01,
                      le:2.5679409503936768e-02 }
                  - { var:6, quality:2.9433751106262207e-01,
                      le:1.4096552040427923e-03 }
                  - { var:2, quality:2.9411721229553223e-01,
                      le:1.2069090735167265e-03 }
                  - { var:23, quality:2.9397082328796387e-01,
                      le:2.1233327686786652e-02 }
                  - { var:8, quality:2.9324850440025330e-01,
                      le:1.9380152225494385e-03 }
                  - { var:12, quality:2.9088538885116577e-01,
                      le:2.5711692869663239e-02 }
                  - { var:13, quality:2.9005056619644165e-01,
                      le:2.7946118265390396e-02 }
                  - { var:25, quality:2.8712755441665649e-01,
                      le:2.1891694515943527e-02 }
                  - { var:24, quality:2.8358656167984009e-01,
                      le:3.1787402927875519e-02 }
                  - { var:75, quality:2.7529928088188171e-01,
                      le:6.7254900932312012e-01 }
                  - { var:78, quality:2.7495345473289490e-01,
                      le:6.4509809017181396e-01 }
                  - { var:36, quality:2.7493965625762939e-01,
                      le:6.4509809017181396e-01 }
                  - { var:72, quality:2.7463582158088684e-01,
                      le:7.7450978755950928e-01 }
                  - { var:70, quality:2.7462962269783020e-01,
                      le:6.1372554302215576e-01 }
                  - { var:54, quality:2.7459317445755005e-01,
                      le:9.3137252330780029e-01 }
                  - { var:46, quality:2.7449613809585571e-01,
                      le:9.7843134403228760e-01 }
                  - { var:69, quality:2.7446088194847107e-01,
                      le:8.0196082592010498e-01 }
                  - { var:31, quality:2.7445340156555176e-01,
                      le:9.9411761760711670e-01 }
                  - { var:39, quality:2.7444964647293091e-01,
                      le:9.9803924560546875e-01 }
                  - { var:76, quality:2.7439787983894348e-01,
                      le:9.9803924560546875e-01 }
                  - { var:57, quality:2.7438288927078247e-01,
                      le:9.4705879688262939e-01 }
                  - { var:64, quality:2.7436438202857971e-01,
                      le:8.9999997615814209e-01 }
                  - { var:43, quality:2.7432495355606079e-01,
                      le:9.8235297203063965e-01 }
                  - { var:45, quality:2.7432096004486084e-01,
                      le:9.9803924560546875e-01 }
                  - { var:63, quality:2.7430546283721924e-01,
                      le:5.6666672229766846e-01 }
                  - { var:27, quality:2.7428275346755981e-01,
                      le:9.8627448081970215e-01 }
                  - { var:48, quality:2.7425387501716614e-01,
                      le:9.4313728809356689e-01 }
                  - { var:66, quality:2.7420884370803833e-01,
                      le:6.5294122695922852e-01 }
                  - { var:42, quality:2.7419391274452209e-01,
                      le:9.9411761760711670e-01 }
                  - { var:37, quality:2.7419349551200867e-01,
                      le:9.8627448081970215e-01 }
                  - { var:34, quality:2.7415847778320312e-01,
                      le:9.8235297203063965e-01 }
                  - { var:33, quality:2.7413806319236755e-01,
                      le:5.9803926944732666e-01 }
                  - { var:67, quality:2.7402016520500183e-01,
                      le:8.5294115543365479e-01 }
                  - { var:79, quality:2.7400267124176025e-01,
                      le:8.4117650985717773e-01 }
                  - { var:56, quality:2.7396559715270996e-01,
                      le:9.5882356166839600e-01 }
                  - { var:49, quality:2.7393451333045959e-01,
                      le:9.5882356166839600e-01 }
                  - { var:58, quality:2.7389866113662720e-01,
                      le:9.3137252330780029e-01 }
                  - { var:60, quality:2.7389076352119446e-01,
                      le:9.1176474094390869e-01 }
                  - { var:35, quality:2.7384573221206665e-01,
                      le:7.4705886840820312e-01 }
                  - { var:51, quality:2.7379965782165527e-01,
                      le:9.4705879688262939e-01 }
                  - { var:73, quality:2.7377310395240784e-01,
                      le:9.9803924560546875e-01 }
                  - { var:30, quality:2.7375468611717224e-01,
                      le:8.0980396270751953e-01 }
                  - { var:77, quality:2.7374985814094543e-01,
                      le:8.0196082592010498e-01 }
                  - { var:40, quality:2.7365517616271973e-01,
                      le:9.5098042488098145e-01 }
                  - { var:80, quality:2.7364745736122131e-01,
                      le:9.9803924560546875e-01 }
                  - { var:28, quality:2.7363944053649902e-01,
                      le:9.9803924560546875e-01 }
                  - { var:68, quality:2.7360975742340088e-01,
                      le:8.0196082592010498e-01 }
                  - { var:55, quality:2.7358251810073853e-01,
                      le:9.8235297203063965e-01 }
                  - { var:74, quality:2.7355214953422546e-01,
                      le:8.9215683937072754e-01 }
                  - { var:61, quality:2.7341479063034058e-01,
                      le:9.7843134403228760e-01 }
                  - { var:71, quality:2.7340272068977356e-01,
                      le:9.7450983524322510e-01 }
                  - { var:65, quality:2.7320811152458191e-01,
                      le:8.5882353782653809e-01 }
                  - { var:38, quality:2.7316099405288696e-01,
                      le:7.5490200519561768e-01 }
                  - { var:62, quality:2.7314573526382446e-01,
                      le:8.8823533058166504e-01 }
                  - { var:59, quality:2.7309867739677429e-01,
                      le:9.3921566009521484e-01 }
                  - { var:41, quality:2.7305778861045837e-01,
                      le:7.2745096683502197e-01 }
            -
               depth: 1
               sample_count: 5052
               value: -5.2575086489272192e-02
               norm_class_idx: 0
               Tn: 0
               complexity: 0
               alpha: 0.
               node_risk: 0.
               tree_risk: 0.
               tree_error: 0.
            -
               depth: 1
               sample_count: 4236
               value: 5.2575086489272192e-02
               norm_class_idx: 1
               Tn: 0
               complexity: 0
               alpha: 0.
               node_risk: 0.
               tree_risk: 0.
               tree_error: 0.
      -
         best_tree_idx: -1
         nodes:
            -
               depth: 0
               sample_count: 9291
               value: 8.0904450651987456e-03
               norm_class_idx: 0
               Tn: 0
               complexity: 0
               alpha: 0.
               node_risk: 0.
               tree_risk: 0.
               tree_error: 0.
               splits:
                  - { var:6, quality:4.9549546837806702e-01,
                      le:4.6703056432306767e-04 }
                  - { var:2, quality:4.8167011141777039e-01,
                      le:4.7158027882687747e-04 }
                  - { var:8, quality:4.8138454556465149e-01,
                      le:5.0489872228354216e-04 }
                  - { var:0, quality:4.5681941509246826e-01,
                      le:3.7622172385454178e-04 }
                  - { var:4, quality:4.5402488112449646e-01,
                      le:5.3967098938301206e-04 }
                  - { var:5, quality:4.5398190617561340e-01,
                      le:5.0051952712237835e-04 }
                  - { var:3, quality:4.5352384448051453e-01,
                      le:4.9791333731263876e-04 }
                  - { var:7, quality:4.5280310511589050e-01,
                      le:5.2041665185242891e-04 }
                  - { var:1, quality:4.5233178138732910e-01,
                      le:5.4290087427943945e-04 }
                  - { var:14, quality:3.2668456435203552e-01,
                      le:1.3043023645877838e-03 }
                  - { var:21, quality:3.2621902227401733e-01,
                      le:4.6677142381668091e-04 }
                  - { var:22, quality:3.2570964097976685e-01,
                      le:4.6408083289861679e-04 }
                  - { var:25, quality:3.2555705308914185e-01,
                      le:1.9364058971405029e-05 }
                  - { var:23, quality:3.2554444670677185e-01,
                      le:2.9160454869270325e-04 }
                  - { var:18, quality:3.2526645064353943e-01,
                      le:1.0774750262498856e-04 }
                  - { var:12, quality:3.2523551583290100e-01,
                      le:3.6639906466007233e-04 }
                  - { var:9, quality:3.2522156834602356e-01,
                      le:8.1665813922882080e-05 }
                  - { var:10, quality:3.2521101832389832e-01,
                      le:9.3758665025234222e-04 }
                  - { var:24, quality:3.2512718439102173e-01,
                      le:4.2419880628585815e-05 }
                  - { var:11, quality:3.2512018084526062e-01,
                      le:1.3067387044429779e-04 }
                  - { var:26, quality:3.2499685883522034e-01,
                      le:1.3340264558792114e-05 }
                  - { var:19, quality:3.2489052414894104e-01,
                      le:1.6884878277778625e-05 }
                  - { var:13, quality:3.2486522197723389e-01,
                      le:5.9113837778568268e-05 }
                  - { var:16, quality:3.2483533024787903e-01,
                      le:2.4242326617240906e-06 }
                  - { var:17, quality:3.2477837800979614e-01,
                      le:4.0311925113201141e-04 }
                  - { var:20, quality:3.2477110624313354e-01,
                      le:1.1786818504333496e-05 }
                  - { var:15, quality:3.2473054528236389e-01,
                      le:7.8774988651275635e-05 }
            -
               depth: 1
               sample_count: 3113
               value: -8.0904450651987456e-03
               norm_class_idx: 1
               Tn: 0
               complexity: 0
               alpha: 0.
               node_risk: 0.
               tree_risk: 0.
               tree_error: 0.
            -
               depth: 1
               sample_count: 6178
               value: 8.0904450651987456e-03
               norm_class_idx: 0
               Tn: 0
               complexity: 0
               alpha: 0.
               node_risk: 0.
               tree_risk: 0.
               tree_error: 0.
      -
         best_tree_idx: -1
         nodes:
            -
               depth: 0
               sample_count: 9288
               value: 1.5543122344752072e-14
               norm_class_idx: 0
               Tn: 0
               complexity: 0
               alpha: 0.
               node_risk: 0.
               tree_risk: 0.
               tree_error: 0.
               splits:
                  - { var:6, quality:4.9755027890205383e-01,
                      le:4.6703056432306767e-04 }
                  - { var:2, quality:4.8364436626434326e-01,
                      le:4.7158027882687747e-04 }
                  - { var:8, quality:4.8336911201477051e-01,
                      le:5.0489872228354216e-04 }
                  - { var:0, quality:4.5872083306312561e-01,
                      le:3.7622172385454178e-04 }
                  - { var:4, quality:4.5588421821594238e-01,
                      le:5.3967098938301206e-04 }
                  - { var:5, quality:4.5582622289657593e-01,
                      le:5.0051952712237835e-04 }
                  - { var:3, quality:4.5536166429519653e-01,
                      le:4.9791333731263876e-04 }
                  - { var:7, quality:4.5466426014900208e-01,
                      le:5.2041665185242891e-04 }
                  - { var:1, quality:4.5418870449066162e-01,
                      le:5.4290087427943945e-04 }
                  - { var:14, quality:3.2799637317657471e-01,
                      le:1.3043023645877838e-03 }
                  - { var:21, quality:3.2753413915634155e-01,
                      le:4.6677142381668091e-04 }
                  - { var:22, quality:3.2701846957206726e-01,
                      le:4.6408083289861679e-04 }
                  - { var:25, quality:3.2686290144920349e-01,
                      le:1.9364058971405029e-05 }
                  - { var:23, quality:3.2685017585754395e-01,
                      le:2.9160454869270325e-04 }
                  - { var:18, quality:3.2657396793365479e-01,
                      le:1.0774750262498856e-04 }
                  - { var:12, quality:3.2654115557670593e-01,
                      le:3.6639906466007233e-04 }
                  - { var:9, quality:3.2652765512466431e-01,
                      le:8.1665813922882080e-05 }
                  - { var:10, quality:3.2651790976524353e-01,
                      le:9.3758665025234222e-04 }
                  - { var:24, quality:3.2643395662307739e-01,
                      le:4.2419880628585815e-05 }
                  - { var:11, quality:3.2642546296119690e-01,
                      le:1.3067387044429779e-04 }
                  - { var:26, quality:3.2630088925361633e-01,
                      le:1.3340264558792114e-05 }
                  - { var:19, quality:3.2619538903236389e-01,
                      le:1.6884878277778625e-05 }
                  - { var:13, quality:3.2617005705833435e-01,
                      le:5.9113837778568268e-05 }
                  - { var:16, quality:3.2614022493362427e-01,
                      le:2.4242326617240906e-06 }
                  - { var:17, quality:3.2608744502067566e-01,
                      le:4.0311925113201141e-04 }
                  - { var:20, quality:3.2607531547546387e-01,
                      le:1.1786818504333496e-05 }
                  - { var:15, quality:3.2603332400321960e-01,
                      le:7.8774988651275635e-05 }
            -
               depth: 1
               sample_count: 3114
               value: -1.5543122344752072e-14
               norm_class_idx: 1
               Tn: 0
               complexity: 0
               alpha: 0.
               node_risk: 0.
               tree_risk: 0.
               tree_error: 0.
            -
               depth: 1
               sample_count: 6174
               value: 1.5543122344752072e-14
               norm_class_idx: 0
               Tn: 0
               complexity: 0
               alpha: 0.
               node_risk: 0.
               tree_risk: 0.
               tree_error: 0.
      -
         best_tree_idx: -1
         nodes:
            -
               depth: 0
               sample_count: 9288
               value: 3.5527136788004946e-15
               norm_class_idx: 0
               Tn: 0
               complexity: 0
               alpha: 0.
               node_risk: 0.
               tree_risk: 0.
               tree_error: 0.
               splits:
                  - { var:6, quality:4.9755027890205383e-01,
                      le:4.6703056432306767e-04 }
                  - { var:2, quality:4.8364436626434326e-01,
                      le:4.7158027882687747e-04 }
                  - { var:8, quality:4.8336911201477051e-01,
                      le:5.0489872228354216e-04 }
                  - { var:0, quality:4.5872083306312561e-01,
                      le:3.7622172385454178e-04 }
                  - { var:4, quality:4.5588421821594238e-01,
                      le:5.3967098938301206e-04 }
                  - { var:5, quality:4.5582622289657593e-01,
                      le:5.0051952712237835e-04 }
                  - { var:3, quality:4.5536166429519653e-01,
                      le:4.9791333731263876e-04 }
                  - { var:7, quality:4.5466426014900208e-01,
                      le:5.2041665185242891e-04 }
                  - { var:1, quality:4.5418870449066162e-01,
                      le:5.4290087427943945e-04 }
                  - { var:14, quality:3.2799637317657471e-01,
                      le:1.3043023645877838e-03 }
                  - { var:21, quality:3.2753413915634155e-01,
                      le:4.6677142381668091e-04 }
                  - { var:22, quality:3.2701846957206726e-01,
                      le:4.6408083289861679e-04 }
                  - { var:25, quality:3.2686290144920349e-01,
                      le:1.9364058971405029e-05 }
                  - { var:23, quality:3.2685017585754395e-01,
                      le:2.9160454869270325e-04 }
                  - { var:18, quality:3.2657396793365479e-01,
                      le:1.0774750262498856e-04 }
                  - { var:12, quality:3.2654115557670593e-01,
                      le:3.6639906466007233e-04 }
                  - { var:9, quality:3.2652765512466431e-01,
                      le:8.1665813922882080e-05 }
                  - { var:10, quality:3.2651790976524353e-01,
                      le:9.3758665025234222e-04 }
                  - { var:24, quality:3.2643395662307739e-01,
                      le:4.2419880628585815e-05 }
                  - { var:11, quality:3.2642546296119690e-01,
                      le:1.3067387044429779e-04 }
                  - { var:26, quality:3.2630088925361633e-01,
                      le:1.3340264558792114e-05 }
                  - { var:19, quality:3.2619538903236389e-01,
                      le:1.6884878277778625e-05 }
                  - { var:13, quality:3.2617005705833435e-01,
                      le:5.9113837778568268e-05 }
                  - { var:16, quality:3.2614022493362427e-01,
                      le:2.4242326617240906e-06 }
                  - { var:17, quality:3.2608744502067566e-01,
                      le:4.0311925113201141e-04 }
                  - { var:20, quality:3.2607531547546387e-01,
                      le:1.1786818504333496e-05 }
                  - { var:15, quality:3.2603332400321960e-01,
                      le:7.8774988651275635e-05 }
            -
               depth: 1
               sample_count: 3114
               value: -3.5527136788004946e-15
               norm_class_idx: 1
               Tn: 0
               complexity: 0
               alpha: 0.
               node_risk: 0.
               tree_risk: 0.
               tree_error: 0.
            -
               depth: 1
               sample_count: 6174
               value: 3.5527136788004946e-15
               norm_class_idx: 0
               Tn: 0
               complexity: 0
               alpha: 0.
               node_risk: 0.
               tree_risk: 0.
               tree_error: 0.
      -
         best_tree_idx: -1
         nodes:
            -
               depth: 0
               sample_count: 9288
               value: -1.7763568394002520e-15
               norm_class_idx: 0
               Tn: 0
               complexity: 0
               alpha: 0.
               node_risk: 0.
               tree_risk: 0.
               tree_error: 0.
               splits:
                  - { var:6, quality:4.9755027890205383e-01,
                      le:4.6703056432306767e-04 }
                  - { var:2, quality:4.8364436626434326e-01,
                      le:4.7158027882687747e-04 }
                  - { var:8, quality:4.8336911201477051e-01,
                      le:5.0489872228354216e-04 }
                  - { var:0, quality:4.5872083306312561e-01,
                      le:3.7622172385454178e-04 }
                  - { var:4, quality:4.5588421821594238e-01,
                      le:5.3967098938301206e-04 }
                  - { var:5, quality:4.5582622289657593e-01,
                      le:5.0051952712237835e-04 }
                  - { var:3, quality:4.5536166429519653e-01,
                      le:4.9791333731263876e-04 }
                  - { var:7, quality:4.5466426014900208e-01,
                      le:5.2041665185242891e-04 }
                  - { var:1, quality:4.5418870449066162e-01,
                      le:5.4290087427943945e-04 }
                  - { var:14, quality:3.2799637317657471e-01,
                      le:1.3043023645877838e-03 }
                  - { var:21, quality:3.2753413915634155e-01,
                      le:4.6677142381668091e-04 }
