%YAML:1.0
region: !!opencv-ml-boost-tree
   boosting_type: DiscreteAdaboost
   splitting_criteria: 3
   ntrees: 100
   weight_trimming_rate: 9.4999999999999996e-01
   is_classifier: 1
   var_all: 81
   var_count: 81
   ord_var_count: 81
   cat_var_count: 0
   training_params:
      use_surrogates: 1
      max_categories: 10
      max_depth: 1
      min_sample_count: 10
      cross_validation_folds: 0
      priors: !!opencv-matrix
         rows: 1
         cols: 2
         dt: d
         data: [ 1., 1. ]
   var_type: [ 0, 0, 0, 0, 0, 0, 0, 0, 0, 0, 0, 0, 0, 0, 0, 0, 0, 0, 0,
       0, 0, 0, 0, 0, 0, 0, 0, 0, 0, 0, 0, 0, 0, 0, 0, 0, 0, 0, 0, 0, 0,
       0, 0, 0, 0, 0, 0, 0, 0, 0, 0, 0, 0, 0, 0, 0, 0, 0, 0, 0, 0, 0, 0,
       0, 0, 0, 0, 0, 0, 0, 0, 0, 0, 0, 0, 0, 0, 0, 0, 0, 0 ]
   cat_count: !!opencv-matrix
      rows: 1
      cols: 1
      dt: i
      data: [ 2 ]
   cat_map: !!opencv-matrix
      rows: 1
      cols: 2
      dt: i
      data: [ -1, 1 ]
   trees:
      -
         best_tree_idx: -1
         nodes:
            -
               depth: 0
               sample_count: 4661
               value: 1.5309219839555384e+00
               norm_class_idx: 1
               Tn: 0
               complexity: 0
               alpha: 0.
               node_risk: 0.
               tree_risk: 0.
               tree_error: 0.
               splits:
                  - { var:18, quality:8.2214117050170898e-01,
                      le:3.6925002932548523e-02 }
                  - { var:26, quality:7.3200726509094238e-01,
                      gt:1.0410679876804352e-01 }
                  - { var:19, quality:7.2724479436874390e-01,
                      le:2.6552829891443253e-02 }
                  - { var:17, quality:7.2706842422485352e-01,
                      le:2.8722532093524933e-02 }
                  - { var:10, quality:7.1683794260025024e-01,
                      gt:1.1655345559120178e-01 }
                  - { var:20, quality:7.1366298198699951e-01,
                      le:2.5775808840990067e-02 }
                  - { var:16, quality:7.1331024169921875e-01,
                      le:2.7050720527768135e-02 }
                  - { var:11, quality:7.0378530025482178e-01,
                      gt:8.4906399250030518e-02 }
                  - { var:25, quality:7.0061028003692627e-01,
                      gt:7.9897776246070862e-02 }
                  - { var:21, quality:6.9461315870285034e-01,
                      le:2.1684331819415092e-02 }
                  - { var:15, quality:6.9461315870285034e-01,
                      le:2.1114770323038101e-02 }
                  - { var:3, quality:6.9126182794570923e-01,
                      gt:3.7407279014587402e-03 }
                  - { var:24, quality:6.9108539819717407e-01,
                      gt:9.7245618700981140e-02 }
                  - { var:9, quality:6.9090902805328369e-01,
                      gt:1.4112462103366852e-01 }
                  - { var:4, quality:6.9090902805328369e-01,
                      gt:3.6793584004044533e-03 }
                  - { var:1, quality:6.9090902805328369e-01,
                      gt:3.8911700248718262e-03 }
                  - { var:12, quality:6.9055628776550293e-01,
                      gt:1.8275535106658936e-01 }
                  - { var:5, quality:6.9055628776550293e-01,
                      gt:3.9933230727910995e-03 }
                  - { var:7, quality:6.9037985801696777e-01,
                      gt:4.3867006897926331e-03 }
                  - { var:0, quality:6.9020348787307739e-01,
                      gt:5.8646649122238159e-03 }
                  - { var:23, quality:6.9002705812454224e-01,
                      gt:1.8990325927734375e-01 }
                  - { var:14, quality:6.9002705812454224e-01,
                      gt:1.6598877310752869e-01 }
                  - { var:6, quality:6.9002705812454224e-01,
                      gt:4.7770394012331963e-03 }
                  - { var:2, quality:6.9002705812454224e-01,
                      gt:5.7014897465705872e-03 }
                  - { var:8, quality:6.8985074758529663e-01,
                      gt:5.3671551868319511e-03 }
            -
               depth: 1
               sample_count: 750
               value: -1.5309219839555384e+00
               norm_class_idx: 0
               Tn: 0
               complexity: 0
               alpha: 0.
               node_risk: 0.
               tree_risk: 0.
               tree_error: 0.
            -
               depth: 1
               sample_count: 3911
               value: 1.5309219839555384e+00
               norm_class_idx: 1
               Tn: 0
               complexity: 0
               alpha: 0.
               node_risk: 0.
               tree_risk: 0.
               tree_error: 0.
      -
         best_tree_idx: -1
         nodes:
            -
               depth: 0
               sample_count: 4661
               value: 6.4077483980380012e-01
               norm_class_idx: 1
               Tn: 0
               complexity: 0
               alpha: 0.
               node_risk: 0.
               tree_risk: 0.
               tree_error: 0.
               splits:
                  - { var:3, quality:6.5492856502532959e-01,
                      le:5.5449386127293110e-04 }
                  - { var:5, quality:6.5166032314300537e-01,
                      le:5.5183761287480593e-04 }
                  - { var:1, quality:6.4990937709808350e-01,
                      le:5.6523235980421305e-04 }
                  - { var:7, quality:6.4727163314819336e-01,
                      le:5.3793680854141712e-04 }
                  - { var:4, quality:6.4608657360076904e-01,
                      le:5.4618075955659151e-04 }
                  - { var:8, quality:6.3440191745758057e-01,
                      le:5.0349242519587278e-04 }
                  - { var:2, quality:6.2809133529663086e-01,
                      le:4.4288794742897153e-04 }
                  - { var:6, quality:6.2615811824798584e-01,
                      le:4.4557073852047324e-04 }
                  - { var:0, quality:6.1521375179290771e-01,
                      le:2.4540990125387907e-04 }
                  - { var:20, quality:5.9983885288238525e-01,
                      gt:1.3737651705741882e-01 }
            -
               depth: 1
               sample_count: 343
               value: -6.4077483980380012e-01
               norm_class_idx: 0
               Tn: 0
               complexity: 0
               alpha: 0.
               node_risk: 0.
               tree_risk: 0.
               tree_error: 0.
            -
               depth: 1
               sample_count: 4318
               value: 6.4077483980380012e-01
               norm_class_idx: 1
               Tn: 0
               complexity: 0
               alpha: 0.
               node_risk: 0.
               tree_risk: 0.
               tree_error: 0.
      -
         best_tree_idx: -1
         nodes:
            -
               depth: 0
               sample_count: 4661
               value: 5.2808485551624496e-01
               norm_class_idx: 1
               Tn: 0
               complexity: 0
               alpha: 0.
               node_risk: 0.
               tree_risk: 0.
               tree_error: 0.
               splits:
                  - { var:11, quality:6.2903630733489990e-01,
                      le:5.8928459882736206e-02 }
                  - { var:10, quality:4.5859292149543762e-01,
                      le:6.8278610706329346e-02 }
                  - { var:12, quality:4.4738048315048218e-01,
                      le:5.0082854926586151e-02 }
                  - { var:19, quality:4.4692382216453552e-01,
                      gt:4.9207903444766998e-02 }
                  - { var:18, quality:4.3715721368789673e-01,
                      gt:5.4215665906667709e-02 }
                  - { var:17, quality:4.3702709674835205e-01,
                      gt:4.8411980271339417e-02 }
                  - { var:20, quality:4.2216679453849792e-01,
                      gt:4.9401015043258667e-02 }
                  - { var:9, quality:4.1344851255416870e-01,
                      le:3.4123837947845459e-02 }
                  - { var:26, quality:4.1318705677986145e-01,
                      le:6.7582964897155762e-02 }
                  - { var:25, quality:4.1033077239990234e-01,
                      le:5.1706120371818542e-02 }
                  - { var:21, quality:3.9956852793693542e-01,
                      gt:4.4091843068599701e-02 }
                  - { var:16, quality:3.9834189414978027e-01,
                      gt:4.5431952923536301e-02 }
                  - { var:15, quality:3.8227674365043640e-01,
                      gt:4.8711255192756653e-02 }
                  - { var:13, quality:3.8184723258018494e-01,
                      le:3.8839772343635559e-02 }
                  - { var:24, quality:3.7709668278694153e-01,
                      le:4.0854666382074356e-02 }
                  - { var:22, quality:3.7683719396591187e-01,
                      gt:4.8132538795471191e-02 }
                  - { var:23, quality:3.5649472475051880e-01,
                      gt:5.9294596314430237e-02 }
                  - { var:14, quality:3.5215345025062561e-01,
                      le:3.0392402783036232e-02 }
                  - { var:0, quality:3.3852803707122803e-01,
                      gt:2.4881563149392605e-03 }
                  - { var:2, quality:3.3773916959762573e-01,
                      gt:2.2454294376075268e-03 }
                  - { var:8, quality:3.3715096116065979e-01,
                      gt:3.3900970593094826e-03 }
                  - { var:4, quality:3.3672466874122620e-01,
                      gt:1.8440665444359183e-03 }
                  - { var:1, quality:3.3651906251907349e-01,
                      gt:3.6587796639651060e-03 }
                  - { var:5, quality:3.3651652932167053e-01,
                      gt:3.4363027662038803e-03 }
                  - { var:6, quality:3.3608317375183105e-01,
                      gt:3.5814419388771057e-03 }
                  - { var:3, quality:3.3601969480514526e-01,
                      gt:3.5224864259362221e-03 }
                  - { var:7, quality:3.3459258079528809e-01,
                      gt:3.3795670606195927e-03 }
            -
               depth: 1
               sample_count: 2758
               value: 5.2808485551624496e-01
               norm_class_idx: 1
               Tn: 0
               complexity: 0
               alpha: 0.
               node_risk: 0.
               tree_risk: 0.
               tree_error: 0.
            -
               depth: 1
               sample_count: 1903
               value: -5.2808485551624496e-01
               norm_class_idx: 0
               Tn: 0
               complexity: 0
               alpha: 0.
               node_risk: 0.
               tree_risk: 0.
               tree_error: 0.
      -
         best_tree_idx: -1
         nodes:
            -
               depth: 0
               sample_count: 4661
               value: 4.6042769100156966e-01
               norm_class_idx: 1
               Tn: 0
               complexity: 0
               alpha: 0.
               node_risk: 0.
               tree_risk: 0.
               tree_error: 0.
               splits:
                  - { var:25, quality:6.1311560869216919e-01,
                      le:6.2600880861282349e-02 }
                  - { var:26, quality:4.4205519556999207e-01,
                      le:7.5157701969146729e-02 }
                  - { var:24, quality:4.3652462959289551e-01,
                      le:5.8827333152294159e-02 }
                  - { var:18, quality:4.2170631885528564e-01,
                      gt:4.9610048532485962e-02 }
                  - { var:17, quality:4.0910723805427551e-01,
                      gt:4.3218389153480530e-02 }
                  - { var:16, quality:3.9373064041137695e-01,
                      gt:4.2004063725471497e-02 }
                  - { var:19, quality:3.8851386308670044e-01,
                      gt:4.5784257352352142e-02 }
                  - { var:20, quality:3.7569898366928101e-01,
                      gt:3.7401281297206879e-02 }
                  - { var:10, quality:3.7502562999725342e-01,
                      le:7.2512015700340271e-02 }
                  - { var:23, quality:3.7340939044952393e-01,
                      le:6.0779139399528503e-02 }
                  - { var:15, quality:3.7095969915390015e-01,
                      gt:4.1020683944225311e-02 }
                  - { var:9, quality:3.5714802145957947e-01,
                      le:3.7912867963314056e-02 }
                  - { var:11, quality:3.5658809542655945e-01,
                      le:6.8500295281410217e-02 }
                  - { var:7, quality:3.5573333501815796e-01,
                      le:3.1574594322592020e-03 }
                  - { var:4, quality:3.5397449135780334e-01,
                      le:3.2662008889019489e-03 }
                  - { var:5, quality:3.5354518890380859e-01,
                      le:4.8882844857871532e-03 }
                  - { var:3, quality:3.5354518890380859e-01,
                      le:5.0432365387678146e-03 }
                  - { var:6, quality:3.5353332757949829e-01,
                      gt:6.7691376898437738e-05 }
                  - { var:22, quality:3.5353183746337891e-01,
                      le:1.3445608317852020e-01 }
                  - { var:0, quality:3.5350528359413147e-01,
                      gt:3.9092356018954888e-05 }
                  - { var:2, quality:3.5345834493637085e-01,
                      gt:1.2611244164872915e-04 }
            -
               depth: 1
               sample_count: 3262
               value: 4.6042769100156966e-01
               norm_class_idx: 1
               Tn: 0
               complexity: 0
               alpha: 0.
               node_risk: 0.
               tree_risk: 0.
               tree_error: 0.
            -
               depth: 1
               sample_count: 1399
               value: -4.6042769100156966e-01
               norm_class_idx: 0
               Tn: 0
               complexity: 0
               alpha: 0.
               node_risk: 0.
               tree_risk: 0.
               tree_error: 0.
      -
         best_tree_idx: -1
         nodes:
            -
               depth: 0
               sample_count: 4661
               value: 4.9452282099994416e-01
               norm_class_idx: 1
               Tn: 0
               complexity: 0
               alpha: 0.
               node_risk: 0.
               tree_risk: 0.
               tree_error: 0.
               splits:
                  - { var:18, quality:6.2117129564285278e-01,
                      le:3.6573521792888641e-02 }
                  - { var:26, quality:5.1147544384002686e-01,
                      gt:1.0417483747005463e-01 }
                  - { var:19, quality:5.0811266899108887e-01,
                      le:2.6552829891443253e-02 }
                  - { var:10, quality:5.0742530822753906e-01,
                      gt:1.1066548526287079e-01 }
                  - { var:17, quality:5.0727862119674683e-01,
                      le:3.1930781900882721e-02 }
                  - { var:20, quality:4.9913549423217773e-01,
                      le:2.5775808840990067e-02 }
                  - { var:16, quality:4.9887251853942871e-01,
                      le:2.9709538444876671e-02 }
                  - { var:11, quality:4.9042898416519165e-01,
                      gt:7.9797700047492981e-02 }
                  - { var:9, quality:4.8879411816596985e-01,
                      gt:8.9043341577053070e-02 }
                  - { var:15, quality:4.8734191060066223e-01,
                      le:2.7585599571466446e-02 }
                  - { var:21, quality:4.8420137166976929e-01,
                      le:2.4390984326601028e-02 }
                  - { var:25, quality:4.8064872622489929e-01,
                      gt:7.9897776246070862e-02 }
                  - { var:22, quality:4.7127607464790344e-01,
                      le:2.1663594990968704e-02 }
                  - { var:1, quality:4.7117882966995239e-01,
                      gt:3.4902070183306932e-03 }
                  - { var:14, quality:4.7077438235282898e-01,
                      le:2.4412583559751511e-02 }
                  - { var:24, quality:4.7067153453826904e-01,
                      gt:9.3215897679328918e-02 }
                  - { var:5, quality:4.6928673982620239e-01,
                      gt:3.3570039086043835e-03 }
                  - { var:3, quality:4.6890473365783691e-01,
                      gt:3.3291096333414316e-03 }
                  - { var:12, quality:4.6854388713836670e-01,
                      gt:1.3404223322868347e-01 }
                  - { var:7, quality:4.6832036972045898e-01,
                      gt:3.2063026446849108e-03 }
                  - { var:23, quality:4.6823620796203613e-01,
                      gt:1.1823897063732147e-01 }
                  - { var:6, quality:4.6779856085777283e-01,
                      gt:3.7772026844322681e-03 }
                  - { var:2, quality:4.6773606538772583e-01,
                      gt:4.0082791820168495e-03 }
                  - { var:0, quality:4.6761885285377502e-01,
                      gt:5.8646649122238159e-03 }
                  - { var:13, quality:4.6747773885726929e-01,
                      gt:1.0870268940925598e-01 }
                  - { var:8, quality:4.6733665466308594e-01,
                      gt:4.4242767617106438e-03 }
                  - { var:4, quality:4.6726438403129578e-01,
                      gt:3.6793584004044533e-03 }
            -
               depth: 1
               sample_count: 734
               value: 4.9452282099994416e-01
               norm_class_idx: 1
               Tn: 0
               complexity: 0
               alpha: 0.
               node_risk: 0.
               tree_risk: 0.
               tree_error: 0.
            -
               depth: 1
               sample_count: 3927
               value: -4.9452282099994416e-01
               norm_class_idx: 0
               Tn: 0
               complexity: 0
               alpha: 0.
               node_risk: 0.
               tree_risk: 0.
               tree_error: 0.
      -
         best_tree_idx: -1
         nodes:
            -
               depth: 0
               sample_count: 4661
               value: 3.3654645333440514e-01
               norm_class_idx: 1
               Tn: 0
               complexity: 0
               alpha: 0.
               node_risk: 0.
               tree_risk: 0.
               tree_error: 0.
               splits:
                  - { var:19, quality:5.8335137367248535e-01,
                      le:4.2074091732501984e-02 }
                  - { var:17, quality:4.7407865524291992e-01,
                      le:4.0939420461654663e-02 }
                  - { var:20, quality:4.6996948122978210e-01,
                      le:3.9566554129123688e-02 }
                  - { var:10, quality:4.4745254516601562e-01,
                      gt:7.7952809631824493e-02 }
                  - { var:16, quality:4.4539567828178406e-01,
                      le:3.7306074053049088e-02 }
                  - { var:18, quality:4.3831652402877808e-01,
                      le:4.1109405457973480e-02 }
                  - { var:26, quality:4.3745303153991699e-01,
                      gt:7.9469926655292511e-02 }
                  - { var:9, quality:4.3132299184799194e-01,
                      gt:4.4296897947788239e-02 }
                  - { var:21, quality:4.3054559826850891e-01,
                      le:3.6504741758108139e-02 }
                  - { var:15, quality:4.1539487242698669e-01,
                      le:3.5008072853088379e-02 }
                  - { var:11, quality:4.0851294994354248e-01,
                      gt:6.4670287072658539e-02 }
                  - { var:22, quality:3.8179323077201843e-01,
                      le:3.7840604782104492e-02 }
                  - { var:25, quality:3.7585031986236572e-01,
                      gt:6.8543717265129089e-02 }
                  - { var:14, quality:3.7381982803344727e-01,
                      le:3.6590110510587692e-02 }
                  - { var:23, quality:3.5423398017883301e-01,
                      le:3.7882350385189056e-02 }
                  - { var:12, quality:3.4351521730422974e-01,
                      gt:6.2831848859786987e-02 }
                  - { var:13, quality:3.4165227413177490e-01,
                      le:4.4686123728752136e-02 }
                  - { var:0, quality:3.3060204982757568e-01,
                      gt:1.4923242852091789e-03 }
                  - { var:6, quality:3.2816722989082336e-01,
                      gt:1.8370675388723612e-03 }
                  - { var:2, quality:3.2776802778244019e-01,
                      gt:1.8708459101617336e-03 }
                  - { var:3, quality:3.2586184144020081e-01,
                      gt:1.9841683097183704e-03 }
                  - { var:24, quality:3.2538712024688721e-01,
                      gt:7.0707097649574280e-02 }
                  - { var:8, quality:3.2385835051536560e-01,
                      gt:1.7711358377709985e-03 }
                  - { var:5, quality:3.2230010628700256e-01,
                      gt:1.9567590206861496e-03 }
                  - { var:7, quality:3.2089477777481079e-01,
                      gt:1.9351493101567030e-03 }
                  - { var:1, quality:3.2050988078117371e-01,
                      gt:2.9831780120730400e-03 }
                  - { var:4, quality:3.1943228840827942e-01,
                      gt:2.7893746737390757e-03 }
            -
               depth: 1
               sample_count: 1515
               value: -3.3654645333440514e-01
               norm_class_idx: 0
               Tn: 0
               complexity: 0
               alpha: 0.
               node_risk: 0.
               tree_risk: 0.
               tree_error: 0.
            -
               depth: 1
               sample_count: 3146
               value: 3.3654645333440514e-01
               norm_class_idx: 1
               Tn: 0
               complexity: 0
               alpha: 0.
               node_risk: 0.
               tree_risk: 0.
               tree_error: 0.
      -
         best_tree_idx: -1
         nodes:
            -
               depth: 0
               sample_count: 4661
               value: 3.2445073709381200e-01
               norm_class_idx: 1
               Tn: 0
               complexity: 0
               alpha: 0.
               node_risk: 0.
               tree_risk: 0.
               tree_error: 0.
               splits:
                  - { var:24, quality:5.8040857315063477e-01,
                      le:5.8757316321134567e-02 }
                  - { var:23, quality:4.3303743004798889e-01,
                      le:5.7359322905540466e-02 }
                  - { var:25, quality:4.2768988013267517e-01,
                      le:7.6348870992660522e-02 }
                  - { var:22, quality:4.0666624903678894e-01,
                      le:5.6556113064289093e-02 }
                  - { var:7, quality:3.9672780036926270e-01,
                      le:4.9274847842752934e-03 }
                  - { var:4, quality:3.9664733409881592e-01,
                      le:4.9855592660605907e-03 }
            -
               depth: 1
               sample_count: 3548
               value: 3.2445073709381200e-01
               norm_class_idx: 1
               Tn: 0
               complexity: 0
               alpha: 0.
               node_risk: 0.
               tree_risk: 0.
               tree_error: 0.
            -
               depth: 1
               sample_count: 1113
               value: -3.2445073709381200e-01
               norm_class_idx: 0
               Tn: 0
               complexity: 0
               alpha: 0.
               node_risk: 0.
               tree_risk: 0.
               tree_error: 0.
      -
         best_tree_idx: -1
         nodes:
            -
               depth: 0
               sample_count: 4661
               value: 2.4507197668914757e-01
               norm_class_idx: 1
               Tn: 0
               complexity: 0
               alpha: 0.
               node_risk: 0.
               tree_risk: 0.
               tree_error: 0.
               splits:
                  - { var:0, quality:5.6096315383911133e-01,
                      le:1.4511621557176113e-03 }
                  - { var:2, quality:5.1345235109329224e-01,
                      le:1.5536539722234011e-03 }
                  - { var:6, quality:5.0767922401428223e-01,
                      le:1.5950517263263464e-03 }
                  - { var:8, quality:4.8841720819473267e-01,
                      le:1.7348236870020628e-03 }
                  - { var:3, quality:4.4449326395988464e-01,
                      le:1.8834606744349003e-03 }
                  - { var:5, quality:4.4323530793190002e-01,
                      le:1.9194690976291895e-03 }
                  - { var:1, quality:4.4000220298767090e-01,
                      le:1.9422043114900589e-03 }
                  - { var:4, quality:4.3933260440826416e-01,
                      le:1.9111835863441229e-03 }
                  - { var:7, quality:4.3500456213951111e-01,
                      le:1.8195768352597952e-03 }
                  - { var:17, quality:3.9248579740524292e-01,
                      gt:1.6795795410871506e-02 }
                  - { var:18, quality:3.9222496747970581e-01,
                      gt:2.2905999794602394e-02 }
                  - { var:13, quality:3.9176812767982483e-01,
                      gt:2.8032481670379639e-02 }
                  - { var:19, quality:3.9161053299903870e-01,
                      gt:1.3421444222331047e-02 }
                  - { var:26, quality:3.9075288176536560e-01,
                      le:1.3336691260337830e-01 }
                  - { var:14, quality:3.9061534404754639e-01,
                      gt:2.5352176278829575e-02 }
                  - { var:15, quality:3.8996696472167969e-01,
                      gt:2.2908285260200500e-02 }
                  - { var:16, quality:3.8962283730506897e-01,
                      gt:2.0185250788927078e-02 }
                  - { var:22, quality:3.8897892832756042e-01,
                      gt:2.0197674632072449e-02 }
                  - { var:23, quality:3.8879609107971191e-01,
                      gt:2.8349459171295166e-02 }
                  - { var:12, quality:3.8744220137596130e-01,
                      gt:2.8188198804855347e-02 }
                  - { var:21, quality:3.8710021972656250e-01,
                      gt:2.3499377071857452e-02 }
                  - { var:20, quality:3.8695353269577026e-01,
                      gt:1.5638485550880432e-02 }
                  - { var:9, quality:3.8562360405921936e-01,
                      le:9.7369819879531860e-02 }
                  - { var:24, quality:3.8513347506523132e-01,
                      gt:2.3773122578859329e-02 }
                  - { var:25, quality:3.8458055257797241e-01,
                      gt:2.7093779295682907e-02 }
                  - { var:10, quality:3.8398358225822449e-01,
                      le:1.2029351294040680e-01 }
                  - { var:11, quality:3.8341405987739563e-01,
                      gt:2.8017051517963409e-02 }
            -
               depth: 1
               sample_count: 3073
               value: -2.4507197668914757e-01
               norm_class_idx: 0
               Tn: 0
               complexity: 0
               alpha: 0.
               node_risk: 0.
               tree_risk: 0.
               tree_error: 0.
            -
               depth: 1
               sample_count: 1588
               value: 2.4507197668914757e-01
               norm_class_idx: 1
               Tn: 0
               complexity: 0
               alpha: 0.
               node_risk: 0.
               tree_risk: 0.
               tree_error: 0.
      -
         best_tree_idx: -1
         nodes:
            -
               depth: 0
               sample_count: 4054
               value: 3.5535075086320378e-01
               norm_class_idx: 1
               Tn: 0
               complexity: 0
               alpha: 0.
               node_risk: 0.
               tree_risk: 0.
               tree_error: 0.
               splits:
                  - { var:7, quality:5.6362777948379517e-01,
                      le:2.2551617585122585e-03 }
                  - { var:4, quality:5.4372739791870117e-01,
                      le:2.2433891426771879e-03 }
                  - { var:1, quality:5.4278475046157837e-01,
                      le:2.2989567369222641e-03 }
                  - { var:5, quality:5.4200565814971924e-01,
                      le:2.2041629999876022e-03 }
                  - { var:3, quality:5.3860878944396973e-01,
                      le:2.2791107185184956e-03 }
                  - { var:8, quality:5.1441705226898193e-01,
                      le:2.2737230174243450e-03 }
                  - { var:2, quality:5.0603389739990234e-01,
                      le:2.1891687065362930e-03 }
                  - { var:6, quality:5.0590229034423828e-01,
                      le:2.1722028031945229e-03 }
                  - { var:0, quality:4.8820841312408447e-01,
                      le:2.3985137231647968e-03 }
                  - { var:13, quality:4.6699413657188416e-01,
                      gt:1.1292167939245701e-02 }
                  - { var:16, quality:4.6687471866607666e-01,
                      gt:9.6708126366138458e-03 }
                  - { var:19, quality:4.6619537472724915e-01,
                      gt:1.0642034932971001e-02 }
                  - { var:15, quality:4.6610039472579956e-01,
                      gt:8.3403531461954117e-03 }
                  - { var:17, quality:4.6597802639007568e-01,
                      gt:6.5745078027248383e-03 }
                  - { var:22, quality:4.6594595909118652e-01,
                      le:8.7941884994506836e-02 }
                  - { var:14, quality:4.6587252616882324e-01,
                      gt:9.1019105166196823e-03 }
                  - { var:20, quality:4.6580651402473450e-01,
                      gt:6.5440526232123375e-03 }
                  - { var:18, quality:4.6576166152954102e-01,
                      le:8.3223092555999756e-01 }
                  - { var:23, quality:4.6565055847167969e-01,
                      gt:1.6447368543595076e-03 }
                  - { var:21, quality:4.6565055847167969e-01,
                      gt:6.1823022551834583e-03 }
                  - { var:12, quality:4.6565055847167969e-01,
                      gt:3.3472916111350060e-03 }
                  - { var:10, quality:4.6537631750106812e-01,
                      le:2.5183629989624023e-01 }
                  - { var:25, quality:4.6529835462570190e-01,
                      gt:9.4688814133405685e-03 }
                  - { var:24, quality:4.6523371338844299e-01,
                      gt:8.6956899613142014e-03 }
                  - { var:11, quality:4.6521866321563721e-01,
                      gt:8.7491460144519806e-03 }
                  - { var:9, quality:4.6497604250907898e-01,
                      gt:7.8396722674369812e-03 }
            -
               depth: 1
               sample_count: 3517
               value: 3.5535075086320378e-01
               norm_class_idx: 1
               Tn: 0
               complexity: 0
               alpha: 0.
               node_risk: 0.
               tree_risk: 0.
               tree_error: 0.
            -
               depth: 1
               sample_count: 537
               value: -3.5535075086320378e-01
               norm_class_idx: 0
               Tn: 0
               complexity: 0
               alpha: 0.
               node_risk: 0.
               tree_risk: 0.
               tree_error: 0.
      -
         best_tree_idx: -1
         nodes:
            -
               depth: 0
               sample_count: 4228
               value: -2.9015515318804214e-01
               norm_class_idx: 0
               Tn: 0
               complexity: 0
               alpha: 0.
               node_risk: 0.
               tree_risk: 0.
               tree_error: 0.
               splits:
                  - { var:18, quality:5.7203412055969238e-01,
                      le:3.6833677440881729e-02 }
                  - { var:26, quality:4.7273662686347961e-01,
                      gt:1.0417483747005463e-01 }
                  - { var:17, quality:4.6959567070007324e-01,
                      le:3.1930781900882721e-02 }
                  - { var:19, quality:4.6939921379089355e-01,
                      le:2.6552829891443253e-02 }
                  - { var:10, quality:4.6875637769699097e-01,
                      gt:9.5500893890857697e-02 }
                  - { var:16, quality:4.6298941969871521e-01,
                      le:2.9851136729121208e-02 }
                  - { var:20, quality:4.6111160516738892e-01,
                      le:2.5775808840990067e-02 }
                  - { var:9, quality:4.5120865106582642e-01,
                      gt:8.9043341577053070e-02 }
                  - { var:11, quality:4.5120048522949219e-01,
                      gt:7.9892523586750031e-02 }
                  - { var:15, quality:4.5105376839637756e-01,
                      le:2.7585599571466446e-02 }
                  - { var:21, quality:4.4746991991996765e-01,
                      le:2.4390984326601028e-02 }
                  - { var:25, quality:4.4623818993568420e-01,
                      gt:7.9897776246070862e-02 }
                  - { var:14, quality:4.3810635805130005e-01,
                      le:2.4412583559751511e-02 }
                  - { var:22, quality:4.3723079562187195e-01,
                      le:2.1663594990968704e-02 }
                  - { var:1, quality:4.3515646457672119e-01,
                      gt:3.4902070183306932e-03 }
                  - { var:24, quality:4.3471255898475647e-01,
                      gt:8.7657183408737183e-02 }
                  - { var:5, quality:4.3356031179428101e-01,
                      gt:3.3570039086043835e-03 }
                  - { var:7, quality:4.3337988853454590e-01,
                      gt:3.2063026446849108e-03 }
                  - { var:3, quality:4.3280184268951416e-01,
                      gt:3.3291096333414316e-03 }
                  - { var:12, quality:4.3245971202850342e-01,
                      gt:1.3404223322868347e-01 }
                  - { var:23, quality:4.3203708529472351e-01,
                      gt:1.1823897063732147e-01 }
                  - { var:0, quality:4.3165501952171326e-01,
                      gt:5.8646649122238159e-03 }
                  - { var:6, quality:4.3164280056953430e-01,
                      gt:4.7770394012331963e-03 }
                  - { var:4, quality:4.3163353204727173e-01,
                      gt:3.6793584004044533e-03 }
                  - { var:2, quality:4.3155029416084290e-01,
                      gt:5.0646802410483360e-03 }
                  - { var:13, quality:4.3140685558319092e-01,
                      gt:1.0679164528846741e-01 }
                  - { var:8, quality:4.3133327364921570e-01,
                      gt:5.3671551868319511e-03 }
            -
               depth: 1
               sample_count: 745
               value: 2.9015515318804214e-01
               norm_class_idx: 1
               Tn: 0
               complexity: 0
               alpha: 0.
               node_risk: 0.
               tree_risk: 0.
               tree_error: 0.
            -
               depth: 1
               sample_count: 3483
               value: -2.9015515318804214e-01
               norm_class_idx: 0
               Tn: 0
               complexity: 0
               alpha: 0.
               node_risk: 0.
               tree_risk: 0.
               tree_error: 0.
      -
         best_tree_idx: -1
         nodes:
            -
               depth: 0
               sample_count: 4228
               value: 2.5659531645325295e-01
               norm_class_idx: 1
               Tn: 0
               complexity: 0
               alpha: 0.
               node_risk: 0.
               tree_risk: 0.
               tree_error: 0.
               splits:
                  - { var:26, quality:5.4262131452560425e-01,
                      le:6.8656295537948608e-02 }
                  - { var:10, quality:4.1999277472496033e-01,
                      le:6.9826930761337280e-02 }
                  - { var:16, quality:4.1227951645851135e-01,
                      gt:4.4778566807508469e-02 }
                  - { var:17, quality:4.1050133109092712e-01,
                      gt:4.6371467411518097e-02 }
                  - { var:9, quality:4.0790128707885742e-01,
                      le:3.7758976221084595e-02 }
                  - { var:15, quality:3.9863955974578857e-01,
                      gt:4.4925779104232788e-02 }
                  - { var:20, quality:3.9499002695083618e-01,
                      gt:4.4404156506061554e-02 }
                  - { var:19, quality:3.9154139161109924e-01,
                      gt:4.7931618988513947e-02 }
                  - { var:25, quality:3.8859751820564270e-01,
                      le:5.7787083089351654e-02 }
                  - { var:18, quality:3.8744252920150757e-01,
                      gt:4.7878757119178772e-02 }
                  - { var:21, quality:3.8322064280509949e-01,
                      gt:4.3493978679180145e-02 }
                  - { var:14, quality:3.6630266904830933e-01,
                      gt:4.8631433397531509e-02 }
                  - { var:22, quality:3.4730085730552673e-01,
                      gt:4.3536573648452759e-02 }
                  - { var:13, quality:3.4401842951774597e-01,
                      gt:4.9626972526311874e-02 }
                  - { var:11, quality:3.3988618850708008e-01,
                      le:5.8560781180858612e-02 }
                  - { var:24, quality:3.0749228596687317e-01,
                      le:3.8404654711484909e-02 }
                  - { var:23, quality:3.0247196555137634e-01,
                      gt:5.8046329766511917e-02 }
                  - { var:12, quality:3.0182868242263794e-01,
                      gt:7.5332790613174438e-02 }
                  - { var:0, quality:2.9381561279296875e-01,
                      le:3.5175564698874950e-04 }
                  - { var:8, quality:2.9342353343963623e-01,
                      le:5.3684500744566321e-04 }
                  - { var:6, quality:2.9293867945671082e-01,
                      le:4.8392330063506961e-04 }
                  - { var:7, quality:2.9259908199310303e-01,
                      le:5.1357608754187822e-04 }
                  - { var:2, quality:2.9190251231193542e-01,
                      le:2.5190657470375299e-04 }
                  - { var:5, quality:2.9167681932449341e-01,
                      le:5.3497345652431250e-04 }
                  - { var:1, quality:2.9167580604553223e-01,
                      le:4.8776285257190466e-04 }
                  - { var:3, quality:2.9153907299041748e-01,
                      le:4.9781671259552240e-04 }
                  - { var:4, quality:2.9069575667381287e-01,
                      le:4.3231467134319246e-04 }
            -
               depth: 1
               sample_count: 2435
               value: 2.5659531645325295e-01
               norm_class_idx: 1
               Tn: 0
               complexity: 0
               alpha: 0.
               node_risk: 0.
               tree_risk: 0.
               tree_error: 0.
            -
               depth: 1
               sample_count: 1793
               value: -2.5659531645325295e-01
               norm_class_idx: 0
               Tn: 0
               complexity: 0
               alpha: 0.
               node_risk: 0.
               tree_risk: 0.
               tree_error: 0.
      -
         best_tree_idx: -1
         nodes:
            -
               depth: 0
               sample_count: 4281
               value: 2.3607691739218922e-01
               norm_class_idx: 1
               Tn: 0
               complexity: 0
               alpha: 0.
               node_risk: 0.
               tree_risk: 0.
               tree_error: 0.
               splits:
                  - { var:12, quality:5.4055839776992798e-01,
                      le:6.4436703920364380e-02 }
                  - { var:13, quality:4.5066341757774353e-01,
                      le:6.5770968794822693e-02 }
                  - { var:11, quality:4.4197732210159302e-01,
                      le:9.3965947628021240e-02 }
                  - { var:14, quality:4.3526980280876160e-01,
                      le:1.0530565679073334e-01 }
                  - { var:1, quality:4.3452373147010803e-01,
                      le:4.6438584104180336e-03 }
                  - { var:5, quality:4.3443241715431213e-01,
                      le:4.3903035111725330e-03 }
                  - { var:4, quality:4.3436637520790100e-01,
                      le:4.6379640698432922e-03 }
                  - { var:3, quality:4.3436637520790100e-01,
                      le:4.4732531532645226e-03 }
                  - { var:7, quality:4.3379059433937073e-01,
                      le:4.9274847842752934e-03 }
                  - { var:22, quality:4.3369165062904358e-01,
                      le:1.2691065669059753e-01 }
            -
               depth: 1
               sample_count: 3659
               value: 2.3607691739218922e-01
               norm_class_idx: 1
               Tn: 0
               complexity: 0
               alpha: 0.
               node_risk: 0.
               tree_risk: 0.
               tree_error: 0.
            -
               depth: 1
               sample_count: 622
               value: -2.3607691739218922e-01
               norm_class_idx: 0
               Tn: 0
               complexity: 0
               alpha: 0.
               node_risk: 0.
               tree_risk: 0.
               tree_error: 0.
      -
         best_tree_idx: -1
         nodes:
            -
               depth: 0
               sample_count: 4281
               value: -1.7173580207609451e-01
               norm_class_idx: 0
               Tn: 0
               complexity: 0
               alpha: 0.
               node_risk: 0.
               tree_risk: 0.
               tree_error: 0.
               splits:
                  - { var:18, quality:5.4282873868942261e-01,
                      le:3.6542452871799469e-02 }
                  - { var:26, quality:4.5245543122291565e-01,
                      gt:1.0417483747005463e-01 }
                  - { var:19, quality:4.4998881220817566e-01,
                      le:2.6552829891443253e-02 }
                  - { var:17, quality:4.4929695129394531e-01,
                      le:3.1930781900882721e-02 }
                  - { var:10, quality:4.4803836941719055e-01,
                      gt:9.5500893890857697e-02 }
                  - { var:16, quality:4.4346943497657776e-01,
                      le:2.9851136729121208e-02 }
                  - { var:20, quality:4.4176569581031799e-01,
                      le:2.5775808840990067e-02 }
                  - { var:11, quality:4.3198522925376892e-01,
                      gt:7.9892523586750031e-02 }
                  - { var:15, quality:4.3096366524696350e-01,
                      le:2.7585599571466446e-02 }
                  - { var:9, quality:4.2897126078605652e-01,
                      gt:8.9043341577053070e-02 }
                  - { var:21, quality:4.2669454216957092e-01,
                      le:2.4390984326601028e-02 }
                  - { var:25, quality:4.2570179700851440e-01,
                      gt:7.9897776246070862e-02 }
                  - { var:14, quality:4.1871809959411621e-01,
                      le:2.4412583559751511e-02 }
                  - { var:22, quality:4.1745334863662720e-01,
                      le:2.1663594990968704e-02 }
                  - { var:1, quality:4.1494467854499817e-01,
                      gt:3.4902070183306932e-03 }
                  - { var:24, quality:4.1413015127182007e-01,
                      gt:9.3215897679328918e-02 }
                  - { var:5, quality:4.1362455487251282e-01,
                      gt:3.3570039086043835e-03 }
                  - { var:7, quality:4.1361993551254272e-01,
                      gt:3.2063026446849108e-03 }
                  - { var:3, quality:4.1290184855461121e-01,
                      gt:3.3291096333414316e-03 }
                  - { var:12, quality:4.1262707114219666e-01,
                      gt:1.3404223322868347e-01 }
                  - { var:23, quality:4.1196793317794800e-01,
                      gt:1.1823897063732147e-01 }
                  - { var:4, quality:4.1190108656883240e-01,
                      gt:3.6793584004044533e-03 }
                  - { var:0, quality:4.1189119219779968e-01,
                      gt:5.8646649122238159e-03 }
                  - { var:6, quality:4.1188052296638489e-01,
                      gt:4.7770394012331963e-03 }
                  - { var:2, quality:4.1180267930030823e-01,
                      gt:5.0646802410483360e-03 }
                  - { var:13, quality:4.1170465946197510e-01,
                      gt:1.0679164528846741e-01 }
                  - { var:8, quality:4.1161867976188660e-01,
                      gt:5.3671551868319511e-03 }
            -
               depth: 1
               sample_count: 732
               value: 1.7173580207609451e-01
               norm_class_idx: 1
               Tn: 0
               complexity: 0
               alpha: 0.
               node_risk: 0.
               tree_risk: 0.
               tree_error: 0.
            -
               depth: 1
               sample_count: 3549
               value: -1.7173580207609451e-01
               norm_class_idx: 0
               Tn: 0
               complexity: 0
               alpha: 0.
               node_risk: 0.
               tree_risk: 0.
               tree_error: 0.
      -
         best_tree_idx: -1
         nodes:
            -
               depth: 0
               sample_count: 4281
               value: 1.7791890872400254e-01
               norm_class_idx: 1
               Tn: 0
               complexity: 0
               alpha: 0.
               node_risk: 0.
               tree_risk: 0.
               tree_error: 0.
               splits:
                  - { var:16, quality:5.2993857860565186e-01,
                      le:3.8424260914325714e-02 }
                  - { var:15, quality:4.3469169735908508e-01,
                      le:3.8493201136589050e-02 }
                  - { var:17, quality:4.3134140968322754e-01,
                      le:3.6033891141414642e-02 }
                  - { var:20, quality:4.2248913645744324e-01,
                      le:3.3953964710235596e-02 }
                  - { var:9, quality:4.2067161202430725e-01,
                      gt:4.7920152544975281e-02 }
                  - { var:19, quality:4.2032381892204285e-01,
                      le:3.4126762300729752e-02 }
                  - { var:10, quality:4.1668483614921570e-01,
                      gt:8.5830599069595337e-02 }
                  - { var:26, quality:4.1559571027755737e-01,
                      gt:8.3782613277435303e-02 }
                  - { var:21, quality:4.0242409706115723e-01,
                      le:3.5476092249155045e-02 }
                  - { var:14, quality:3.9093759655952454e-01,
                      le:3.7338212132453918e-02 }
                  - { var:18, quality:3.8976320624351501e-01,
                      le:3.6382846534252167e-02 }
                  - { var:22, quality:3.6639162898063660e-01,
                      le:3.8351267576217651e-02 }
                  - { var:13, quality:3.6434820294380188e-01,
                      le:3.6011949181556702e-02 }
                  - { var:25, quality:3.5404175519943237e-01,
                      gt:7.2982303798198700e-02 }
                  - { var:11, quality:3.4799671173095703e-01,
                      gt:7.4086293578147888e-02 }
                  - { var:23, quality:3.4096139669418335e-01,
                      le:4.0091626346111298e-02 }
                  - { var:0, quality:3.3199271559715271e-01,
                      gt:1.7447085119783878e-03 }
                  - { var:24, quality:3.2468765974044800e-01,
                      gt:7.0785552263259888e-02 }
                  - { var:2, quality:3.2439893484115601e-01,
                      gt:1.9173317123204470e-03 }
                  - { var:6, quality:3.2294210791587830e-01,
                      gt:1.9517668988555670e-03 }
                  - { var:12, quality:3.2216379046440125e-01,
                      le:3.7227801978588104e-02 }
                  - { var:8, quality:3.1988659501075745e-01,
                      gt:2.0696097053587437e-03 }
                  - { var:3, quality:3.1742408871650696e-01,
                      gt:2.0070418249815702e-03 }
                  - { var:7, quality:3.1330758333206177e-01,
                      gt:3.2519381493330002e-03 }
                  - { var:5, quality:3.1307175755500793e-01,
                      gt:2.1501560695469379e-03 }
                  - { var:1, quality:3.1291756033897400e-01,
                      gt:2.5671292096376419e-03 }
                  - { var:4, quality:3.1276276707649231e-01,
                      gt:3.3448101021349430e-03 }
            -
               depth: 1
               sample_count: 1441
               value: -1.7791890872400254e-01
               norm_class_idx: 0
               Tn: 0
               complexity: 0
               alpha: 0.
               node_risk: 0.
               tree_risk: 0.
               tree_error: 0.
            -
               depth: 1
               sample_count: 2840
               value: 1.7791890872400254e-01
               norm_class_idx: 1
               Tn: 0
               complexity: 0
               alpha: 0.
               node_risk: 0.
               tree_risk: 0.
               tree_error: 0.
      -
         best_tree_idx: -1
         nodes:
            -
               depth: 0
               sample_count: 4281
               value: 1.8771696451445524e-01
               norm_class_idx: 1
               Tn: 0
               complexity: 0
               alpha: 0.
               node_risk: 0.
               tree_risk: 0.
               tree_error: 0.
               splits:
                  - { var:15, quality:5.3493094444274902e-01,
                      le:4.9105145037174225e-02 }
                  - { var:16, quality:4.2135760188102722e-01,
                      le:5.1685638725757599e-02 }
                  - { var:14, quality:4.0440464019775391e-01,
                      le:5.1196813583374023e-02 }
                  - { var:26, quality:4.0219900012016296e-01,
                      gt:5.9991799294948578e-02 }
                  - { var:9, quality:3.9957687258720398e-01,
                      gt:3.7192847579717636e-02 }
                  - { var:10, quality:3.9240387082099915e-01,
                      gt:6.0585383325815201e-02 }
                  - { var:17, quality:3.8602524995803833e-01,
                      le:5.0761945545673370e-02 }
                  - { var:20, quality:3.8112106919288635e-01,
                      le:5.1252424716949463e-02 }
                  - { var:13, quality:3.7435626983642578e-01,
                      le:5.1505267620086670e-02 }
                  - { var:21, quality:3.6995759606361389e-01,
                      le:5.1556095480918884e-02 }
                  - { var:19, quality:3.6659651994705200e-01,
                      le:5.3112365305423737e-02 }
                  - { var:25, quality:3.6194452643394470e-01,
                      gt:4.3847113847732544e-02 }
                  - { var:12, quality:3.6160239577293396e-01,
                      le:8.5553675889968872e-02 }
                  - { var:5, quality:3.6133331060409546e-01,
                      gt:6.8803332396782935e-05 }
                  - { var:8, quality:3.6118510365486145e-01,
                      gt:7.0065420004539192e-05 }
                  - { var:7, quality:3.6116686463356018e-01,
                      gt:7.1164846303872764e-05 }
                  - { var:4, quality:3.6116686463356018e-01,
                      gt:7.1761503932066262e-05 }
                  - { var:3, quality:3.6116686463356018e-01,
                      gt:7.1868867962621152e-05 }
                  - { var:1, quality:3.6116686463356018e-01,
                      gt:7.0527734351344407e-05 }
                  - { var:24, quality:3.6094409227371216e-01,
                      gt:1.7571676522493362e-02 }
                  - { var:6, quality:3.6093577742576599e-01,
                      gt:2.3627610062249005e-05 }
                  - { var:2, quality:3.6093577742576599e-01,
                      gt:1.9332212104927748e-05 }
                  - { var:0, quality:3.6093577742576599e-01,
                      gt:8.5281717474572361e-06 }
            -
               depth: 1
               sample_count: 2753
               value: 1.8771696451445524e-01
               norm_class_idx: 1
               Tn: 0
               complexity: 0
               alpha: 0.
               node_risk: 0.
               tree_risk: 0.
               tree_error: 0.
            -
               depth: 1
               sample_count: 1528
               value: -1.8771696451445524e-01
               norm_class_idx: 0
               Tn: 0
               complexity: 0
               alpha: 0.
               node_risk: 0.
               tree_risk: 0.
               tree_error: 0.
      -
         best_tree_idx: -1
         nodes:
            -
               depth: 0
               sample_count: 3855
               value: -1.6328929151864205e-01
               norm_class_idx: 0
               Tn: 0
               complexity: 0
               alpha: 0.
               node_risk: 0.
               tree_risk: 0.
               tree_error: 0.
               splits:
                  - { var:0, quality:5.2815073728561401e-01,
                      le:1.9510693382471800e-03 }
                  - { var:2, quality:5.0787431001663208e-01,
                      le:2.0663817413151264e-03 }
                  - { var:6, quality:5.0377535820007324e-01,
                      le:2.0897991489619017e-03 }
                  - { var:8, quality:4.9206420779228210e-01,
                      le:2.1776086650788784e-03 }
                  - { var:1, quality:4.6005174517631531e-01,
                      le:2.4935223627835512e-03 }
                  - { var:5, quality:4.5894399285316467e-01,
                      le:2.4451040662825108e-03 }
                  - { var:3, quality:4.5851683616638184e-01,
                      le:2.3966105654835701e-03 }
                  - { var:4, quality:4.5683479309082031e-01,
                      le:2.4909339845180511e-03 }
                  - { var:7, quality:4.5647639036178589e-01,
                      le:2.2610025480389595e-03 }
                  - { var:19, quality:4.3976765871047974e-01,
                      gt:1.0642034932971001e-02 }
                  - { var:17, quality:4.3846189975738525e-01,
                      gt:1.0377851314842701e-02 }
                  - { var:13, quality:4.3803644180297852e-01,
                      gt:1.1535849422216415e-02 }
                  - { var:16, quality:4.3793690204620361e-01,
                      gt:7.7022491022944450e-03 }
                  - { var:18, quality:4.3775498867034912e-01,
                      gt:1.2711793184280396e-02 }
                  - { var:15, quality:4.3754360079765320e-01,
                      gt:1.1193202808499336e-02 }
                  - { var:14, quality:4.3715646862983704e-01,
                      gt:9.3104541301727295e-03 }
                  - { var:12, quality:4.3708357214927673e-01,
                      gt:1.3415585272014141e-02 }
                  - { var:26, quality:4.3703210353851318e-01,
                      le:1.4993804693222046e-01 }
                  - { var:24, quality:4.3699747323989868e-01,
                      gt:1.3663428835570812e-02 }
                  - { var:11, quality:4.3694821000099182e-01,
                      gt:1.9163969904184341e-02 }
                  - { var:20, quality:4.3686282634735107e-01,
                      gt:7.5015574693679810e-03 }
                  - { var:22, quality:4.3681293725967407e-01,
                      le:8.4812849760055542e-02 }
                  - { var:21, quality:4.3661165237426758e-01,
                      gt:6.1823022551834583e-03 }
                  - { var:23, quality:4.3652340769767761e-01,
                      gt:6.8578235805034637e-03 }
                  - { var:9, quality:4.3629783391952515e-01,
                      le:2.4490302801132202e-01 }
                  - { var:10, quality:4.3593770265579224e-01,
                      gt:1.0154714807868004e-02 }
                  - { var:25, quality:4.3593052029609680e-01,
                      gt:8.6171068251132965e-03 }
            -
               depth: 1
               sample_count: 3172
               value: -1.6328929151864205e-01
               norm_class_idx: 0
               Tn: 0
               complexity: 0
               alpha: 0.
               node_risk: 0.
               tree_risk: 0.
               tree_error: 0.
            -
               depth: 1
               sample_count: 683
               value: 1.6328929151864205e-01
               norm_class_idx: 1
               Tn: 0
               complexity: 0
               alpha: 0.
               node_risk: 0.
               tree_risk: 0.
               tree_error: 0.
      -
         best_tree_idx: -1
         nodes:
            -
               depth: 0
               sample_count: 3748
               value: 9.0078090238409139e-02
               norm_class_idx: 1
               Tn: 0
               complexity: 0
               alpha: 0.
               node_risk: 0.
               tree_risk: 0.
               tree_error: 0.
               splits:
                  - { var:11, quality:5.2179217338562012e-01,
                      le:5.8438051491975784e-02 }
                  - { var:10, quality:3.7814328074455261e-01,
                      le:6.1640363186597824e-02 }
                  - { var:12, quality:3.6274629831314087e-01,
                      le:4.7619260847568512e-02 }
                  - { var:19, quality:3.5729727149009705e-01,
                      gt:5.1852993667125702e-02 }
                  - { var:18, quality:3.5460540652275085e-01,
                      gt:5.4515168070793152e-02 }
                  - { var:17, quality:3.5336479544639587e-01,
                      gt:5.1233991980552673e-02 }
                  - { var:20, quality:3.5252612829208374e-01,
                      gt:4.9423776566982269e-02 }
                  - { var:9, quality:3.4781223535537720e-01,
                      le:3.2710880041122437e-02 }
                  - { var:21, quality:3.3885630965232849e-01,
                      gt:5.3773611783981323e-02 }
                  - { var:26, quality:3.3463197946548462e-01,
                      le:5.8672875165939331e-02 }
                  - { var:16, quality:3.3323100209236145e-01,
                      gt:4.8796780407428741e-02 }
                  - { var:15, quality:3.2977959513664246e-01,
                      gt:4.8711255192756653e-02 }
                  - { var:25, quality:3.2939833402633667e-01,
                      le:5.1706120371818542e-02 }
                  - { var:22, quality:3.2875993847846985e-01,
                      gt:5.3171660751104355e-02 }
                  - { var:23, quality:3.2361572980880737e-01,
                      gt:5.9018269181251526e-02 }
                  - { var:13, quality:3.1353223323822021e-01,
                      le:2.8714846819639206e-02 }
                  - { var:24, quality:3.1120204925537109e-01,
                      le:3.0166935175657272e-02 }
                  - { var:14, quality:3.0889350175857544e-01,
                      le:2.0951393991708755e-02 }
                  - { var:1, quality:3.0406844615936279e-01,
                      gt:3.8343761116266251e-03 }
                  - { var:3, quality:3.0367597937583923e-01,
                      gt:3.4790805075317621e-03 }
                  - { var:4, quality:3.0317509174346924e-01,
                      gt:3.5000587813556194e-03 }
                  - { var:5, quality:3.0315002799034119e-01,
                      gt:3.4363027662038803e-03 }
                  - { var:6, quality:3.0288350582122803e-01,
                      le:8.6430678493343294e-05 }
                  - { var:2, quality:3.0287134647369385e-01,
                      le:7.8948956797830760e-05 }
                  - { var:8, quality:3.0271410942077637e-01,
                      le:8.6286228906828910e-05 }
                  - { var:0, quality:3.0250144004821777e-01,
                      le:6.1161328630987555e-05 }
                  - { var:7, quality:3.0220749974250793e-01,
                      gt:3.3916230313479900e-03 }
            -
               depth: 1
               sample_count: 1809
               value: -9.0078090238409139e-02
               norm_class_idx: 0
               Tn: 0
               complexity: 0
               alpha: 0.
               node_risk: 0.
               tree_risk: 0.
               tree_error: 0.
            -
               depth: 1
               sample_count: 1939
               value: 9.0078090238409139e-02
               norm_class_idx: 1
               Tn: 0
               complexity: 0
               alpha: 0.
               node_risk: 0.
               tree_risk: 0.
               tree_error: 0.
      -
         best_tree_idx: -1
         nodes:
            -
               depth: 0
               sample_count: 3785
               value: 9.2545034895514314e-02
               norm_class_idx: 1
               Tn: 0
               complexity: 0
               alpha: 0.
               node_risk: 0.
               tree_risk: 0.
               tree_error: 0.
               splits:
                  - { var:1, quality:5.1546651124954224e-01,
                      le:1.0692179203033447e-03 }
                  - { var:5, quality:4.9851369857788086e-01,
                      le:1.0479590855538845e-03 }
                  - { var:4, quality:4.9720060825347900e-01,
                      le:1.0544769465923309e-03 }
                  - { var:3, quality:4.9654018878936768e-01,
                      le:1.0242559947073460e-03 }
                  - { var:7, quality:4.9392357468605042e-01,
                      le:1.0383491171523929e-03 }
                  - { var:8, quality:4.7512814402580261e-01,
                      le:9.1711583081632853e-04 }
                  - { var:6, quality:4.6198686957359314e-01,
                      le:7.9149042721837759e-04 }
                  - { var:2, quality:4.5528927445411682e-01,
                      le:8.4069010335952044e-04 }
                  - { var:0, quality:4.2546775937080383e-01,
                      le:6.3697044970467687e-04 }
                  - { var:20, quality:3.5564869642257690e-01,
                      gt:1.2260842323303223e-01 }
                  - { var:19, quality:3.5559093952178955e-01,
                      gt:1.0498793423175812e-01 }
                  - { var:26, quality:3.5525602102279663e-01,
                      le:9.9614746868610382e-03 }
                  - { var:10, quality:3.5521328449249268e-01,
                      le:1.0992612689733505e-02 }
                  - { var:11, quality:3.5520520806312561e-01,
                      le:8.1739677116274834e-03 }
                  - { var:21, quality:3.5519018769264221e-01,
                      gt:1.0590524226427078e-01 }
                  - { var:25, quality:3.5516387224197388e-01,
                      le:9.2249643057584763e-03 }
                  - { var:24, quality:3.5515430569648743e-01,
                      le:3.1847134232521057e-03 }
                  - { var:13, quality:3.5514205694198608e-01,
                      gt:1.3134324550628662e-01 }
            -
               depth: 1
               sample_count: 1259
               value: 9.2545034895514314e-02
               norm_class_idx: 1
               Tn: 0
               complexity: 0
               alpha: 0.
               node_risk: 0.
               tree_risk: 0.
               tree_error: 0.
            -
               depth: 1
               sample_count: 2526
               value: -9.2545034895514314e-02
               norm_class_idx: 0
               Tn: 0
               complexity: 0
               alpha: 0.
               node_risk: 0.
               tree_risk: 0.
               tree_error: 0.
      -
         best_tree_idx: -1
         nodes:
            -
               depth: 0
               sample_count: 3854
               value: 4.8227531973273043e-02
               norm_class_idx: 1
               Tn: 0
               complexity: 0
               alpha: 0.
               node_risk: 0.
               tree_risk: 0.
               tree_error: 0.
               splits:
                  - { var:25, quality:5.1129066944122314e-01,
                      le:6.1492078006267548e-02 }
                  - { var:26, quality:3.5872223973274231e-01,
                      le:7.0892862975597382e-02 }
                  - { var:24, quality:3.5471761226654053e-01,
                      le:5.3498711436986923e-02 }
                  - { var:18, quality:3.5018306970596313e-01,
                      gt:4.9984574317932129e-02 }
                  - { var:17, quality:3.3724078536033630e-01,
                      gt:4.6841543167829514e-02 }
                  - { var:16, quality:3.2489609718322754e-01,
                      gt:4.4825375080108643e-02 }
                  - { var:19, quality:3.1930854916572571e-01,
                      gt:4.6957075595855713e-02 }
                  - { var:15, quality:3.1661424040794373e-01,
                      gt:4.7079153358936310e-02 }
                  - { var:10, quality:3.0715003609657288e-01,
                      le:7.2183802723884583e-02 }
                  - { var:20, quality:3.0703517794609070e-01,
                      gt:4.5699231326580048e-02 }
                  - { var:23, quality:3.0458346009254456e-01,
                      le:5.0880629569292068e-02 }
                  - { var:9, quality:3.0104130506515503e-01,
                      le:3.3826548606157303e-02 }
                  - { var:14, quality:2.9802447557449341e-01,
                      gt:4.6717979013919830e-02 }
                  - { var:11, quality:2.8673470020294189e-01,
                      le:6.7501403391361237e-02 }
                  - { var:0, quality:2.8029492497444153e-01,
                      le:1.7447085119783878e-03 }
                  - { var:3, quality:2.7923205494880676e-01,
                      le:2.0251753740012646e-03 }
                  - { var:13, quality:2.7908372879028320e-01,
                      gt:4.6701788902282715e-02 }
                  - { var:2, quality:2.7895209193229675e-01,
                      le:1.9164013210684061e-03 }
                  - { var:22, quality:2.7871623635292053e-01,
                      le:5.7028099894523621e-02 }
                  - { var:7, quality:2.7854558825492859e-01,
                      le:3.1574594322592020e-03 }
                  - { var:1, quality:2.7759870886802673e-01,
                      le:1.9808118231594563e-03 }
                  - { var:5, quality:2.7753862738609314e-01,
                      le:3.2255621626973152e-03 }
                  - { var:4, quality:2.7688398957252502e-01,
                      le:4.8192921094596386e-03 }
            -
               depth: 1
               sample_count: 2371
               value: -4.8227531973273043e-02
               norm_class_idx: 0
               Tn: 0
               complexity: 0
               alpha: 0.
               node_risk: 0.
               tree_risk: 0.
               tree_error: 0.
            -
               depth: 1
               sample_count: 1483
               value: 4.8227531973273043e-02
               norm_class_idx: 1
               Tn: 0
               complexity: 0
               alpha: 0.
               node_risk: 0.
               tree_risk: 0.
               tree_error: 0.
      -
         best_tree_idx: -1
         nodes:
            -
               depth: 0
               sample_count: 3853
               value: 1.9281768269930635e-01
               norm_class_idx: 1
               Tn: 0
               complexity: 0
               alpha: 0.
               node_risk: 0.
               tree_risk: 0.
               tree_error: 0.
               splits:
                  - { var:10, quality:5.1275438070297241e-01,
                      le:7.0844918489456177e-02 }
                  - { var:9, quality:4.0287446975708008e-01,
                      le:3.8560926914215088e-02 }
                  - { var:26, quality:4.0217146277427673e-01,
                      le:6.7160531878471375e-02 }
                  - { var:20, quality:3.9483013749122620e-01,
                      gt:4.5904770493507385e-02 }
                  - { var:21, quality:3.8453146815299988e-01,
                      gt:4.2675957083702087e-02 }
                  - { var:16, quality:3.8289844989776611e-01,
                      gt:4.4904388487339020e-02 }
                  - { var:15, quality:3.7869280576705933e-01,
                      gt:4.4943455606698990e-02 }
                  - { var:19, quality:3.7836170196533203e-01,
                      gt:4.5192979276180267e-02 }
                  - { var:17, quality:3.7816566228866577e-01,
                      gt:4.8078984022140503e-02 }
                  - { var:18, quality:3.6498400568962097e-01,
                      gt:4.5659162104129791e-02 }
                  - { var:11, quality:3.6412018537521362e-01,
                      le:5.9563964605331421e-02 }
                  - { var:22, quality:3.5519063472747803e-01,
                      gt:4.8028506338596344e-02 }
                  - { var:14, quality:3.3289313316345215e-01,
                      gt:4.6717979013919830e-02 }
                  - { var:23, quality:3.2657355070114136e-01,
                      gt:4.9692690372467041e-02 }
                  - { var:25, quality:3.2293036580085754e-01,
                      le:5.1565244793891907e-02 }
                  - { var:13, quality:3.1240868568420410e-01,
                      gt:4.7749377787113190e-02 }
                  - { var:0, quality:2.8509697318077087e-01,
                      le:2.9421175713650882e-04 }
                  - { var:12, quality:2.8436142206192017e-01,
                      le:4.7603245824575424e-02 }
                  - { var:24, quality:2.8421440720558167e-01,
                      gt:7.6887652277946472e-02 }
                  - { var:6, quality:2.8408339619636536e-01,
                      le:4.8230972606688738e-04 }
                  - { var:8, quality:2.8384172916412354e-01,
                      le:4.3099359027110040e-04 }
                  - { var:2, quality:2.8351122140884399e-01,
                      le:3.9416781510226429e-04 }
                  - { var:3, quality:2.8140640258789062e-01,
                      le:3.0344474362209439e-04 }
                  - { var:5, quality:2.8136652708053589e-01,
                      le:2.4676820612512529e-04 }
                  - { var:7, quality:2.8135052323341370e-01,
                      le:3.5116382059641182e-04 }
                  - { var:1, quality:2.8122046589851379e-01,
                      le:2.6816985337063670e-04 }
                  - { var:4, quality:2.8104671835899353e-01,
                      le:2.6312860427424312e-04 }
            -
               depth: 1
               sample_count: 2064
               value: 1.9281768269930635e-01
               norm_class_idx: 1
               Tn: 0
               complexity: 0
               alpha: 0.
               node_risk: 0.
               tree_risk: 0.
               tree_error: 0.
            -
               depth: 1
               sample_count: 1789
               value: -1.9281768269930635e-01
               norm_class_idx: 0
               Tn: 0
               complexity: 0
               alpha: 0.
               node_risk: 0.
               tree_risk: 0.
               tree_error: 0.
      -
         best_tree_idx: -1
         nodes:
            -
               depth: 0
               sample_count: 3764
               value: 7.1177058521910627e-02
               norm_class_idx: 1
               Tn: 0
               complexity: 0
               alpha: 0.
               node_risk: 0.
               tree_risk: 0.
               tree_error: 0.
               splits:
                  - { var:11, quality:5.1701986789703369e-01,
                      le:5.8442406356334686e-02 }
                  - { var:10, quality:3.7335112690925598e-01,
                      le:6.1640363186597824e-02 }
                  - { var:12, quality:3.6301138997077942e-01,
                      le:4.7619260847568512e-02 }
                  - { var:19, quality:3.5502108931541443e-01,
                      gt:5.1852993667125702e-02 }
                  - { var:18, quality:3.5212194919586182e-01,
                      gt:5.4215665906667709e-02 }
                  - { var:17, quality:3.5019350051879883e-01,
                      gt:5.1197260618209839e-02 }
                  - { var:20, quality:3.4606951475143433e-01,
                      gt:4.9423776566982269e-02 }
                  - { var:9, quality:3.4282094240188599e-01,
                      le:3.2710880041122437e-02 }
                  - { var:21, quality:3.3320793509483337e-01,
                      gt:5.3773611783981323e-02 }
                  - { var:26, quality:3.3028957247734070e-01,
                      le:5.8452695608139038e-02 }
                  - { var:16, quality:3.2731464505195618e-01,
                      gt:5.5062450468540192e-02 }
                  - { var:25, quality:3.2716405391693115e-01,
                      le:4.7599826008081436e-02 }
                  - { var:22, quality:3.2522508502006531e-01,
                      gt:5.3600817918777466e-02 }
                  - { var:15, quality:3.2364407181739807e-01,
                      gt:4.8711255192756653e-02 }
                  - { var:23, quality:3.2009989023208618e-01,
                      gt:5.9018269181251526e-02 }
                  - { var:13, quality:3.1309607625007629e-01,
                      le:3.3662520349025726e-02 }
                  - { var:24, quality:3.0987033247947693e-01,
                      le:3.0184790492057800e-02 }
                  - { var:14, quality:3.0623075366020203e-01,
                      le:2.0951393991708755e-02 }
                  - { var:1, quality:3.0080276727676392e-01,
                      gt:3.3955529797822237e-03 }
                  - { var:3, quality:3.0051299929618835e-01,
                      gt:3.4790805075317621e-03 }
                  - { var:5, quality:3.0000820755958557e-01,
                      gt:3.4363027662038803e-03 }
                  - { var:4, quality:2.9978740215301514e-01,
                      gt:3.5000587813556194e-03 }
                  - { var:8, quality:2.9963237047195435e-01,
                      gt:4.0643494576215744e-03 }
                  - { var:6, quality:2.9959934949874878e-01,
                      le:8.6430678493343294e-05 }
                  - { var:2, quality:2.9958808422088623e-01,
                      le:7.8948956797830760e-05 }
                  - { var:7, quality:2.9934206604957581e-01,
                      gt:3.3916230313479900e-03 }
                  - { var:0, quality:2.9922717809677124e-01,
                      le:6.1161328630987555e-05 }
            -
               depth: 1
               sample_count: 1823
               value: -7.1177058521910627e-02
               norm_class_idx: 0
               Tn: 0
               complexity: 0
               alpha: 0.
               node_risk: 0.
               tree_risk: 0.
               tree_error: 0.
            -
               depth: 1
               sample_count: 1941
               value: 7.1177058521910627e-02
               norm_class_idx: 1
               Tn: 0
               complexity: 0
               alpha: 0.
               node_risk: 0.
               tree_risk: 0.
               tree_error: 0.
      -
         best_tree_idx: -1
         nodes:
            -
               depth: 0
               sample_count: 3787
               value: 1.8524990603041758e-01
               norm_class_idx: 1
               Tn: 0
               complexity: 0
               alpha: 0.
               node_risk: 0.
               tree_risk: 0.
               tree_error: 0.
               splits:
                  - { var:2, quality:5.1241070032119751e-01,
                      le:9.0052944142371416e-04 }
                  - { var:6, quality:4.9162408709526062e-01,
                      le:8.7665405590087175e-04 }
                  - { var:8, quality:4.8705118894577026e-01,
                      le:9.7430159803479910e-04 }
                  - { var:0, quality:4.7028768062591553e-01,
                      le:7.6044705929234624e-04 }
                  - { var:4, quality:4.5590907335281372e-01,
                      le:1.0556241031736135e-03 }
                  - { var:3, quality:4.5249775052070618e-01,
                      le:1.0675403755158186e-03 }
                  - { var:5, quality:4.5176613330841064e-01,
                      le:1.0743864113464952e-03 }
                  - { var:1, quality:4.5164632797241211e-01,
                      le:1.0854754364117980e-03 }
                  - { var:7, quality:4.5149931311607361e-01,
                      le:1.0310742072761059e-03 }
                  - { var:20, quality:3.4604144096374512e-01,
                      gt:9.3114115297794342e-02 }
                  - { var:19, quality:3.4581336379051208e-01,
                      gt:1.5269595384597778e-01 }
                  - { var:24, quality:3.4547525644302368e-01,
                      le:5.4824561811983585e-04 }
                  - { var:21, quality:3.4547451138496399e-01,
                      gt:1.1045403778553009e-01 }
            -
               depth: 1
               sample_count: 1165
               value: -1.8524990603041758e-01
               norm_class_idx: 0
               Tn: 0
               complexity: 0
               alpha: 0.
               node_risk: 0.
               tree_risk: 0.
               tree_error: 0.
            -
               depth: 1
               sample_count: 2622
               value: 1.8524990603041758e-01
               norm_class_idx: 1
               Tn: 0
               complexity: 0
               alpha: 0.
               node_risk: 0.
               tree_risk: 0.
               tree_error: 0.
      -
         best_tree_idx: -1
         nodes:
            -
               depth: 0
               sample_count: 3784
               value: -1.3932876284479390e-01
               norm_class_idx: 0
               Tn: 0
               complexity: 0
               alpha: 0.
               node_risk: 0.
               tree_risk: 0.
               tree_error: 0.
               splits:
                  - { var:7, quality:5.2486795186996460e-01,
                      le:1.0608253069221973e-03 }
                  - { var:5, quality:5.0687438249588013e-01,
                      le:1.0576122440397739e-03 }
                  - { var:3, quality:5.0365763902664185e-01,
                      le:1.0529847349971533e-03 }
                  - { var:1, quality:5.0327354669570923e-01,
                      le:1.0815232526510954e-03 }
                  - { var:4, quality:4.9930083751678467e-01,
                      le:9.9900481291115284e-04 }
                  - { var:8, quality:4.8029738664627075e-01,
                      le:9.0676150284707546e-04 }
                  - { var:6, quality:4.6560966968536377e-01,
                      le:8.5510266944766045e-04 }
                  - { var:2, quality:4.6331414580345154e-01,
                      le:8.4022001828998327e-04 }
                  - { var:0, quality:4.2795974016189575e-01,
                      le:6.9545663427561522e-04 }
                  - { var:19, quality:3.5515803098678589e-01,
                      gt:1.0498793423175812e-01 }
                  - { var:20, quality:3.5497620701789856e-01,
                      gt:1.1968953907489777e-01 }
                  - { var:23, quality:3.5470667481422424e-01,
                      le:1.1710110120475292e-02 }
                  - { var:26, quality:3.5458341240882874e-01,
                      le:9.9614746868610382e-03 }
                  - { var:10, quality:3.5454297065734863e-01,
                      le:1.0992612689733505e-02 }
                  - { var:11, quality:3.5453531146049500e-01,
                      le:8.1739677116274834e-03 }
                  - { var:25, quality:3.5449624061584473e-01,
                      le:9.2249643057584763e-03 }
                  - { var:24, quality:3.5447782278060913e-01,
                      le:3.1847134232521057e-03 }
                  - { var:21, quality:3.5447457432746887e-01,
                      gt:1.0590524226427078e-01 }
            -
               depth: 1
               sample_count: 1328
               value: 1.3932876284479390e-01
               norm_class_idx: 1
               Tn: 0
               complexity: 0
               alpha: 0.
               node_risk: 0.
               tree_risk: 0.
               tree_error: 0.
            -
               depth: 1
               sample_count: 2456
               value: -1.3932876284479390e-01
               norm_class_idx: 0
               Tn: 0
               complexity: 0
               alpha: 0.
               node_risk: 0.
               tree_risk: 0.
               tree_error: 0.
      -
         best_tree_idx: -1
         nodes:
            -
               depth: 0
               sample_count: 3789
               value: 5.6555602189489990e-02
               norm_class_idx: 1
               Tn: 0
               complexity: 0
               alpha: 0.
               node_risk: 0.
               tree_risk: 0.
               tree_error: 0.
               splits:
                  - { var:25, quality:5.0736176967620850e-01,
                      le:5.2389223128557205e-02 }
                  - { var:26, quality:3.8785657286643982e-01,
                      le:5.3971923887729645e-02 }
                  - { var:24, quality:3.8102275133132935e-01,
                      le:3.8590140640735626e-02 }
                  - { var:17, quality:3.7758493423461914e-01,
                      gt:5.8379851281642914e-02 }
                  - { var:18, quality:3.7590205669403076e-01,
                      gt:7.0202216506004333e-02 }
                  - { var:19, quality:3.7092795968055725e-01,
                      gt:5.7443097233772278e-02 }
                  - { var:16, quality:3.6745646595954895e-01,
                      gt:5.7134829461574554e-02 }
                  - { var:10, quality:3.6301952600479126e-01,
                      le:5.0698518753051758e-02 }
                  - { var:23, quality:3.6063727736473083e-01,
                      le:2.6956174522638321e-02 }
                  - { var:11, quality:3.5790255665779114e-01,
                      le:4.3026082217693329e-02 }
                  - { var:15, quality:3.5684296488761902e-01,
                      gt:5.9641018509864807e-02 }
                  - { var:9, quality:3.5407191514968872e-01,
                      le:2.7177743613719940e-02 }
                  - { var:20, quality:3.5280358791351318e-01,
                      gt:6.3483111560344696e-02 }
                  - { var:14, quality:3.5261541604995728e-01,
                      gt:6.2487646937370300e-02 }
                  - { var:12, quality:3.5123780369758606e-01,
                      le:3.0485944822430611e-02 }
                  - { var:13, quality:3.4826788306236267e-01,
                      gt:7.4157297611236572e-02 }
                  - { var:22, quality:3.4826683998107910e-01,
                      le:1.8767338246107101e-02 }
                  - { var:21, quality:3.4601917862892151e-01,
                      le:1.5620004385709763e-02 }
                  - { var:4, quality:3.4503704309463501e-01,
                      le:1.3190458412282169e-04 }
                  - { var:7, quality:3.4486216306686401e-01,
                      le:1.5434232773259282e-04 }
                  - { var:5, quality:3.4476658701896667e-01,
                      le:1.5262409579008818e-04 }
                  - { var:3, quality:3.4476658701896667e-01,
                      le:1.5191192505881190e-04 }
                  - { var:8, quality:3.4463945031166077e-01,
                      le:1.3831589603796601e-04 }
                  - { var:6, quality:3.4461164474487305e-01,
                      le:1.0797295544762164e-04 }
                  - { var:1, quality:3.4458824992179871e-01,
                      le:1.6005009820219129e-04 }
                  - { var:2, quality:3.4449976682662964e-01,
                      le:9.6732386737130582e-05 }
                  - { var:0, quality:3.4432637691497803e-01,
                      le:7.7850796515122056e-05 }
            -
               depth: 1
               sample_count: 1432
               value: -5.6555602189489990e-02
               norm_class_idx: 0
               Tn: 0
               complexity: 0
               alpha: 0.
               node_risk: 0.
               tree_risk: 0.
               tree_error: 0.
            -
               depth: 1
               sample_count: 2357
               value: 5.6555602189489990e-02
               norm_class_idx: 1
               Tn: 0
               complexity: 0
               alpha: 0.
               node_risk: 0.
               tree_risk: 0.
               tree_error: 0.
      -
         best_tree_idx: -1
         nodes:
            -
               depth: 0
               sample_count: 3804
               value: 1.7374642482435540e-01
               norm_class_idx: 1
               Tn: 0
               complexity: 0
               alpha: 0.
               node_risk: 0.
               tree_risk: 0.
               tree_error: 0.
               splits:
                  - { var:13, quality:5.0793445110321045e-01,
                      le:4.6437554061412811e-02 }
                  - { var:14, quality:3.8045883178710938e-01,
                      le:4.2007405310869217e-02 }
                  - { var:15, quality:3.6942148208618164e-01,
                      le:3.9602652192115784e-02 }
                  - { var:9, quality:3.5746848583221436e-01,
                      gt:5.9793815016746521e-02 }
                  - { var:12, quality:3.5037732124328613e-01,
                      le:5.0074882805347443e-02 }
                  - { var:16, quality:3.4518954157829285e-01,
                      le:3.3956918865442276e-02 }
                  - { var:26, quality:3.4174630045890808e-01,
                      gt:8.3031207323074341e-02 }
                  - { var:22, quality:3.3783060312271118e-01,
                      le:3.8035549223423004e-02 }
                  - { var:21, quality:3.3522319793701172e-01,
                      le:3.6618500947952271e-02 }
                  - { var:10, quality:3.3345112204551697e-01,
                      gt:8.7848708033561707e-02 }
                  - { var:20, quality:3.3088132739067078e-01,
                      le:3.4800518304109573e-02 }
                  - { var:17, quality:3.2644760608673096e-01,
                      le:3.3536799252033234e-02 }
                  - { var:23, quality:3.2529732584953308e-01,
                      le:4.0511287748813629e-02 }
                  - { var:19, quality:3.2218468189239502e-01,
                      le:3.1954422593116760e-02 }
                  - { var:24, quality:3.0610206723213196e-01,
                      le:4.5017786324024200e-02 }
                  - { var:25, quality:3.0098217725753784e-01,
                      gt:7.1923211216926575e-02 }
                  - { var:18, quality:3.0041489005088806e-01,
                      le:3.9602890610694885e-02 }
                  - { var:11, quality:2.8809916973114014e-01,
                      le:5.2455492317676544e-02 }
                  - { var:1, quality:2.7766531705856323e-01,
                      gt:1.8845982849597931e-03 }
                  - { var:4, quality:2.7647268772125244e-01,
                      gt:1.7229916993528605e-03 }
                  - { var:3, quality:2.7621573209762573e-01,
                      gt:1.7345321830362082e-03 }
                  - { var:5, quality:2.7487355470657349e-01,
                      gt:1.7183725722134113e-03 }
                  - { var:0, quality:2.7435719966888428e-01,
                      gt:1.4767623506486416e-03 }
                  - { var:2, quality:2.7213373780250549e-01,
                      gt:1.7432840541005135e-03 }
                  - { var:7, quality:2.7210733294487000e-01,
                      gt:1.9291508942842484e-03 }
                  - { var:6, quality:2.7209088206291199e-01,
                      gt:1.7773110885173082e-03 }
                  - { var:8, quality:2.7188116312026978e-01,
                      gt:2.0382278598845005e-03 }
            -
               depth: 1
               sample_count: 1992
               value: 1.7374642482435540e-01
               norm_class_idx: 1
               Tn: 0
               complexity: 0
               alpha: 0.
               node_risk: 0.
               tree_risk: 0.
               tree_error: 0.
            -
               depth: 1
               sample_count: 1812
               value: -1.7374642482435540e-01
               norm_class_idx: 0
               Tn: 0
               complexity: 0
               alpha: 0.
               node_risk: 0.
               tree_risk: 0.
               tree_error: 0.
      -
         best_tree_idx: -1
         nodes:
            -
               depth: 0
               sample_count: 3747
               value: 1.2972592294281826e-01
               norm_class_idx: 1
               Tn: 0
               complexity: 0
               alpha: 0.
               node_risk: 0.
               tree_risk: 0.
               tree_error: 0.
               splits:
                  - { var:14, quality:5.1196509599685669e-01,
                      le:4.0758479386568069e-02 }
                  - { var:15, quality:4.0418723225593567e-01,
                      le:3.6856010556221008e-02 }
                  - { var:13, quality:3.9444965124130249e-01,
                      le:4.0513135492801666e-02 }
                  - { var:9, quality:3.8748198747634888e-01,
                      gt:6.5758854150772095e-02 }
                  - { var:16, quality:3.8524648547172546e-01,
                      le:3.3895283937454224e-02 }
                  - { var:26, quality:3.7637111544609070e-01,
                      gt:9.0254619717597961e-02 }
                  - { var:10, quality:3.6892935633659363e-01,
                      gt:8.7798133492469788e-02 }
                  - { var:21, quality:3.6637082695960999e-01,
                      le:3.6047376692295074e-02 }
                  - { var:20, quality:3.6559957265853882e-01,
                      le:3.3625535666942596e-02 }
                  - { var:17, quality:3.6515465378761292e-01,
                      le:3.4736834466457367e-02 }
                  - { var:19, quality:3.6199685931205750e-01,
                      le:3.0873503535985947e-02 }
                  - { var:22, quality:3.6170890927314758e-01,
                      le:3.6386020481586456e-02 }
                  - { var:12, quality:3.5392791032791138e-01,
                      le:4.5242138206958771e-02 }
                  - { var:23, quality:3.5376894474029541e-01,
                      le:4.0511287748813629e-02 }
                  - { var:18, quality:3.4194692969322205e-01,
                      le:3.4158941358327866e-02 }
                  - { var:24, quality:3.3511793613433838e-01,
                      le:4.3591368943452835e-02 }
                  - { var:25, quality:3.2454940676689148e-01,
                      gt:7.1923211216926575e-02 }
                  - { var:6, quality:3.0877435207366943e-01,
                      gt:2.3515995126217604e-03 }
                  - { var:2, quality:3.0839622020721436e-01,
                      gt:2.4938043206930161e-03 }
                  - { var:0, quality:3.0767887830734253e-01,
                      gt:2.4344122502952814e-03 }
                  - { var:11, quality:3.0744734406471252e-01,
                      le:3.8375318050384521e-02 }
                  - { var:8, quality:3.0675345659255981e-01,
                      gt:2.4884375743567944e-03 }
                  - { var:1, quality:3.0609109997749329e-01,
                      gt:2.9671485535800457e-03 }
                  - { var:3, quality:3.0456569790840149e-01,
                      gt:2.9511884786188602e-03 }
                  - { var:4, quality:3.0445012450218201e-01,
                      gt:3.3922996371984482e-03 }
                  - { var:5, quality:3.0397424101829529e-01,
                      gt:3.2219649292528629e-03 }
                  - { var:7, quality:3.0358475446701050e-01,
                      gt:3.2190463971346617e-03 }
            -
               depth: 1
               sample_count: 1487
               value: -1.2972592294281826e-01
               norm_class_idx: 0
               Tn: 0
               complexity: 0
               alpha: 0.
               node_risk: 0.
               tree_risk: 0.
               tree_error: 0.
            -
               depth: 1
               sample_count: 2260
               value: 1.2972592294281826e-01
               norm_class_idx: 1
               Tn: 0
               complexity: 0
               alpha: 0.
               node_risk: 0.
               tree_risk: 0.
               tree_error: 0.
      -
         best_tree_idx: -1
         nodes:
            -
               depth: 0
               sample_count: 3747
               value: 3.9773983528361832e-02
               norm_class_idx: 1
               Tn: 0
               complexity: 0
               alpha: 0.
               node_risk: 0.
               tree_risk: 0.
               tree_error: 0.
               splits:
                  - { var:10, quality:5.0689172744750977e-01,
                      le:8.0375596880912781e-02 }
                  - { var:9, quality:4.1177555918693542e-01,
                      le:4.8605494201183319e-02 }
                  - { var:20, quality:4.0257430076599121e-01,
                      gt:3.4297212958335876e-02 }
                  - { var:19, quality:3.9805936813354492e-01,
                      gt:3.7361897528171539e-02 }
                  - { var:21, quality:3.9778950810432434e-01,
                      gt:3.5619027912616730e-02 }
                  - { var:17, quality:3.9595252275466919e-01,
                      gt:3.4367851912975311e-02 }
                  - { var:16, quality:3.9465716481208801e-01,
                      gt:3.3740859478712082e-02 }
                  - { var:26, quality:3.9418312907218933e-01,
                      le:8.1383578479290009e-02 }
                  - { var:15, quality:3.8455799221992493e-01,
                      gt:3.4281726926565170e-02 }
                  - { var:18, quality:3.8327115774154663e-01,
                      gt:3.7323743104934692e-02 }
                  - { var:22, quality:3.7220996618270874e-01,
                      gt:3.7840604782104492e-02 }
                  - { var:11, quality:3.6442288756370544e-01,
                      le:6.7418336868286133e-02 }
                  - { var:14, quality:3.5561659932136536e-01,
                      gt:3.7338212132453918e-02 }
                  - { var:23, quality:3.4632030129432678e-01,
                      gt:3.9610102772712708e-02 }
                  - { var:13, quality:3.3920454978942871e-01,
                      gt:4.3877974152565002e-02 }
                  - { var:25, quality:3.1878805160522461e-01,
                      le:7.3059618473052979e-02 }
                  - { var:0, quality:3.1254059076309204e-01,
                      le:1.5599969774484634e-03 }
                  - { var:24, quality:3.1180688738822937e-01,
                      gt:4.3581355363130569e-02 }
                  - { var:8, quality:3.0781373381614685e-01,
                      le:3.0125270131975412e-03 }
                  - { var:2, quality:3.0724409222602844e-01,
                      le:3.6678579635918140e-03 }
                  - { var:6, quality:3.0710291862487793e-01,
                      le:3.1003525946289301e-03 }
                  - { var:5, quality:3.0567541718482971e-01,
                      le:3.2601957209408283e-03 }
                  - { var:12, quality:3.0544593930244446e-01,
                      le:9.1454997658729553e-02 }
                  - { var:3, quality:3.0536460876464844e-01,
                      le:3.5847723484039307e-03 }
                  - { var:1, quality:3.0515718460083008e-01,
                      le:3.7087372038513422e-03 }
                  - { var:7, quality:3.0492240190505981e-01,
                      le:3.3837028313428164e-03 }
                  - { var:4, quality:3.0478233098983765e-01,
                      le:4.8192921094596386e-03 }
            -
               depth: 1
               sample_count: 2354
               value: -3.9773983528361832e-02
               norm_class_idx: 0
               Tn: 0
               complexity: 0
               alpha: 0.
               node_risk: 0.
               tree_risk: 0.
               tree_error: 0.
            -
               depth: 1
               sample_count: 1393
               value: 3.9773983528361832e-02
               norm_class_idx: 1
               Tn: 0
               complexity: 0
               alpha: 0.
               node_risk: 0.
               tree_risk: 0.
               tree_error: 0.
      -
         best_tree_idx: -1
         nodes:
            -
               depth: 0
               sample_count: 3760
               value: 1.6624492629607168e-01
               norm_class_idx: 1
               Tn: 0
               complexity: 0
               alpha: 0.
               node_risk: 0.
               tree_risk: 0.
               tree_error: 0.
               splits:
                  - { var:24, quality:5.0323379039764404e-01,
                      le:4.7842308878898621e-02 }
                  - { var:23, quality:3.9423781633377075e-01,
                      le:4.0511287748813629e-02 }
                  - { var:22, quality:3.7463653087615967e-01,
                      le:3.4354612231254578e-02 }
                  - { var:25, quality:3.6534050107002258e-01,
                      le:4.5348979532718658e-02 }
                  - { var:9, quality:3.6242857575416565e-01,
                      gt:8.2562930881977081e-02 }
                  - { var:21, quality:3.6065241694450378e-01,
                      le:2.8320858255028725e-02 }
                  - { var:18, quality:3.5408148169517517e-01,
                      gt:8.3690993487834930e-02 }
                  - { var:12, quality:3.5007873177528381e-01,
                      le:3.9207644760608673e-02 }
                  - { var:14, quality:3.4882149100303650e-01,
                      le:2.7953358367085457e-02 }
                  - { var:10, quality:3.4728631377220154e-01,
                      gt:1.1982199549674988e-01 }
                  - { var:13, quality:3.4702152013778687e-01,
                      le:3.0028704553842545e-02 }
                  - { var:15, quality:3.4616097807884216e-01,
                      le:2.5688100606203079e-02 }
                  - { var:20, quality:3.4410783648490906e-01,
                      le:1.9577125087380409e-02 }
