%YAML:1.0
pair: !!opencv-ml-boost-tree
   boosting_type: DiscreteAdaboost
   splitting_criteria: 3
   ntrees: 100
   weight_trimming_rate: 9.4999999999999996e-01
   is_classifier: 1
   var_all: 58
   var_count: 58
   ord_var_count: 58
   cat_var_count: 0
   training_params:
      use_surrogates: 1
      max_categories: 10
      max_depth: 1
      min_sample_count: 10
      cross_validation_folds: 0
      priors: !!opencv-matrix
         rows: 1
         cols: 2
         dt: d
         data: [ 1., 1. ]
   var_type: [ 0, 0, 0, 0, 0, 0, 0, 0, 0, 0, 0, 0, 0, 0, 0, 0, 0, 0, 0,
       0, 0, 0, 0, 0, 0, 0, 0, 0, 0, 0, 0, 0, 0, 0, 0, 0, 0, 0, 0, 0, 0,
       0, 0, 0, 0, 0, 0, 0, 0, 0, 0, 0, 0, 0, 0, 0, 0, 0 ]
   cat_count: !!opencv-matrix
      rows: 1
      cols: 1
      dt: i
      data: [ 2 ]
   cat_map: !!opencv-matrix
      rows: 1
      cols: 2
      dt: i
      data: [ -1, 1 ]
   trees:
      -
         best_tree_idx: -1
         nodes:
            -
               depth: 0
               sample_count: 10912
               value: 2.2515450465124731e+00
               norm_class_idx: 1
               Tn: 0
               complexity: 0
               alpha: 0.
               node_risk: 0.
               tree_risk: 0.
               tree_error: 0.
               splits:
                  - { var:2, quality:9.0478372573852539e-01,
                      le:5.6111536026000977e+00 }
                  - { var:3, quality:9.0478372573852539e-01,
                      le:6.7651157379150391e+00 }
            -
               depth: 1
               sample_count: 1
               value: -2.2515450465124731e+00
               norm_class_idx: 0
               Tn: 0
               complexity: 0
               alpha: 0.
               node_risk: 0.
               tree_risk: 0.
               tree_error: 0.
            -
               depth: 1
               sample_count: 10911
               value: 2.2515450465124731e+00
               norm_class_idx: 1
               Tn: 0
               complexity: 0
               alpha: 0.
               node_risk: 0.
               tree_risk: 0.
               tree_error: 0.
      -
         best_tree_idx: -1
         nodes:
            -
               depth: 0
               sample_count: 10912
               value: -3.1996083685496218e-01
               norm_class_idx: 0
               Tn: 0
               complexity: 0
               alpha: 0.
               node_risk: 0.
               tree_risk: 0.
               tree_error: 0.
               splits:
                  - { var:29, quality:5.7931470870971680e-01,
                      le:3.6850000000000000e+02 }
                  - { var:43, quality:3.6344987154006958e-01,
                      gt:9.9999243021011353e-01 }
                  - { var:38, quality:3.5906061530113220e-01,
                      le:1.7121645214501768e-05 }
                  - { var:40, quality:3.5731562972068787e-01,
                      le:1.3987188140163198e-05 }
                  - { var:37, quality:3.5497891902923584e-01,
                      le:5.0000000000000000e-01 }
                  - { var:39, quality:3.5436874628067017e-01,
                      gt:9.9997556209564209e-01 }
                  - { var:44, quality:3.4575548768043518e-01,
                      le:2.8611049056053162e-03 }
                  - { var:41, quality:3.4202510118484497e-01,
                      le:1.1045024621125776e-05 }
                  - { var:34, quality:3.4038838744163513e-01,
                      le:2.5138023376464844e+01 }
                  - { var:33, quality:3.4038838744163513e-01,
                      le:2.5138023376464844e+01 }
                  - { var:35, quality:3.3991870284080505e-01,
                      gt:1.3810064697265625e+02 }
                  - { var:36, quality:3.3966869115829468e-01,
                      le:1.7754951477050781e+01 }
                  - { var:6, quality:3.3738055825233459e-01,
                      gt:1.3933624267578125e+02 }
                  - { var:0, quality:3.3708718419075012e-01,
                      le:1.5350000000000000e+02 }
                  - { var:30, quality:3.3704337477684021e-01,
                      le:1.1174007415771484e+01 }
                  - { var:45, quality:3.3672052621841431e-01,
                      gt:9.9960482120513916e-01 }
                  - { var:23, quality:3.3670550584793091e-01,
                      gt:9.5000000000000000e+00 }
                  - { var:31, quality:3.3648568391799927e-01,
                      gt:2.4461819458007812e+02 }
                  - { var:12, quality:3.3645635843276978e-01,
                      gt:4.0622538328170776e-01 }
                  - { var:24, quality:3.3622163534164429e-01,
                      gt:4.2500000000000000e+01 }
                  - { var:8, quality:3.3622163534164429e-01,
                      gt:3.7250000000000000e+02 }
                  - { var:32, quality:3.3619230985641479e-01,
                      gt:2.5398855590820312e+02 }
                  - { var:15, quality:3.3613362908363342e-01,
                      gt:7.6748621463775635e-01 }
                  - { var:5, quality:3.3604562282562256e-01,
                      le:5.0000000000000000e-01 }
                  - { var:4, quality:3.3604562282562256e-01,
                      le:5.0000000000000000e-01 }
                  - { var:16, quality:3.3603087067604065e-01,
                      gt:8.7788748741149902e-01 }
            -
               depth: 1
               sample_count: 5283
               value: 3.1996083685496218e-01
               norm_class_idx: 1
               Tn: 0
               complexity: 0
               alpha: 0.
               node_risk: 0.
               tree_risk: 0.
               tree_error: 0.
            -
               depth: 1
               sample_count: 5629
               value: -3.1996083685496218e-01
               norm_class_idx: 0
               Tn: 0
               complexity: 0
               alpha: 0.
               node_risk: 0.
               tree_risk: 0.
               tree_error: 0.
      -
         best_tree_idx: -1
         nodes:
            -
               depth: 0
               sample_count: 10912
               value: 2.6984505141000270e-01
               norm_class_idx: 1
               Tn: 0
               complexity: 0
               alpha: 0.
               node_risk: 0.
               tree_risk: 0.
               tree_error: 0.
               splits:
                  - { var:12, quality:5.6705486774444580e-01,
                      le:7.2951614856719971e-03 }
                  - { var:9, quality:3.9223468303680420e-01,
                      le:2.0535413175821304e-02 }
                  - { var:10, quality:3.8983541727066040e-01,
                      gt:6.5867984294891357e-01 }
                  - { var:41, quality:3.8291162252426147e-01,
                      le:3.2678865827620029e-03 }
                  - { var:11, quality:3.8138473033905029e-01,
                      le:8.8619604706764221e-02 }
                  - { var:2, quality:3.6680382490158081e-01,
                      gt:7.8912513732910156e+01 }
                  - { var:7, quality:3.6651724576950073e-01,
                      gt:3.0628582000732422e+01 }
                  - { var:39, quality:3.6118024587631226e-01,
                      gt:1.6705343127250671e-01 }
                  - { var:6, quality:3.5853990912437439e-01,
                      le:1.1268686676025391e+02 }
                  - { var:35, quality:3.5694301128387451e-01,
                      le:1.1092132568359375e+02 }
                  - { var:36, quality:3.5233369469642639e-01,
                      gt:3.3923419952392578e+01 }
                  - { var:3, quality:3.5232332348823547e-01,
                      gt:6.7365005493164062e+01 }
                  - { var:40, quality:3.4561893343925476e-01,
                      le:3.2167625427246094e-01 }
                  - { var:31, quality:3.4160953760147095e-01,
                      gt:6.1455062866210938e+01 }
                  - { var:44, quality:3.4041291475296021e-01,
                      gt:1.8107745796442032e-02 }
                  - { var:15, quality:3.4019288420677185e-01,
                      gt:2.8847014904022217e-01 }
                  - { var:43, quality:3.3958309888839722e-01,
                      le:9.8189222812652588e-01 }
                  - { var:17, quality:3.3823716640472412e-01,
                      le:5.0000000000000000e-01 }
                  - { var:14, quality:3.3537635207176208e-01,
                      le:6.8469798564910889e-01 }
                  - { var:1, quality:3.3480897545814514e-01,
                      gt:4.1975334167480469e+01 }
                  - { var:22, quality:3.3416193723678589e-01,
                      le:1.7500000000000000e+01 }
                  - { var:27, quality:3.3314615488052368e-01,
                      le:5.0000000000000000e-01 }
                  - { var:38, quality:3.3200472593307495e-01,
                      le:1.1428372561931610e-01 }
                  - { var:0, quality:3.3133304119110107e-01, le:263633. }
                  - { var:32, quality:3.3131715655326843e-01,
                      gt:3.0943965911865234e+01 }
                  - { var:23, quality:3.3111873269081116e-01,
                      le:2.7500000000000000e+01 }
                  - { var:8, quality:3.3111873269081116e-01,
                      le:2.0050000000000000e+02 }
                  - { var:45, quality:3.3055800199508667e-01,
                      le:7.8363275527954102e-01 }
                  - { var:29, quality:3.3053877949714661e-01,
                      gt:1.0350000000000000e+02 }
                  - { var:24, quality:3.3047392964363098e-01, le:14. }
                  - { var:26, quality:3.2999676465988159e-01,
                      le:5.0000000000000000e-01 }
                  - { var:55, quality:3.2965260744094849e-01,
                      le:5.0000000000000000e-01 }
                  - { var:56, quality:3.2935222983360291e-01,
                      le:5.0000000000000000e-01 }
                  - { var:53, quality:3.2924979925155640e-01, le:8. }
                  - { var:51, quality:3.2921567559242249e-01, le:33. }
                  - { var:46, quality:3.2921567559242249e-01, le:37. }
                  - { var:37, quality:3.2921567559242249e-01, le:61. }
                  - { var:52, quality:3.2914742827415466e-01, le:49. }
                  - { var:30, quality:3.2914742827415466e-01,
                      le:2.5442587280273438e+02 }
            -
               depth: 1
               sample_count: 6873
               value: 2.6984505141000270e-01
               norm_class_idx: 1
               Tn: 0
               complexity: 0
               alpha: 0.
               node_risk: 0.
               tree_risk: 0.
               tree_error: 0.
            -
               depth: 1
               sample_count: 4039
               value: -2.6984505141000270e-01
               norm_class_idx: 0
               Tn: 0
               complexity: 0
               alpha: 0.
               node_risk: 0.
               tree_risk: 0.
               tree_error: 0.
      -
         best_tree_idx: -1
         nodes:
            -
               depth: 0
               sample_count: 10912
               value: 2.3566420943881608e-01
               norm_class_idx: 1
               Tn: 0
               complexity: 0
               alpha: 0.
               node_risk: 0.
               tree_risk: 0.
               tree_error: 0.
               splits:
                  - { var:6, quality:5.5864489078521729e-01,
                      le:5.4309146881103516e+01 }
                  - { var:9, quality:5.4240673780441284e-01,
                      gt:6.2877219915390015e-01 }
                  - { var:35, quality:4.6650233864784241e-01,
                      le:5.2552230834960938e+01 }
                  - { var:38, quality:4.6300733089447021e-01,
                      gt:6.3921797275543213e-01 }
                  - { var:1, quality:4.5258074998855591e-01,
                      gt:1.9328504943847656e+02 }
                  - { var:2, quality:4.4330602884292603e-01,
                      gt:2.0964346313476562e+02 }
                  - { var:7, quality:4.3728858232498169e-01,
                      le:1.3608484268188477e+01 }
                  - { var:14, quality:4.3701463937759399e-01,
                      gt:9.9888694286346436e-01 }
                  - { var:15, quality:4.3697181344032288e-01,
                      le:6.3786131795495749e-04 }
                  - { var:11, quality:4.2958647012710571e-01,
                      le:9.7856558568309993e-05 }
                  - { var:30, quality:4.2750453948974609e-01,
                      gt:2.2442326354980469e+02 }
                  - { var:10, quality:4.2489001154899597e-01,
                      le:1.3965412974357605e-02 }
                  - { var:3, quality:4.2485970258712769e-01,
                      gt:2.1471365356445312e+02 }
                  - { var:36, quality:4.2286473512649536e-01,
                      le:8.1889686584472656e+00 }
                  - { var:5, quality:4.2174598574638367e-01,
                      le:3.1991045475006104e+00 }
                  - { var:4, quality:4.2174598574638367e-01,
                      le:3.1991045475006104e+00 }
                  - { var:0, quality:4.2168995738029480e-01, gt:169612. }
                  - { var:17, quality:4.2162165045738220e-01, gt:42. }
                  - { var:51, quality:4.2130187153816223e-01,
                      gt:1.7500000000000000e+01 }
                  - { var:34, quality:4.2129743099212646e-01,
                      le:4.3004283905029297e+00 }
                  - { var:33, quality:4.2129743099212646e-01,
                      le:4.3004283905029297e+00 }
                  - { var:37, quality:4.2118212580680847e-01, gt:38. }
                  - { var:52, quality:4.2091804742813110e-01,
                      gt:1.0500000000000000e+01 }
                  - { var:18, quality:4.2087757587432861e-01,
                      gt:5.0000000000000000e-01 }
                  - { var:46, quality:4.2082011699676514e-01,
                      gt:7.5000000000000000e+00 }
                  - { var:53, quality:4.2061299085617065e-01,
                      gt:2.5000000000000000e+00 }
                  - { var:31, quality:4.2036810517311096e-01,
                      gt:2.5248040771484375e+02 }
                  - { var:23, quality:4.2033138871192932e-01,
                      gt:2.7500000000000000e+01 }
                  - { var:22, quality:4.2033138871192932e-01, gt:124. }
                  - { var:8, quality:4.2033138871192932e-01,
                      gt:2.0050000000000000e+02 }
                  - { var:32, quality:4.2019361257553101e-01,
                      le:1.1525214195251465e+01 }
            -
               depth: 1
               sample_count: 2173
               value: -2.3566420943881608e-01
               norm_class_idx: 0
               Tn: 0
               complexity: 0
               alpha: 0.
               node_risk: 0.
               tree_risk: 0.
               tree_error: 0.
            -
               depth: 1
               sample_count: 8739
               value: 2.3566420943881608e-01
               norm_class_idx: 1
               Tn: 0
               complexity: 0
               alpha: 0.
               node_risk: 0.
               tree_risk: 0.
               tree_error: 0.
      -
         best_tree_idx: -1
         nodes:
            -
               depth: 0
               sample_count: 10912
               value: -2.2432325155101546e-01
               norm_class_idx: 0
               Tn: 0
               complexity: 0
               alpha: 0.
               node_risk: 0.
               tree_risk: 0.
               tree_error: 0.
               splits:
                  - { var:8, quality:5.5584681034088135e-01,
                      le:8.5000000000000000e+00 }
                  - { var:22, quality:5.3686070442199707e-01,
                      le:6.5000000000000000e+00 }
                  - { var:23, quality:5.1924091577529907e-01,
                      le:2.5000000000000000e+00 }
                  - { var:17, quality:5.1720094680786133e-01,
                      le:2.5000000000000000e+00 }
                  - { var:25, quality:4.9096173048019409e-01,
                      le:5.0000000000000000e-01 }
                  - { var:27, quality:4.9067455530166626e-01,
                      le:5.0000000000000000e-01 }
                  - { var:0, quality:4.8968896269798279e-01, le:55204. }
                  - { var:26, quality:4.8757216334342957e-01,
                      le:5.0000000000000000e-01 }
                  - { var:12, quality:4.8754999041557312e-01,
                      le:6.1367422342300415e-01 }
                  - { var:51, quality:4.8687306046485901e-01,
                      le:5.2500000000000000e+01 }
                  - { var:37, quality:4.8687306046485901e-01, le:74. }
                  - { var:53, quality:4.8684665560722351e-01, le:14. }
                  - { var:52, quality:4.8684665560722351e-01, le:22. }
                  - { var:46, quality:4.8684665560722351e-01,
                      le:1.8500000000000000e+01 }
                  - { var:35, quality:4.8677334189414978e-01,
                      le:1.6089019775390625e+02 }
                  - { var:6, quality:4.8668852448463440e-01,
                      le:1.5642642211914062e+02 }
            -
               depth: 1
               sample_count: 9189
               value: -2.2432325155101546e-01
               norm_class_idx: 0
               Tn: 0
               complexity: 0
               alpha: 0.
               node_risk: 0.
               tree_risk: 0.
               tree_error: 0.
            -
               depth: 1
               sample_count: 1723
               value: 2.2432325155101546e-01
               norm_class_idx: 1
               Tn: 0
               complexity: 0
               alpha: 0.
               node_risk: 0.
               tree_risk: 0.
               tree_error: 0.
      -
         best_tree_idx: -1
         nodes:
            -
               depth: 0
               sample_count: 10432
               value: 2.1246467173985806e-01
               norm_class_idx: 1
               Tn: 0
               complexity: 0
               alpha: 0.
               node_risk: 0.
               tree_risk: 0.
               tree_error: 0.
               splits:
                  - { var:0, quality:5.5263799428939819e-01,
                      le:1.3605000000000000e+03 }
                  - { var:9, quality:3.6242499947547913e-01,
                      le:1.7121645214501768e-05 }
                  - { var:22, quality:3.5435634851455688e-01,
                      le:5.0000000000000000e-01 }
                  - { var:8, quality:3.5434359312057495e-01,
                      le:5.0000000000000000e-01 }
                  - { var:12, quality:3.5336878895759583e-01,
                      le:1.1045024621125776e-05 }
                  - { var:16, quality:3.4439715743064880e-01,
                      le:6.3883885559334885e-06 }
                  - { var:10, quality:3.3673208951950073e-01,
                      le:1.1740120498870965e-05 }
                  - { var:23, quality:3.3645850419998169e-01,
                      le:5.0000000000000000e-01 }
                  - { var:6, quality:3.3024331927299500e-01,
                      gt:1.0272538757324219e+02 }
                  - { var:14, quality:3.2888084650039673e-01,
                      gt:9.9999243021011353e-01 }
                  - { var:11, quality:3.2627719640731812e-01,
                      gt:7.3146152496337891e-01 }
                  - { var:2, quality:3.2604491710662842e-01,
                      gt:1.5726959228515625e+02 }
                  - { var:5, quality:3.2563582062721252e-01,
                      le:3.8185821533203125e+01 }
                  - { var:4, quality:3.2563582062721252e-01,
                      le:3.8185821533203125e+01 }
                  - { var:1, quality:3.2333347201347351e-01,
                      gt:1.6454251098632812e+02 }
                  - { var:3, quality:3.2130944728851318e-01,
                      gt:1.6470750427246094e+02 }
                  - { var:17, quality:3.2004579901695251e-01,
                      le:5.0000000000000000e-01 }
                  - { var:24, quality:3.1958872079849243e-01,
                      le:5.0000000000000000e-01 }
                  - { var:15, quality:3.1957390904426575e-01,
                      le:1.9300614949315786e-03 }
                  - { var:32, quality:3.1956619024276733e-01,
                      gt:2.4741412353515625e+02 }
                  - { var:31, quality:3.1903126835823059e-01,
                      gt:2.2281300354003906e+02 }
                  - { var:30, quality:3.1835916638374329e-01,
                      le:1.5386821746826172e+01 }
                  - { var:34, quality:3.1825572252273560e-01,
                      le:9.6197338104248047e+00 }
                  - { var:33, quality:3.1825572252273560e-01,
                      le:9.6197338104248047e+00 }
                  - { var:41, quality:3.1817898154258728e-01,
                      gt:3.6341685056686401e-01 }
                  - { var:40, quality:3.1800326704978943e-01,
                      gt:9.8727840185165405e-01 }
                  - { var:46, quality:3.1792116165161133e-01,
                      gt:3.5000000000000000e+00 }
                  - { var:7, quality:3.1784725189208984e-01,
                      gt:2.1964508056640625e+02 }
                  - { var:54, quality:3.1768339872360229e-01,
                      gt:5.0000000000000000e-01 }
                  - { var:35, quality:3.1765073537826538e-01,
                      le:1.1379705429077148e+01 }
                  - { var:55, quality:3.1746792793273926e-01,
                      gt:5.0000000000000000e-01 }
                  - { var:52, quality:3.1745925545692444e-01,
                      gt:9.5000000000000000e+00 }
                  - { var:51, quality:3.1742075085639954e-01, gt:124. }
                  - { var:37, quality:3.1742075085639954e-01,
                      gt:2.0050000000000000e+02 }
                  - { var:53, quality:3.1741219758987427e-01,
                      gt:6.5000000000000000e+00 }
                  - { var:36, quality:3.1726965308189392e-01,
                      gt:2.0348387145996094e+02 }
                  - { var:29, quality:3.1720086932182312e-01,
                      gt:1.4451250000000000e+05 }
            -
               depth: 1
               sample_count: 4906
               value: 2.1246467173985806e-01
               norm_class_idx: 1
               Tn: 0
               complexity: 0
               alpha: 0.
               node_risk: 0.
               tree_risk: 0.
               tree_error: 0.
            -
               depth: 1
               sample_count: 5526
               value: -2.1246467173985806e-01
               norm_class_idx: 0
               Tn: 0
               complexity: 0
               alpha: 0.
               node_risk: 0.
               tree_risk: 0.
               tree_error: 0.
      -
         best_tree_idx: -1
         nodes:
            -
               depth: 0
               sample_count: 10432
               value: 1.8177266168135894e-01
               norm_class_idx: 1
               Tn: 0
               complexity: 0
               alpha: 0.
               node_risk: 0.
               tree_risk: 0.
               tree_error: 0.
               splits:
                  - { var:7, quality:5.4100728034973145e-01,
                      le:7.2445861816406250e+01 }
                  - { var:14, quality:5.1649600267410278e-01,
                      gt:6.9275456666946411e-01 }
                  - { var:15, quality:4.9087235331535339e-01,
                      le:2.1682748198509216e-01 }
                  - { var:16, quality:4.4844800233840942e-01,
                      le:1.3891364447772503e-02 }
                  - { var:1, quality:4.2443722486495972e-01,
                      gt:9.2948150634765625e+01 }
                  - { var:36, quality:4.1435807943344116e-01,
                      le:7.1014282226562500e+01 }
                  - { var:43, quality:4.1379082202911377e-01,
                      gt:6.7958736419677734e-01 }
                  - { var:44, quality:4.0595251321792603e-01,
                      le:2.3806676268577576e-01 }
                  - { var:45, quality:3.8573107123374939e-01,
                      le:3.1175324693322182e-03 }
                  - { var:2, quality:3.7804484367370605e-01,
                      gt:1.2699757385253906e+02 }
                  - { var:3, quality:3.7556156516075134e-01,
                      gt:1.0350416564941406e+02 }
                  - { var:30, quality:3.6825299263000488e-01,
                      gt:9.9251525878906250e+01 }
                  - { var:9, quality:3.6097872257232666e-01,
                      gt:1.7845688387751579e-02 }
                  - { var:10, quality:3.4240168333053589e-01,
                      le:9.0585380792617798e-01 }
                  - { var:38, quality:3.3963853120803833e-01,
                      gt:1.1247648298740387e-01 }
                  - { var:12, quality:3.3851906657218933e-01,
                      gt:5.4600159637629986e-04 }
                  - { var:6, quality:3.3634230494499207e-01,
                      le:6.8099784851074219e+01 }
                  - { var:31, quality:3.3543536067008972e-01,
                      gt:1.2799465179443359e+02 }
                  - { var:35, quality:3.3068582415580750e-01,
                      le:6.9136726379394531e+01 }
                  - { var:39, quality:3.2710450887680054e-01,
                      le:8.5679823160171509e-01 }
                  - { var:32, quality:3.2582563161849976e-01,
                      gt:1.2971304321289062e+02 }
                  - { var:11, quality:3.0989906191825867e-01,
                      le:6.9749259948730469e-01 }
                  - { var:23, quality:3.0722290277481079e-01,
                      le:1.5000000000000000e+00 }
                  - { var:41, quality:3.0712452530860901e-01,
                      gt:4.7978863585740328e-04 }
                  - { var:0, quality:3.0349463224411011e-01,
                      le:8.5435000000000000e+03 }
                  - { var:40, quality:2.9874369502067566e-01,
                      le:6.6716563701629639e-01 }
                  - { var:5, quality:2.9280972480773926e-01,
                      le:6.9937719726562500e+02 }
                  - { var:4, quality:2.9280972480773926e-01,
                      le:6.9937719726562500e+02 }
                  - { var:34, quality:2.9227215051651001e-01,
                      le:6.3646850585937500e+02 }
                  - { var:33, quality:2.9227215051651001e-01,
                      le:6.3646850585937500e+02 }
                  - { var:24, quality:2.9108774662017822e-01,
                      le:2.5000000000000000e+00 }
                  - { var:8, quality:2.8986108303070068e-01,
                      le:4.5000000000000000e+00 }
                  - { var:37, quality:2.8955316543579102e-01,
                      gt:5.0000000000000000e-01 }
                  - { var:22, quality:2.8856444358825684e-01,
                      le:2.7500000000000000e+01 }
                  - { var:51, quality:2.8791707754135132e-01,
                      gt:5.0000000000000000e-01 }
                  - { var:17, quality:2.8667700290679932e-01,
                      le:1.5000000000000000e+00 }
                  - { var:27, quality:2.8654158115386963e-01,
                      le:5.0000000000000000e-01 }
                  - { var:25, quality:2.8427624702453613e-01,
                      le:5.0000000000000000e-01 }
                  - { var:26, quality:2.8315901756286621e-01,
                      le:5.0000000000000000e-01 }
                  - { var:29, quality:2.8276169300079346e-01,
                      le:1.5469500000000000e+04 }
                  - { var:54, quality:2.8256565332412720e-01,
                      le:5.0000000000000000e-01 }
                  - { var:53, quality:2.8230962157249451e-01,
                      le:2.3500000000000000e+01 }
                  - { var:52, quality:2.8230962157249451e-01, le:49. }
                  - { var:46, quality:2.8227594494819641e-01, le:28. }
            -
               depth: 1
               sample_count: 5728
               value: 1.8177266168135894e-01
               norm_class_idx: 1
               Tn: 0
               complexity: 0
               alpha: 0.
               node_risk: 0.
               tree_risk: 0.
               tree_error: 0.
            -
               depth: 1
               sample_count: 4704
               value: -1.8177266168135894e-01
               norm_class_idx: 0
               Tn: 0
               complexity: 0
               alpha: 0.
               node_risk: 0.
               tree_risk: 0.
               tree_error: 0.
      -
         best_tree_idx: -1
         nodes:
            -
               depth: 0
               sample_count: 9782
               value: 1.8591942673237397e-01
               norm_class_idx: 1
               Tn: 0
               complexity: 0
               alpha: 0.
               node_risk: 0.
               tree_risk: 0.
               tree_error: 0.
               splits:
                  - { var:4, quality:5.2204340696334839e-01,
                      le:3.0614318847656250e+02 }
                  - { var:5, quality:5.2204340696334839e-01,
                      le:3.0614318847656250e+02 }
                  - { var:34, quality:4.7035104036331177e-01,
                      le:3.1429827880859375e+02 }
                  - { var:33, quality:4.7035104036331177e-01,
                      le:3.1429827880859375e+02 }
                  - { var:12, quality:3.2823532819747925e-01,
                      gt:1.8268296122550964e-01 }
                  - { var:23, quality:3.2707756757736206e-01,
                      gt:5.5000000000000000e+00 }
                  - { var:7, quality:3.2694453001022339e-01,
                      gt:1.7280532836914062e+02 }
                  - { var:17, quality:3.2694223523139954e-01,
                      gt:7.5000000000000000e+00 }
                  - { var:8, quality:3.2675710320472717e-01,
                      gt:2.9500000000000000e+01 }
                  - { var:16, quality:3.2652267813682556e-01,
                      gt:5.5343937873840332e-01 }
                  - { var:3, quality:3.2649713754653931e-01,
                      gt:2.0233900451660156e+02 }
                  - { var:6, quality:3.2541212439537048e-01,
                      gt:1.0689147949218750e+02 }
                  - { var:43, quality:3.2521805167198181e-01,
                      le:4.0833540260791779e-02 }
                  - { var:14, quality:3.2501050829887390e-01,
                      le:2.4635706096887589e-02 }
                  - { var:22, quality:3.2387119531631470e-01, gt:35. }
                  - { var:35, quality:3.2303443551063538e-01,
                      gt:1.0980990600585938e+02 }
                  - { var:36, quality:3.2292687892913818e-01,
                      gt:1.6258534240722656e+02 }
                  - { var:2, quality:3.2287141680717468e-01,
                      gt:2.1979000854492188e+02 }
                  - { var:10, quality:3.2279905676841736e-01,
                      le:1.1740120498870965e-05 }
                  - { var:1, quality:3.2268351316452026e-01,
                      gt:2.1815368652343750e+02 }
                  - { var:24, quality:3.2209229469299316e-01,
                      gt:6.5000000000000000e+00 }
                  - { var:25, quality:3.2163614034652710e-01,
                      gt:5.0000000000000000e-01 }
                  - { var:11, quality:3.2151806354522705e-01,
                      gt:9.7189307212829590e-01 }
                  - { var:45, quality:3.2129406929016113e-01,
                      gt:5.3520929813385010e-01 }
                  - { var:32, quality:3.2120472192764282e-01,
                      gt:2.2538111877441406e+02 }
                  - { var:44, quality:3.2091578841209412e-01,
                      gt:9.4423711299896240e-01 }
                  - { var:40, quality:3.2056793570518494e-01,
                      gt:9.8837995529174805e-01 }
                  - { var:30, quality:3.2037141919136047e-01,
                      le:1.2609180450439453e+01 }
                  - { var:15, quality:3.2001185417175293e-01,
                      gt:9.8798894882202148e-01 }
                  - { var:41, quality:3.1969642639160156e-01,
                      gt:4.2597925662994385e-01 }
                  - { var:26, quality:3.1955549120903015e-01,
                      gt:5.0000000000000000e-01 }
                  - { var:51, quality:3.1910613179206848e-01,
                      gt:6.5000000000000000e+00 }
                  - { var:55, quality:3.1909841299057007e-01,
                      gt:5.0000000000000000e-01 }
                  - { var:46, quality:3.1906694173812866e-01,
                      gt:8.5000000000000000e+00 }
                  - { var:31, quality:3.1906253099441528e-01,
                      gt:2.4108529663085938e+02 }
                  - { var:18, quality:3.1905359029769897e-01,
                      gt:5.0000000000000000e-01 }
                  - { var:53, quality:3.1898567080497742e-01,
                      gt:3.5000000000000000e+00 }
                  - { var:37, quality:3.1887507438659668e-01, gt:74. }
                  - { var:52, quality:3.1885123252868652e-01, gt:22. }
                  - { var:56, quality:3.1850707530975342e-01,
                      gt:5.0000000000000000e-01 }
                  - { var:39, quality:3.1850185990333557e-01,
                      le:1.1740120498870965e-05 }
            -
               depth: 1
               sample_count: 3476
               value: -1.8591942673237397e-01
               norm_class_idx: 0
               Tn: 0
               complexity: 0
               alpha: 0.
               node_risk: 0.
               tree_risk: 0.
               tree_error: 0.
            -
               depth: 1
               sample_count: 6306
               value: 1.8591942673237397e-01
               norm_class_idx: 1
               Tn: 0
               complexity: 0
               alpha: 0.
               node_risk: 0.
               tree_risk: 0.
               tree_error: 0.
      -
         best_tree_idx: -1
         nodes:
            -
               depth: 0
               sample_count: 9548
               value: -1.7474095654886154e-01
               norm_class_idx: 0
               Tn: 0
               complexity: 0
               alpha: 0.
               node_risk: 0.
               tree_risk: 0.
               tree_error: 0.
               splits:
                  - { var:8, quality:5.2338099479675293e-01,
                      le:1.5000000000000000e+00 }
                  - { var:22, quality:4.6131840348243713e-01,
                      le:1.5000000000000000e+00 }
                  - { var:17, quality:4.1090539097785950e-01,
                      le:5.0000000000000000e-01 }
                  - { var:24, quality:3.9364111423492432e-01,
                      le:5.0000000000000000e-01 }
                  - { var:0, quality:3.7050616741180420e-01, le:2543. }
                  - { var:16, quality:3.1307610869407654e-01,
                      le:6.9883937248960137e-04 }
                  - { var:37, quality:3.0897450447082520e-01,
                      le:4.5000000000000000e+00 }
                  - { var:52, quality:3.0769717693328857e-01,
                      le:5.0000000000000000e-01 }
                  - { var:51, quality:3.0736672878265381e-01,
                      le:1.5000000000000000e+00 }
                  - { var:46, quality:3.0710494518280029e-01,
                      le:5.0000000000000000e-01 }
                  - { var:12, quality:3.0645632743835449e-01,
                      le:1.1045024621125776e-05 }
                  - { var:10, quality:3.0644813179969788e-01,
                      le:9.8886317014694214e-01 }
                  - { var:27, quality:3.0562698841094971e-01,
                      le:5.0000000000000000e-01 }
                  - { var:39, quality:3.0467763543128967e-01,
                      le:9.9775928258895874e-01 }
                  - { var:36, quality:3.0363205075263977e-01,
                      gt:1.7682945251464844e+01 }
                  - { var:26, quality:3.0306422710418701e-01,
                      le:5.0000000000000000e-01 }
                  - { var:15, quality:3.0284151434898376e-01,
                      le:5.7987380027770996e-01 }
                  - { var:54, quality:3.0249223113059998e-01,
                      le:5.0000000000000000e-01 }
                  - { var:35, quality:3.0247074365615845e-01,
                      le:1.5006828308105469e+02 }
                  - { var:55, quality:3.0242350697517395e-01,
                      le:5.0000000000000000e-01 }
                  - { var:53, quality:3.0228430032730103e-01,
                      le:2.5000000000000000e+00 }
                  - { var:41, quality:3.0220782756805420e-01,
                      le:6.0753065347671509e-01 }
                  - { var:6, quality:3.0219620466232300e-01,
                      le:1.5035159301757812e+02 }
                  - { var:5, quality:3.0196088552474976e-01,
                      le:1.0255000000000000e+03 }
                  - { var:4, quality:3.0196088552474976e-01,
                      le:1.0255000000000000e+03 }
                  - { var:34, quality:3.0188533663749695e-01,
                      gt:2.9062500000000000e+00 }
                  - { var:33, quality:3.0188533663749695e-01,
                      gt:2.9062500000000000e+00 }
                  - { var:31, quality:3.0182519555091858e-01,
                      gt:1.2253057479858398e+01 }
                  - { var:2, quality:3.0182406306266785e-01,
                      gt:8.3831758499145508e+00 }
                  - { var:7, quality:3.0181369185447693e-01,
                      le:2.3868554687500000e+02 }
                  - { var:30, quality:3.0178067088127136e-01,
                      gt:8.5405445098876953e+00 }
            -
               depth: 1
               sample_count: 5087
               value: -1.7474095654886154e-01
               norm_class_idx: 0
               Tn: 0
               complexity: 0
               alpha: 0.
               node_risk: 0.
               tree_risk: 0.
               tree_error: 0.
            -
               depth: 1
               sample_count: 4461
               value: 1.7474095654886154e-01
               norm_class_idx: 1
               Tn: 0
               complexity: 0
               alpha: 0.
               node_risk: 0.
               tree_risk: 0.
               tree_error: 0.
      -
         best_tree_idx: -1
         nodes:
            -
               depth: 0
               sample_count: 9418
               value: -1.4899849010078281e-01
               norm_class_idx: 0
               Tn: 0
               complexity: 0
               alpha: 0.
               node_risk: 0.
               tree_risk: 0.
               tree_error: 0.
               splits:
                  - { var:6, quality:5.1785218715667725e-01,
                      le:9.5152763366699219e+01 }
                  - { var:11, quality:4.6298232674598694e-01,
                      le:3.4056740999221802e-01 }
                  - { var:35, quality:4.1612330079078674e-01,
                      le:9.7527328491210938e+01 }
                  - { var:40, quality:4.0636801719665527e-01,
                      le:3.2612127065658569e-01 }
                  - { var:9, quality:3.9035999774932861e-01,
                      gt:4.1595289076212794e-05 }
                  - { var:12, quality:3.6776649951934814e-01,
                      le:2.2730839252471924e-01 }
                  - { var:38, quality:3.6455777287483215e-01,
                      gt:2.3146154126152396e-04 }
                  - { var:41, quality:3.6090186238288879e-01,
                      le:1.6860285401344299e-01 }
                  - { var:32, quality:3.6088323593139648e-01,
                      le:2.1978546142578125e+02 }
                  - { var:45, quality:3.6061388254165649e-01,
                      le:6.0123401880264282e-01 }
                  - { var:16, quality:3.5942962765693665e-01,
                      le:6.6078650951385498e-01 }
                  - { var:7, quality:3.5922175645828247e-01,
                      le:1.8392245483398438e+02 }
                  - { var:36, quality:3.5921353101730347e-01,
                      le:1.8396978759765625e+02 }
                  - { var:27, quality:3.5891136527061462e-01,
                      le:5.0000000000000000e-01 }
                  - { var:25, quality:3.5885843634605408e-01,
                      le:5.0000000000000000e-01 }
                  - { var:14, quality:3.5830220580101013e-01,
                      gt:1.0204199701547623e-02 }
                  - { var:2, quality:3.5698357224464417e-01,
                      gt:1.7570682525634766e+01 }
                  - { var:31, quality:3.5689640045166016e-01,
                      gt:3.0948318481445312e+01 }
                  - { var:0, quality:3.5671851038932800e-01,
                      gt:1.0550000000000000e+02 }
                  - { var:22, quality:3.5663127899169922e-01, le:35. }
                  - { var:3, quality:3.5619550943374634e-01,
                      le:2.4184356689453125e+02 }
                  - { var:26, quality:3.5598647594451904e-01,
                      le:5.0000000000000000e-01 }
                  - { var:1, quality:3.5589876770973206e-01,
                      gt:1.2609180450439453e+01 }
                  - { var:24, quality:3.5589218139648438e-01,
                      le:2.3500000000000000e+01 }
                  - { var:23, quality:3.5589218139648438e-01, le:49. }
                  - { var:8, quality:3.5589218139648438e-01, le:310. }
                  - { var:17, quality:3.5572490096092224e-01,
                      le:1.0500000000000000e+01 }
                  - { var:55, quality:3.5565814375877380e-01,
                      le:5.0000000000000000e-01 }
                  - { var:15, quality:3.5549432039260864e-01,
                      le:9.9138081073760986e-01 }
                  - { var:30, quality:3.5546407103538513e-01,
                      gt:1.5797116279602051e+01 }
                  - { var:54, quality:3.5540357232093811e-01,
                      le:5.0000000000000000e-01 }
                  - { var:29, quality:3.5513415932655334e-01,
                      le:1.4451250000000000e+05 }
                  - { var:56, quality:3.5512912273406982e-01,
                      le:5.0000000000000000e-01 }
                  - { var:53, quality:3.5507002472877502e-01,
                      le:2.3500000000000000e+01 }
                  - { var:52, quality:3.5507002472877502e-01, le:49. }
                  - { var:51, quality:3.5507002472877502e-01,
                      le:1.9450000000000000e+02 }
                  - { var:37, quality:3.5507002472877502e-01, le:310. }
                  - { var:43, quality:3.5506370663642883e-01,
                      gt:4.1178622632287443e-04 }
                  - { var:46, quality:3.5503900051116943e-01, le:28. }
                  - { var:5, quality:3.5486751794815063e-01,
                      le:1.0260124511718750e+03 }
                  - { var:4, quality:3.5486751794815063e-01,
                      le:1.0260124511718750e+03 }
                  - { var:44, quality:3.5486748814582825e-01,
                      le:9.9963778257369995e-01 }
            -
               depth: 1
               sample_count: 6087
               value: -1.4899849010078281e-01
               norm_class_idx: 0
               Tn: 0
               complexity: 0
               alpha: 0.
               node_risk: 0.
               tree_risk: 0.
               tree_error: 0.
            -
               depth: 1
               sample_count: 3331
               value: 1.4899849010078281e-01
               norm_class_idx: 1
               Tn: 0
               complexity: 0
               alpha: 0.
               node_risk: 0.
               tree_risk: 0.
               tree_error: 0.
      -
         best_tree_idx: -1
         nodes:
            -
               depth: 0
               sample_count: 9424
               value: 1.3345913038020413e-01
               norm_class_idx: 1
               Tn: 0
               complexity: 0
               alpha: 0.
               node_risk: 0.
               tree_risk: 0.
               tree_error: 0.
               splits:
                  - { var:32, quality:5.1476424932479858e-01,
                      le:1.2314358520507812e+02 }
                  - { var:31, quality:4.5445996522903442e-01,
                      le:1.2535977172851562e+02 }
                  - { var:30, quality:4.2954146862030029e-01,
                      le:1.0520148468017578e+02 }
                  - { var:3, quality:3.6472028493881226e-01,
                      le:1.1959461212158203e+02 }
                  - { var:2, quality:3.5024511814117432e-01,
                      le:1.3493849182128906e+02 }
                  - { var:1, quality:3.4852251410484314e-01,
                      le:9.7501808166503906e+01 }
                  - { var:44, quality:3.4188699722290039e-01,
                      gt:6.4980700612068176e-02 }
                  - { var:43, quality:3.4127330780029297e-01,
                      le:9.3501931428909302e-01 }
                  - { var:45, quality:3.3764857053756714e-01,
                      gt:3.5539823584258556e-03 }
                  - { var:36, quality:3.3284255862236023e-01,
                      gt:5.4428192138671875e+01 }
                  - { var:38, quality:3.1778737902641296e-01,
                      gt:2.3146154126152396e-04 }
                  - { var:16, quality:3.1401172280311584e-01,
                      gt:3.3641474146861583e-05 }
                  - { var:14, quality:3.1342703104019165e-01,
                      le:9.4666206836700439e-01 }
                  - { var:15, quality:3.1317344307899475e-01,
                      gt:4.9825355410575867e-02 }
                  - { var:7, quality:3.1021967530250549e-01,
                      gt:5.9245834350585938e+01 }
                  - { var:35, quality:3.0610102415084839e-01,
                      le:7.9716117858886719e+01 }
                  - { var:6, quality:2.9171156883239746e-01,
                      le:9.4742904663085938e+01 }
                  - { var:9, quality:2.8520679473876953e-01,
                      gt:4.1595289076212794e-05 }
                  - { var:40, quality:2.8201454877853394e-01,
                      le:7.2992891073226929e-01 }
                  - { var:0, quality:2.8183650970458984e-01, gt:7988. }
                  - { var:11, quality:2.7602475881576538e-01,
                      le:3.4056740999221802e-01 }
                  - { var:41, quality:2.7461752295494080e-01,
                      gt:1.5209838747978210e-03 }
                  - { var:39, quality:2.7403324842453003e-01,
                      gt:7.5113754719495773e-03 }
                  - { var:12, quality:2.7384048700332642e-01,
                      le:4.3833479285240173e-02 }
                  - { var:34, quality:2.7179324626922607e-01,
                      gt:4.3693179321289062e+02 }
                  - { var:33, quality:2.7179324626922607e-01,
                      gt:4.3693179321289062e+02 }
                  - { var:22, quality:2.7033653855323792e-01,
                      gt:2.5000000000000000e+00 }
                  - { var:10, quality:2.7014952898025513e-01,
                      gt:1.9767418503761292e-01 }
                  - { var:5, quality:2.7014729380607605e-01,
                      gt:4.3537036132812500e+02 }
                  - { var:4, quality:2.7014729380607605e-01,
                      gt:4.3537036132812500e+02 }
                  - { var:8, quality:2.6931935548782349e-01,
                      gt:4.5000000000000000e+00 }
                  - { var:23, quality:2.6827812194824219e-01,
                      gt:5.0000000000000000e-01 }
                  - { var:24, quality:2.6570251584053040e-01,
                      gt:5.0000000000000000e-01 }
                  - { var:29, quality:2.6473608613014221e-01,
                      le:2.2750000000000000e+02 }
                  - { var:46, quality:2.6438578963279724e-01,
                      gt:5.0000000000000000e-01 }
                  - { var:17, quality:2.6316305994987488e-01,
                      le:3.5000000000000000e+00 }
                  - { var:52, quality:2.6251548528671265e-01,
                      gt:5.0000000000000000e-01 }
                  - { var:25, quality:2.6068258285522461e-01,
                      le:5.0000000000000000e-01 }
                  - { var:51, quality:2.6026901602745056e-01,
                      le:1.6500000000000000e+01 }
                  - { var:37, quality:2.5973412394523621e-01,
                      le:2.1500000000000000e+01 }
                  - { var:27, quality:2.5917106866836548e-01,
                      le:5.0000000000000000e-01 }
                  - { var:18, quality:2.5900694727897644e-01,
                      le:5.0000000000000000e-01 }
                  - { var:53, quality:2.5861370563507080e-01, le:14. }
            -
               depth: 1
               sample_count: 4921
               value: 1.3345913038020413e-01
               norm_class_idx: 1
               Tn: 0
               complexity: 0
               alpha: 0.
               node_risk: 0.
               tree_risk: 0.
               tree_error: 0.
            -
               depth: 1
               sample_count: 4503
               value: -1.3345913038020413e-01
               norm_class_idx: 0
               Tn: 0
               complexity: 0
               alpha: 0.
               node_risk: 0.
               tree_risk: 0.
               tree_error: 0.
      -
         best_tree_idx: -1
         nodes:
            -
               depth: 0
               sample_count: 9430
               value: 1.7003550854290195e-01
               norm_class_idx: 1
               Tn: 0
               complexity: 0
               alpha: 0.
               node_risk: 0.
               tree_risk: 0.
               tree_error: 0.
               splits:
                  - { var:1, quality:5.0874334573745728e-01,
                      le:7.6054565429687500e+01 }
                  - { var:2, quality:4.4660922884941101e-01,
                      le:8.6842086791992188e+01 }
                  - { var:3, quality:4.3754065036773682e-01,
                      le:9.8630081176757812e+01 }
                  - { var:16, quality:4.0585389733314514e-01,
                      gt:6.8157240748405457e-02 }
                  - { var:7, quality:4.0164357423782349e-01,
                      gt:9.8976425170898438e+01 }
                  - { var:14, quality:3.9680427312850952e-01,
                      le:6.4953088760375977e-01 }
                  - { var:30, quality:3.8443663716316223e-01,
                      le:7.7334396362304688e+01 }
                  - { var:15, quality:3.6803820729255676e-01,
                      gt:2.8494435548782349e-01 }
                  - { var:45, quality:3.6645022034645081e-01,
                      gt:5.2221618592739105e-02 }
                  - { var:31, quality:3.6285543441772461e-01,
                      le:7.8468276977539062e+01 }
                  - { var:36, quality:3.5789084434509277e-01,
                      gt:9.6851776123046875e+01 }
                  - { var:32, quality:3.5618576407432556e-01,
                      le:8.6708465576171875e+01 }
                  - { var:43, quality:3.5443630814552307e-01,
                      le:5.5090349912643433e-01 }
                  - { var:44, quality:3.4603685140609741e-01,
                      gt:3.3131939172744751e-01 }
                  - { var:10, quality:3.3214804530143738e-01,
                      gt:9.1883552074432373e-01 }
                  - { var:0, quality:3.2317849993705750e-01,
                      gt:8.3425000000000000e+03 }
                  - { var:39, quality:3.2009968161582947e-01,
                      gt:9.7356939315795898e-01 }
                  - { var:24, quality:3.1789812445640564e-01,
                      gt:4.5000000000000000e+00 }
                  - { var:27, quality:3.1728902459144592e-01,
                      gt:5.0000000000000000e-01 }
                  - { var:8, quality:3.1715056300163269e-01,
                      gt:5.6500000000000000e+01 }
                  - { var:22, quality:3.1712988018989563e-01, gt:33. }
                  - { var:25, quality:3.1616553664207458e-01,
                      gt:5.0000000000000000e-01 }
                  - { var:11, quality:3.1584474444389343e-01,
                      gt:9.5749402046203613e-01 }
                  - { var:23, quality:3.1537997722625732e-01, gt:12. }
                  - { var:12, quality:3.1505611538887024e-01,
                      gt:6.0753065347671509e-01 }
                  - { var:26, quality:3.1430745124816895e-01,
                      gt:5.0000000000000000e-01 }
                  - { var:40, quality:3.1373623013496399e-01,
                      gt:8.9013737440109253e-01 }
                  - { var:6, quality:3.1373083591461182e-01,
                      gt:1.4986553955078125e+02 }
                  - { var:34, quality:3.1371593475341797e-01,
                      gt:1.0060644531250000e+03 }
                  - { var:33, quality:3.1371593475341797e-01,
                      gt:1.0060644531250000e+03 }
                  - { var:53, quality:3.1349951028823853e-01,
                      gt:2.3500000000000000e+01 }
                  - { var:52, quality:3.1349951028823853e-01, gt:49. }
                  - { var:51, quality:3.1349951028823853e-01,
                      gt:1.9450000000000000e+02 }
                  - { var:37, quality:3.1349951028823853e-01, gt:310. }
                  - { var:46, quality:3.1346863508224487e-01, gt:28. }
                  - { var:35, quality:3.1342709064483643e-01,
                      gt:1.6089019775390625e+02 }
                  - { var:54, quality:3.1340917944908142e-01,
                      gt:5.0000000000000000e-01 }
            -
               depth: 1
               sample_count: 3409
               value: -1.7003550854290195e-01
               norm_class_idx: 0
               Tn: 0
               complexity: 0
               alpha: 0.
               node_risk: 0.
               tree_risk: 0.
               tree_error: 0.
            -
               depth: 1
               sample_count: 6021
               value: 1.7003550854290195e-01
               norm_class_idx: 1
               Tn: 0
               complexity: 0
               alpha: 0.
               node_risk: 0.
               tree_risk: 0.
               tree_error: 0.
      -
         best_tree_idx: -1
         nodes:
            -
               depth: 0
               sample_count: 9362
               value: -1.4220883328858253e-01
               norm_class_idx: 0
               Tn: 0
               complexity: 0
               alpha: 0.
               node_risk: 0.
               tree_risk: 0.
               tree_error: 0.
               splits:
                  - { var:15, quality:5.2427434921264648e-01,
                      le:3.4745344519615173e-01 }
                  - { var:14, quality:4.8385667800903320e-01,
                      gt:6.3254976272583008e-01 }
                  - { var:7, quality:4.7472864389419556e-01,
                      le:8.2671600341796875e+01 }
                  - { var:44, quality:3.9851176738739014e-01,
                      le:3.2360363006591797e-01 }
                  - { var:43, quality:3.9437690377235413e-01,
                      gt:6.3247001171112061e-01 }
                  - { var:36, quality:3.9198291301727295e-01,
                      le:8.2639572143554688e+01 }
                  - { var:16, quality:3.9156049489974976e-01,
                      le:7.1578092873096466e-02 }
                  - { var:1, quality:3.7983003258705139e-01,
                      gt:8.1099395751953125e+01 }
                  - { var:10, quality:3.7032428383827209e-01,
                      le:9.8875617980957031e-01 }
                  - { var:45, quality:3.6794084310531616e-01,
                      le:5.7540748268365860e-02 }
                  - { var:39, quality:3.5552409291267395e-01,
                      le:9.9276649951934814e-01 }
                  - { var:9, quality:3.5404264926910400e-01,
                      gt:1.1067083105444908e-02 }
                  - { var:30, quality:3.5239341855049133e-01,
                      gt:6.1541255950927734e+01 }
                  - { var:3, quality:3.5021665692329407e-01,
                      gt:3.5719219207763672e+01 }
                  - { var:32, quality:3.4535738825798035e-01,
                      gt:4.3721839904785156e+01 }
                  - { var:2, quality:3.4514474868774414e-01,
                      gt:6.6096466064453125e+01 }
                  - { var:0, quality:3.4328517317771912e-01,
                      le:8.1722500000000000e+04 }
                  - { var:31, quality:3.4191414713859558e-01,
                      gt:3.3723155975341797e+01 }
                  - { var:23, quality:3.4096735715866089e-01, le:12. }
                  - { var:24, quality:3.3948367834091187e-01,
                      le:1.0500000000000000e+01 }
                  - { var:8, quality:3.3941176533699036e-01,
                      le:6.8500000000000000e+01 }
                  - { var:22, quality:3.3883944153785706e-01,
                      le:1.9450000000000000e+02 }
                  - { var:34, quality:3.3867135643959045e-01,
                      le:1.0048015136718750e+03 }
                  - { var:33, quality:3.3867135643959045e-01,
                      le:1.0048015136718750e+03 }
                  - { var:5, quality:3.3858072757720947e-01,
                      le:1.0143804931640625e+03 }
                  - { var:4, quality:3.3858072757720947e-01,
                      le:1.0143804931640625e+03 }
                  - { var:26, quality:3.3820375800132751e-01,
                      le:5.0000000000000000e-01 }
                  - { var:29, quality:3.3781021833419800e-01,
                      le:1.3744150000000000e+05 }
                  - { var:12, quality:3.3780324459075928e-01,
                      le:6.3168501853942871e-01 }
                  - { var:53, quality:3.3759555220603943e-01,
                      le:4.2500000000000000e+01 }
                  - { var:52, quality:3.3759555220603943e-01, le:79. }
                  - { var:51, quality:3.3759555220603943e-01,
                      le:2.1250000000000000e+02 }
                  - { var:37, quality:3.3759555220603943e-01,
                      le:3.7250000000000000e+02 }
                  - { var:35, quality:3.3755022287368774e-01,
                      le:1.6089019775390625e+02 }
            -
               depth: 1
               sample_count: 5809
               value: -1.4220883328858253e-01
               norm_class_idx: 0
               Tn: 0
               complexity: 0
               alpha: 0.
               node_risk: 0.
               tree_risk: 0.
               tree_error: 0.
            -
               depth: 1
               sample_count: 3553
               value: 1.4220883328858253e-01
               norm_class_idx: 1
               Tn: 0
               complexity: 0
               alpha: 0.
               node_risk: 0.
               tree_risk: 0.
               tree_error: 0.
      -
         best_tree_idx: -1
         nodes:
            -
               depth: 0
               sample_count: 9406
               value: 2.2209672119873583e-01
               norm_class_idx: 1
               Tn: 0
               complexity: 0
               alpha: 0.
               node_risk: 0.
               tree_risk: 0.
               tree_error: 0.
               splits:
                  - { var:1, quality:5.0622743368148804e-01,
                      le:2.0980194091796875e+02 }
                  - { var:2, quality:4.9392062425613403e-01,
                      le:2.0907424926757812e+02 }
                  - { var:3, quality:4.7870987653732300e-01,
                      le:2.1157641601562500e+02 }
                  - { var:7, quality:4.7848314046859741e-01,
                      gt:1.5601871490478516e+01 }
                  - { var:30, quality:4.6721535921096802e-01,
                      le:2.2442326354980469e+02 }
                  - { var:6, quality:4.6452304720878601e-01,
                      gt:1.1899873733520508e+01 }
                  - { var:5, quality:4.6386063098907471e-01,
                      gt:3.0549325942993164e+00 }
                  - { var:4, quality:4.6386063098907471e-01,
                      gt:3.0549325942993164e+00 }
                  - { var:34, quality:4.6324196457862854e-01,
                      gt:4.3004283905029297e+00 }
                  - { var:33, quality:4.6324196457862854e-01,
                      gt:4.3004283905029297e+00 }
                  - { var:36, quality:4.6294713020324707e-01,
                      gt:5.6073236465454102e+00 }
                  - { var:35, quality:4.6294692158699036e-01,
                      gt:8.4181737899780273e+00 }
                  - { var:31, quality:4.6290406584739685e-01,
                      le:2.4903292846679688e+02 }
                  - { var:32, quality:4.6268862485885620e-01,
                      le:2.5425039672851562e+02 }
            -
               depth: 1
               sample_count: 8804
               value: 2.2209672119873583e-01
               norm_class_idx: 1
               Tn: 0
               complexity: 0
               alpha: 0.
               node_risk: 0.
               tree_risk: 0.
               tree_error: 0.
            -
               depth: 1
               sample_count: 602
               value: -2.2209672119873583e-01
               norm_class_idx: 0
               Tn: 0
               complexity: 0
               alpha: 0.
               node_risk: 0.
               tree_risk: 0.
               tree_error: 0.
      -
         best_tree_idx: -1
         nodes:
            -
               depth: 0
               sample_count: 9276
               value: -1.8502511153909584e-01
               norm_class_idx: 0
               Tn: 0
               complexity: 0
               alpha: 0.
               node_risk: 0.
               tree_risk: 0.
               tree_error: 0.
               splits:
                  - { var:30, quality:5.3731644153594971e-01,
                      le:1.6228536987304688e+02 }
                  - { var:31, quality:5.0038665533065796e-01,
                      le:1.8512274169921875e+02 }
                  - { var:32, quality:4.7660142183303833e-01,
                      le:1.9973907470703125e+02 }
                  - { var:1, quality:4.7206386923789978e-01,
                      le:1.9879220581054688e+02 }
                  - { var:2, quality:4.7197172045707703e-01,
                      le:2.0267758178710938e+02 }
                  - { var:3, quality:4.6463626623153687e-01,
                      le:2.1273294067382812e+02 }
                  - { var:36, quality:4.6417206525802612e-01,
                      gt:1.8710227966308594e+01 }
                  - { var:7, quality:4.5913314819335938e-01,
                      gt:1.3914881706237793e+01 }
                  - { var:43, quality:4.5872378349304199e-01,
                      le:9.9989372491836548e-01 }
                  - { var:44, quality:4.5833450555801392e-01,
                      gt:9.2587448307313025e-05 }
                  - { var:14, quality:4.5743727684020996e-01,
                      le:9.9999243021011353e-01 }
                  - { var:15, quality:4.5636561512947083e-01,
                      gt:7.5328873936086893e-04 }
                  - { var:6, quality:4.5469024777412415e-01,
                      gt:1.1899873733520508e+01 }
                  - { var:5, quality:4.5337760448455811e-01,
                      gt:3.0549325942993164e+00 }
                  - { var:4, quality:4.5337760448455811e-01,
                      gt:3.0549325942993164e+00 }
                  - { var:35, quality:4.5328047871589661e-01,
                      gt:1.0266708374023438e+01 }
                  - { var:18, quality:4.5245236158370972e-01,
                      le:5.0000000000000000e-01 }
                  - { var:34, quality:4.5215052366256714e-01,
                      gt:3.0549325942993164e+00 }
                  - { var:33, quality:4.5215052366256714e-01,
                      gt:3.0549325942993164e+00 }
                  - { var:12, quality:4.5207417011260986e-01,
                      le:8.0663752555847168e-01 }
                  - { var:41, quality:4.5198100805282593e-01,
                      le:9.6055507659912109e-01 }
                  - { var:29, quality:4.5195192098617554e-01,
                      le:2.0617250000000000e+05 }
            -
               depth: 1
               sample_count: 7563
               value: -1.8502511153909584e-01
               norm_class_idx: 0
               Tn: 0
               complexity: 0
               alpha: 0.
               node_risk: 0.
               tree_risk: 0.
               tree_error: 0.
            -
               depth: 1
               sample_count: 1713
               value: 1.8502511153909584e-01
               norm_class_idx: 1
               Tn: 0
               complexity: 0
               alpha: 0.
               node_risk: 0.
               tree_risk: 0.
               tree_error: 0.
      -
         best_tree_idx: -1
         nodes:
            -
               depth: 0
               sample_count: 9335
               value: -6.4985877953721086e-02
               norm_class_idx: 0
               Tn: 0
               complexity: 0
               alpha: 0.
               node_risk: 0.
               tree_risk: 0.
               tree_error: 0.
               splits:
                  - { var:33, quality:5.0745332241058350e-01,
                      le:2.7248794555664062e+02 }
                  - { var:34, quality:5.0745332241058350e-01,
                      le:2.7248794555664062e+02 }
                  - { var:5, quality:4.5973083376884460e-01,
                      le:2.5927536010742188e+02 }
                  - { var:4, quality:4.5973083376884460e-01,
                      le:2.5927536010742188e+02 }
                  - { var:17, quality:3.4211069345474243e-01,
                      gt:9.5000000000000000e+00 }
                  - { var:3, quality:3.4202656149864197e-01,
                      gt:2.2459190368652344e+02 }
                  - { var:12, quality:3.4198781847953796e-01,
                      gt:3.8838750123977661e-01 }
                  - { var:2, quality:3.4191796183586121e-01,
                      gt:2.2354931640625000e+02 }
                  - { var:1, quality:3.4151625633239746e-01,
                      gt:2.2621090698242188e+02 }
                  - { var:6, quality:3.4098786115646362e-01,
                      le:1.1899873733520508e+01 }
                  - { var:22, quality:3.4098070859909058e-01,
                      gt:5.2500000000000000e+01 }
                  - { var:8, quality:3.4098070859909058e-01, gt:74. }
                  - { var:24, quality:3.4088677167892456e-01, gt:14. }
                  - { var:23, quality:3.4088677167892456e-01, gt:22. }
                  - { var:14, quality:3.4041061997413635e-01,
                      le:6.7181792110204697e-04 }
                  - { var:41, quality:3.4029945731163025e-01,
                      gt:5.5913424491882324e-01 }
                  - { var:35, quality:3.4017911553382874e-01,
                      le:1.0894018173217773e+01 }
                  - { var:44, quality:3.3995780348777771e-01,
                      gt:9.4423711299896240e-01 }
                  - { var:7, quality:3.3994501829147339e-01,
                      le:6.2144479751586914e+00 }
                  - { var:30, quality:3.3984509110450745e-01,
                      le:1.2609180450439453e+01 }
                  - { var:15, quality:3.3979994058609009e-01,
                      gt:9.8798894882202148e-01 }
                  - { var:43, quality:3.3943051099777222e-01,
                      le:6.7181792110204697e-04 }
                  - { var:46, quality:3.3932384848594666e-01,
                      gt:9.5000000000000000e+00 }
                  - { var:18, quality:3.3928331732749939e-01,
                      gt:5.0000000000000000e-01 }
                  - { var:31, quality:3.3927446603775024e-01,
                      le:1.2595956802368164e+01 }
                  - { var:11, quality:3.3924984931945801e-01,
                      gt:9.7189307212829590e-01 }
                  - { var:26, quality:3.3922535181045532e-01,
                      gt:5.0000000000000000e-01 }
                  - { var:51, quality:3.3914253115653992e-01, gt:35. }
                  - { var:37, quality:3.3909273147583008e-01, gt:74. }
                  - { var:53, quality:3.3908623456954956e-01,
                      gt:6.5000000000000000e+00 }
                  - { var:52, quality:3.3906906843185425e-01, gt:22. }
                  - { var:36, quality:3.3906492590904236e-01,
                      gt:1.8389762878417969e+02 }
                  - { var:32, quality:3.3904245495796204e-01,
                      gt:2.2538111877441406e+02 }
                  - { var:16, quality:3.3897438645362854e-01,
                      gt:8.6197984218597412e-01 }
                  - { var:27, quality:3.3870804309844971e-01,
                      gt:5.0000000000000000e-01 }
                  - { var:25, quality:3.3869522809982300e-01,
                      gt:5.0000000000000000e-01 }
                  - { var:54, quality:3.3867710828781128e-01,
                      gt:5.0000000000000000e-01 }
                  - { var:56, quality:3.3865258097648621e-01,
                      gt:5.0000000000000000e-01 }
            -
               depth: 1
               sample_count: 3168
               value: 6.4985877953721086e-02
               norm_class_idx: 1
               Tn: 0
               complexity: 0
               alpha: 0.
               node_risk: 0.
               tree_risk: 0.
               tree_error: 0.
            -
               depth: 1
               sample_count: 6167
               value: -6.4985877953721086e-02
               norm_class_idx: 0
               Tn: 0
               complexity: 0
               alpha: 0.
               node_risk: 0.
               tree_risk: 0.
               tree_error: 0.
      -
         best_tree_idx: -1
         nodes:
            -
               depth: 0
               sample_count: 9360
               value: -6.8102754890717557e-02
               norm_class_idx: 0
               Tn: 0
               complexity: 0
               alpha: 0.
               node_risk: 0.
               tree_risk: 0.
               tree_error: 0.
               splits:
                  - { var:9, quality:5.0473016500473022e-01,
                      le:1.0199420154094696e-01 }
                  - { var:6, quality:4.2785745859146118e-01,
                      gt:7.1813125610351562e+01 }
                  - { var:38, quality:3.8666203618049622e-01,
                      le:1.9029642641544342e-01 }
                  - { var:35, quality:3.7655383348464966e-01,
                      gt:6.7705177307128906e+01 }
                  - { var:10, quality:3.7278518080711365e-01,
                      gt:5.9869861602783203e-01 }
                  - { var:7, quality:3.4027656912803650e-01,
                      gt:5.5890830993652344e+01 }
                  - { var:12, quality:3.3553797006607056e-01,
                      le:1.9633641932159662e-03 }
                  - { var:14, quality:3.3207559585571289e-01,
                      le:8.6625671386718750e-01 }
                  - { var:16, quality:3.2799175381660461e-01,
                      gt:8.2844328135251999e-03 }
                  - { var:39, quality:3.2786303758621216e-01,
                      gt:6.0113614797592163e-01 }
                  - { var:15, quality:3.2723054289817810e-01,
                      gt:1.2055891752243042e-01 }
                  - { var:36, quality:3.2414308190345764e-01,
                      gt:5.9300254821777344e+01 }
                  - { var:11, quality:3.2198053598403931e-01,
                      gt:2.7410835027694702e-01 }
                  - { var:1, quality:3.2087948918342590e-01,
                      le:1.1798627471923828e+02 }
                  - { var:43, quality:3.1974256038665771e-01,
                      le:6.7976468801498413e-01 }
                  - { var:44, quality:3.1845772266387939e-01,
                      gt:1.0437150299549103e-01 }
                  - { var:45, quality:3.1657320261001587e-01,
                      gt:2.7004531584680080e-03 }
                  - { var:40, quality:3.0332899093627930e-01,
                      gt:1.5482708811759949e-01 }
                  - { var:30, quality:3.0024656653404236e-01,
                      le:1.3498793029785156e+02 }
                  - { var:41, quality:2.9136973619461060e-01,
                      le:8.8553802925162017e-05 }
                  - { var:2, quality:2.8664395213127136e-01,
                      le:1.8331758117675781e+02 }
                  - { var:3, quality:2.8237071633338928e-01,
                      gt:7.9237579345703125e+01 }
                  - { var:5, quality:2.7567100524902344e-01,
                      le:4.6218469238281250e+02 }
                  - { var:4, quality:2.7567100524902344e-01,
                      le:4.6218469238281250e+02 }
                  - { var:34, quality:2.7386534214019775e-01,
                      le:4.2011389160156250e+02 }
                  - { var:33, quality:2.7386534214019775e-01,
                      le:4.2011389160156250e+02 }
                  - { var:31, quality:2.7384290099143982e-01,
                      le:1.8385194396972656e+02 }
                  - { var:32, quality:2.7310582995414734e-01,
                      gt:1.2253193664550781e+02 }
                  - { var:0, quality:2.6806116104125977e-01,
                      gt:8.5435000000000000e+03 }
                  - { var:22, quality:2.6644438505172729e-01,
                      le:5.0000000000000000e-01 }
                  - { var:8, quality:2.6452240347862244e-01,
                      le:5.0000000000000000e-01 }
                  - { var:29, quality:2.6359644532203674e-01,
                      gt:1.8450000000000000e+02 }
                  - { var:52, quality:2.6277860999107361e-01,
                      le:5.0000000000000000e-01 }
                  - { var:37, quality:2.6209449768066406e-01,
                      le:8.5000000000000000e+00 }
                  - { var:51, quality:2.6134794950485229e-01,
                      le:7.5000000000000000e+00 }
                  - { var:17, quality:2.6112940907478333e-01,
                      le:7.5000000000000000e+00 }
                  - { var:23, quality:2.5950184464454651e-01,
                      gt:1.5000000000000000e+00 }
                  - { var:46, quality:2.5846129655838013e-01,
                      le:4.5000000000000000e+00 }
                  - { var:53, quality:2.5767147541046143e-01,
                      le:5.0000000000000000e-01 }
                  - { var:25, quality:2.5751987099647522e-01,
                      le:2.5000000000000000e+00 }
            -
               depth: 1
               sample_count: 4838
               value: -6.8102754890717557e-02
               norm_class_idx: 0
               Tn: 0
               complexity: 0
               alpha: 0.
               node_risk: 0.
               tree_risk: 0.
               tree_error: 0.
            -
               depth: 1
               sample_count: 4522
               value: 6.8102754890717557e-02
               norm_class_idx: 1
               Tn: 0
               complexity: 0
               alpha: 0.
               node_risk: 0.
               tree_risk: 0.
               tree_error: 0.
      -
         best_tree_idx: -1
         nodes:
            -
               depth: 0
               sample_count: 9381
               value: 1.2441267368028201e-01
               norm_class_idx: 1
               Tn: 0
               complexity: 0
               alpha: 0.
               node_risk: 0.
               tree_risk: 0.
               tree_error: 0.
               splits:
                  - { var:40, quality:5.0457006692886353e-01,
                      le:1.0828724503517151e-01 }
                  - { var:35, quality:4.2284104228019714e-01,
                      le:9.3017532348632812e+01 }
                  - { var:11, quality:3.8338309526443481e-01,
                      le:1.3161733746528625e-01 }
                  - { var:6, quality:3.7610584497451782e-01,
                      le:9.1583114624023438e+01 }
                  - { var:39, quality:3.3753773570060730e-01,
                      gt:7.3716098070144653e-01 }
                  - { var:41, quality:3.3290687203407288e-01,
                      le:1.0521014221012592e-02 }
                  - { var:38, quality:3.2945907115936279e-01,
                      gt:4.7501367330551147e-01 }
                  - { var:2, quality:3.1659519672393799e-01,
                      gt:8.1963256835937500e+01 }
                  - { var:12, quality:3.1633284687995911e-01,
                      le:2.3256011307239532e-02 }
                  - { var:31, quality:3.1263270974159241e-01,
                      gt:8.0715759277343750e+01 }
                  - { var:9, quality:3.0997985601425171e-01,
                      gt:3.3541259169578552e-01 }
                  - { var:10, quality:3.0886271595954895e-01,
                      gt:1.5234100818634033e-01 }
                  - { var:45, quality:2.9877981543540955e-01,
                      le:2.9165910091251135e-03 }
                  - { var:46, quality:2.9376947879791260e-01,
                      le:5.0000000000000000e-01 }
                  - { var:16, quality:2.9063048958778381e-01,
                      le:4.0442109107971191e-02 }
                  - { var:1, quality:2.9005169868469238e-01,
                      gt:4.3263900756835938e+01 }
                  - { var:0, quality:2.8845238685607910e-01,
                      gt:1.9050000000000000e+02 }
                  - { var:30, quality:2.8790283203125000e-01,
                      gt:5.7856674194335938e+01 }
                  - { var:7, quality:2.8721323609352112e-01,
                      le:1.8366998291015625e+02 }
                  - { var:36, quality:2.8665521740913391e-01,
                      le:1.8396978759765625e+02 }
                  - { var:14, quality:2.8583082556724548e-01,
                      gt:1.1655360460281372e-02 }
                  - { var:3, quality:2.8466913104057312e-01,
                      gt:3.1803098678588867e+01 }
                  - { var:51, quality:2.8466844558715820e-01,
                      le:1.5000000000000000e+00 }
                  - { var:32, quality:2.8437134623527527e-01,
                      le:2.1978546142578125e+02 }
                  - { var:27, quality:2.8356581926345825e-01,
                      le:5.0000000000000000e-01 }
                  - { var:37, quality:2.8350722789764404e-01,
                      le:3.5000000000000000e+00 }
                  - { var:54, quality:2.8348591923713684e-01,
                      le:5.0000000000000000e-01 }
                  - { var:34, quality:2.8346690535545349e-01,
                      gt:6.3465442657470703e+00 }
                  - { var:33, quality:2.8346690535545349e-01,
                      gt:6.3465442657470703e+00 }
                  - { var:26, quality:2.8343594074249268e-01,
                      le:5.0000000000000000e-01 }
                  - { var:15, quality:2.8336784243583679e-01,
                      le:9.9138081073760986e-01 }
                  - { var:29, quality:2.8333008289337158e-01,
                      gt:1.0450000000000000e+02 }
                  - { var:55, quality:2.8325021266937256e-01,
                      le:5.0000000000000000e-01 }
                  - { var:56, quality:2.8283724188804626e-01,
                      le:5.0000000000000000e-01 }
                  - { var:5, quality:2.8281396627426147e-01,
                      le:1.0247318115234375e+03 }
                  - { var:4, quality:2.8281396627426147e-01,
                      le:1.0247318115234375e+03 }
                  - { var:24, quality:2.8278025984764099e-01,
                      le:2.3500000000000000e+01 }
                  - { var:23, quality:2.8278025984764099e-01, le:49. }
                  - { var:22, quality:2.8278025984764099e-01,
                      le:1.9450000000000000e+02 }
                  - { var:8, quality:2.8278025984764099e-01, le:310. }
                  - { var:25, quality:2.8264144062995911e-01,
                      le:5.0000000000000000e-01 }
                  - { var:44, quality:2.8248351812362671e-01,
                      le:9.9963778257369995e-01 }
                  - { var:53, quality:2.8246727585792542e-01,
                      le:2.3500000000000000e+01 }
                  - { var:52, quality:2.8246727585792542e-01, le:49. }
            -
               depth: 1
               sample_count: 5031
               value: -1.2441267368028201e-01
               norm_class_idx: 0
               Tn: 0
               complexity: 0
               alpha: 0.
               node_risk: 0.
               tree_risk: 0.
               tree_error: 0.
            -
               depth: 1
               sample_count: 4350
               value: 1.2441267368028201e-01
               norm_class_idx: 1
               Tn: 0
               complexity: 0
               alpha: 0.
               node_risk: 0.
               tree_risk: 0.
               tree_error: 0.
      -
         best_tree_idx: -1
         nodes:
            -
               depth: 0
               sample_count: 9370
               value: 1.4166735054166593e-01
               norm_class_idx: 1
               Tn: 0
               complexity: 0
               alpha: 0.
               node_risk: 0.
               tree_risk: 0.
               tree_error: 0.
               splits:
                  - { var:11, quality:5.1508551836013794e-01,
                      le:2.6094287633895874e-01 }
                  - { var:6, quality:4.6418982744216919e-01,
                      le:9.3049713134765625e+01 }
                  - { var:40, quality:4.0344581007957458e-01,
                      le:3.1791442632675171e-01 }
                  - { var:35, quality:4.0205287933349609e-01,
                      le:9.9930496215820312e+01 }
                  - { var:12, quality:3.5705116391181946e-01,
                      le:1.7867784947156906e-02 }
                  - { var:2, quality:3.4741687774658203e-01,
                      gt:8.1760078430175781e+01 }
                  - { var:31, quality:3.3954337239265442e-01,
                      gt:5.3060104370117188e+01 }
                  - { var:41, quality:3.3841255307197571e-01,
                      le:1.6823485493659973e-01 }
                  - { var:9, quality:3.3830493688583374e-01,
                      gt:4.1595289076212794e-05 }
                  - { var:45, quality:3.3730822801589966e-01,
                      le:5.9621071815490723e-01 }
                  - { var:36, quality:3.3533361554145813e-01,
                      le:1.8396978759765625e+02 }
                  - { var:16, quality:3.3512142300605774e-01,
                      le:6.6078650951385498e-01 }
                  - { var:7, quality:3.3476334810256958e-01,
                      le:1.8392245483398438e+02 }
                  - { var:10, quality:3.3463370800018311e-01,
                      gt:6.6225445270538330e-01 }
                  - { var:27, quality:3.3411237597465515e-01,
                      le:5.0000000000000000e-01 }
                  - { var:38, quality:3.3392256498336792e-01,
                      gt:2.3146154126152396e-04 }
                  - { var:39, quality:3.3373391628265381e-01,
                      gt:4.3193222954869270e-03 }
                  - { var:25, quality:3.3352625370025635e-01,
                      le:5.0000000000000000e-01 }
                  - { var:14, quality:3.3251422643661499e-01,
                      gt:1.0204199701547623e-02 }
                  - { var:0, quality:3.3238396048545837e-01,
                      gt:1.0550000000000000e+02 }
                  - { var:1, quality:3.3172562718391418e-01,
                      gt:1.8533679962158203e+01 }
                  - { var:26, quality:3.3157339692115784e-01,
                      le:5.0000000000000000e-01 }
                  - { var:44, quality:3.3141127228736877e-01,
                      le:9.9963778257369995e-01 }
                  - { var:43, quality:3.3136099576950073e-01,
                      gt:4.1178622632287443e-04 }
                  - { var:15, quality:3.3129546046257019e-01,
                      le:9.9138081073760986e-01 }
                  - { var:30, quality:3.3117386698722839e-01,
                      gt:1.5797116279602051e+01 }
                  - { var:22, quality:3.3112934231758118e-01, le:35. }
                  - { var:55, quality:3.3110919594764709e-01,
                      le:5.0000000000000000e-01 }
                  - { var:24, quality:3.3101212978363037e-01,
                      le:2.3500000000000000e+01 }
                  - { var:23, quality:3.3101212978363037e-01, le:49. }
                  - { var:8, quality:3.3101212978363037e-01, le:310. }
                  - { var:54, quality:3.3078518509864807e-01,
                      le:5.0000000000000000e-01 }
                  - { var:29, quality:3.3068701624870300e-01,
                      le:1.4451250000000000e+05 }
                  - { var:56, quality:3.3068147301673889e-01,
                      le:5.0000000000000000e-01 }
                  - { var:3, quality:3.3045205473899841e-01,
                      gt:6.7651157379150391e+00 }
            -
               depth: 1
               sample_count: 6188
               value: 1.4166735054166593e-01
               norm_class_idx: 1
               Tn: 0
               complexity: 0
               alpha: 0.
               node_risk: 0.
               tree_risk: 0.
               tree_error: 0.
            -
               depth: 1
               sample_count: 3182
               value: -1.4166735054166593e-01
               norm_class_idx: 0
               Tn: 0
               complexity: 0
               alpha: 0.
               node_risk: 0.
               tree_risk: 0.
               tree_error: 0.
      -
         best_tree_idx: -1
         nodes:
            -
               depth: 0
               sample_count: 9371
               value: -4.7292239016485493e-02
               norm_class_idx: 0
               Tn: 0
               complexity: 0
               alpha: 0.
               node_risk: 0.
               tree_risk: 0.
               tree_error: 0.
               splits:
                  - { var:12, quality:5.0742781162261963e-01,
                      le:2.4865318089723587e-02 }
                  - { var:6, quality:3.9752519130706787e-01,
                      le:1.1474353027343750e+02 }
                  - { var:41, quality:3.9556708931922913e-01,
                      le:8.4378063678741455e-02 }
                  - { var:35, quality:3.8948473334312439e-01,
                      le:1.2240034484863281e+02 }
                  - { var:27, quality:3.8160380721092224e-01,
                      le:5.0000000000000000e-01 }
                  - { var:7, quality:3.8033765554428101e-01,
                      gt:1.1431407928466797e+01 }
                  - { var:25, quality:3.8015791773796082e-01,
                      le:5.0000000000000000e-01 }
                  - { var:3, quality:3.7967783212661743e-01,
                      gt:2.7235769271850586e+01 }
                  - { var:2, quality:3.7923833727836609e-01,
                      gt:1.2734405517578125e+01 }
                  - { var:31, quality:3.7917056679725647e-01,
                      gt:1.6710849761962891e+01 }
                  - { var:26, quality:3.7911847233772278e-01,
                      le:5.0000000000000000e-01 }
                  - { var:22, quality:3.7885442376136780e-01, le:35. }
                  - { var:32, quality:3.7877976894378662e-01,
                      gt:1.5788493156433105e+01 }
                  - { var:24, quality:3.7874960899353027e-01,
                      le:2.3500000000000000e+01 }
                  - { var:23, quality:3.7874960899353027e-01, le:49. }
                  - { var:8, quality:3.7874960899353027e-01, le:310. }
                  - { var:55, quality:3.7862500548362732e-01,
                      le:5.0000000000000000e-01 }
                  - { var:36, quality:3.7847146391868591e-01,
                      gt:1.4017641067504883e+01 }
                  - { var:29, quality:3.7828400731086731e-01, le:263633. }
                  - { var:56, quality:3.7825816869735718e-01,
                      le:5.0000000000000000e-01 }
                  - { var:46, quality:3.7825459241867065e-01, le:37. }
                  - { var:30, quality:3.7820431590080261e-01,
                      le:2.5442587280273438e+02 }
                  - { var:53, quality:3.7818983197212219e-01,
                      le:2.3500000000000000e+01 }
                  - { var:52, quality:3.7818983197212219e-01, le:49. }
                  - { var:51, quality:3.7818983197212219e-01,
                      le:1.9450000000000000e+02 }
                  - { var:37, quality:3.7818983197212219e-01, le:310. }
            -
               depth: 1
               sample_count: 6906
               value: -4.7292239016485493e-02
               norm_class_idx: 0
               Tn: 0
               complexity: 0
               alpha: 0.
               node_risk: 0.
               tree_risk: 0.
               tree_error: 0.
            -
               depth: 1
               sample_count: 2465
               value: 4.7292239016485493e-02
               norm_class_idx: 1
               Tn: 0
               complexity: 0
               alpha: 0.
               node_risk: 0.
               tree_risk: 0.
               tree_error: 0.
      -
         best_tree_idx: -1
         nodes:
            -
               depth: 0
               sample_count: 9395
               value: 1.0514779506474818e-01
               norm_class_idx: 1
               Tn: 0
               complexity: 0
               alpha: 0.
               node_risk: 0.
               tree_risk: 0.
               tree_error: 0.
               splits:
                  - { var:44, quality:5.0342994928359985e-01,
                      le:1.3279519975185394e-01 }
                  - { var:43, quality:4.8878917098045349e-01,
                      gt:8.5040485858917236e-01 }
                  - { var:36, quality:4.6619465947151184e-01,
                      le:5.8380432128906250e+01 }
                  - { var:45, quality:4.0551003813743591e-01,
                      le:3.5539823584258556e-03 }
                  - { var:7, quality:3.8087800145149231e-01,
                      le:5.6791759490966797e+01 }
                  - { var:14, quality:3.8026708364486694e-01,
                      gt:7.0104193687438965e-01 }
                  - { var:30, quality:3.7759533524513245e-01,
                      gt:1.1415876770019531e+02 }
                  - { var:15, quality:3.7680912017822266e-01,
                      le:2.1583124995231628e-01 }
                  - { var:16, quality:3.5439077019691467e-01,
                      le:1.5405218582600355e-03 }
                  - { var:1, quality:3.4303146600723267e-01,
                      gt:1.2334597778320312e+02 }
                  - { var:31, quality:3.3898225426673889e-01,
                      gt:1.3818640136718750e+02 }
                  - { var:32, quality:3.3716166019439697e-01,
                      gt:1.3789830017089844e+02 }
                  - { var:38, quality:3.3338442444801331e-01,
                      gt:2.9071909189224243e-01 }
                  - { var:35, quality:3.2846781611442566e-01,
                      le:6.3928443908691406e+01 }
                  - { var:9, quality:3.1707966327667236e-01,
                      gt:2.6387178897857666e-01 }
                  - { var:6, quality:3.1268489360809326e-01,
                      le:6.7748657226562500e+01 }
                  - { var:2, quality:3.1176868081092834e-01,
                      gt:1.3783955383300781e+02 }
                  - { var:3, quality:3.0848592519760132e-01,
                      gt:1.7030877685546875e+02 }
                  - { var:39, quality:3.0819314718246460e-01,
                      le:5.5714195966720581e-01 }
                  - { var:10, quality:2.9926347732543945e-01,
                      le:3.9145660400390625e-01 }
                  - { var:41, quality:2.9535895586013794e-01,
                      gt:2.6316517032682896e-03 }
                  - { var:12, quality:2.9319319128990173e-01,
                      gt:1.0544848628342152e-03 }
                  - { var:22, quality:2.7872306108474731e-01,
                      gt:1.7500000000000000e+01 }
                  - { var:29, quality:2.7662065625190735e-01,
                      le:1.4750000000000000e+02 }
                  - { var:23, quality:2.7610445022583008e-01,
                      gt:9.5000000000000000e+00 }
                  - { var:51, quality:2.7608382701873779e-01,
                      gt:5.5000000000000000e+00 }
                  - { var:8, quality:2.7499085664749146e-01,
                      gt:3.5500000000000000e+01 }
                  - { var:17, quality:2.7431172132492065e-01,
                      gt:2.5000000000000000e+00 }
                  - { var:37, quality:2.7409690618515015e-01,
                      gt:7.5000000000000000e+00 }
                  - { var:5, quality:2.7337664365768433e-01,
                      le:1.8060337066650391e+01 }
                  - { var:4, quality:2.7337664365768433e-01,
                      le:1.8060337066650391e+01 }
                  - { var:24, quality:2.7318859100341797e-01,
                      gt:1.0500000000000000e+01 }
                  - { var:0, quality:2.7273771166801453e-01,
                      le:1.4850000000000000e+02 }
                  - { var:46, quality:2.7270564436912537e-01,
                      gt:4.5000000000000000e+00 }
                  - { var:34, quality:2.7267694473266602e-01,
                      le:7.8274017333984375e+01 }
                  - { var:33, quality:2.7267694473266602e-01,
                      le:7.8274017333984375e+01 }
                  - { var:40, quality:2.7216574549674988e-01,
                      gt:9.9919366836547852e-01 }
                  - { var:52, quality:2.7211055159568787e-01,
                      gt:3.5000000000000000e+00 }
                  - { var:54, quality:2.7156403660774231e-01,
                      gt:2.5000000000000000e+00 }
                  - { var:25, quality:2.7151426672935486e-01,
                      gt:2.5000000000000000e+00 }
            -
               depth: 1
               sample_count: 4186
               value: -1.0514779506474818e-01
               norm_class_idx: 0
               Tn: 0
               complexity: 0
               alpha: 0.
               node_risk: 0.
               tree_risk: 0.
               tree_error: 0.
            -
               depth: 1
               sample_count: 5209
               value: 1.0514779506474818e-01
               norm_class_idx: 1
               Tn: 0
               complexity: 0
               alpha: 0.
               node_risk: 0.
               tree_risk: 0.
               tree_error: 0.
      -
         best_tree_idx: -1
         nodes:
            -
               depth: 0
               sample_count: 9394
               value: -9.6117830052374897e-02
               norm_class_idx: 0
               Tn: 0
               complexity: 0
               alpha: 0.
               node_risk: 0.
               tree_risk: 0.
               tree_error: 0.
               splits:
                  - { var:16, quality:5.0585305690765381e-01,
                      le:5.0312071107327938e-04 }
                  - { var:14, quality:4.3840920925140381e-01,
                      gt:9.5108938217163086e-01 }
                  - { var:15, quality:4.3554979562759399e-01,
                      le:3.8213972002267838e-02 }
                  - { var:1, quality:4.2270725965499878e-01,
                      gt:1.3097782897949219e+02 }
                  - { var:7, quality:4.1301190853118896e-01,
                      le:5.3637317657470703e+01 }
                  - { var:2, quality:3.9748087525367737e-01,
                      gt:1.5707940673828125e+02 }
                  - { var:3, quality:3.8911312818527222e-01,
                      gt:1.6653747558593750e+02 }
                  - { var:30, quality:3.8104000687599182e-01,
                      gt:1.4797772216796875e+02 }
                  - { var:43, quality:3.7245273590087891e-01,
                      gt:9.3977200984954834e-01 }
                  - { var:36, quality:3.7197521328926086e-01,
                      le:4.1370353698730469e+01 }
                  - { var:44, quality:3.7054231762886047e-01,
                      le:4.5415628701448441e-02 }
                  - { var:6, quality:3.6818850040435791e-01,
                      le:2.9193273544311523e+01 }
                  - { var:9, quality:3.6805862188339233e-01,
                      gt:8.4713697433471680e-01 }
                  - { var:31, quality:3.6663809418678284e-01,
                      gt:1.8556338500976562e+02 }
                  - { var:45, quality:3.6608117818832397e-01,
                      le:6.3883885559334885e-06 }
                  - { var:10, quality:3.5701203346252441e-01,
                      le:5.4869125597178936e-04 }
                  - { var:32, quality:3.5410889983177185e-01,
                      gt:1.9245208740234375e+02 }
                  - { var:35, quality:3.4791919589042664e-01,
                      le:4.1038352966308594e+01 }
                  - { var:38, quality:3.4681317210197449e-01,
                      gt:9.7386848926544189e-01 }
                  - { var:5, quality:3.4342193603515625e-01,
                      le:2.3863388061523438e+01 }
                  - { var:4, quality:3.4342193603515625e-01,
                      le:2.3863388061523438e+01 }
                  - { var:12, quality:3.4262228012084961e-01,
                      gt:3.3569973707199097e-01 }
                  - { var:34, quality:3.4260952472686768e-01,
                      le:4.8440217971801758e+00 }
                  - { var:33, quality:3.4260952472686768e-01,
                      le:4.8440217971801758e+00 }
                  - { var:51, quality:3.4244292974472046e-01,
                      gt:1.6500000000000000e+01 }
                  - { var:37, quality:3.4206965565681458e-01,
                      gt:3.9500000000000000e+01 }
                  - { var:52, quality:3.4187301993370056e-01,
                      gt:3.5000000000000000e+00 }
                  - { var:0, quality:3.4185338020324707e-01,
                      le:1.0150000000000000e+02 }
                  - { var:41, quality:3.4178912639617920e-01,
                      gt:9.2203503847122192e-01 }
                  - { var:46, quality:3.4169152379035950e-01,
                      gt:4.5000000000000000e+00 }
                  - { var:29, quality:3.4160810708999634e-01,
