<?xml version="1.0"?>
<opencv_storage>
<region type_id="opencv-ml-svm">
  <svm_type>C_SVC</svm_type>
  <kernel><type>RBF</type>
    <gamma>1.</gamma></kernel>
  <C>1.</C>
  <term_criteria><epsilon>1.1920928955078125e-07</epsilon>
    <iterations>1000</iterations></term_criteria>
  <var_all>29</var_all>
  <var_count>29</var_count>
  <class_count>4</class_count>
  <class_labels type_id="opencv-matrix">
    <rows>1</rows>
    <cols>4</cols>
    <dt>i</dt>
    <data>
      0 1 2 3</data></class_labels>
  <sv_total>2095</sv_total>
  <support_vectors>
    <_>
      7942. 1.28320953e+02 1.28275375e+02 1.23531349e+02 3.05537781e+02
      3.05537781e+02 4.20390320e+01 2.43646431e+01 0. 6.46940291e-01
      3.25610667e-01 5.66607900e-03 2.17829254e-02 0. 9.50893998e-01
      4.75950651e-02 1.51095446e-03 .Nan .Nan .Nan .Nan .Nan .Nan .Nan
      .Nan .Nan .Nan .Nan .Nan</_>
    <_>
      8520. 5.94868546e+01 5.68690147e+01 4.89967117e+01 4.82420319e+02
      4.82420319e+02 3.15838032e+01 4.94639664e+01 0. 9.19366181e-01
      3.07511743e-02 4.88262922e-02 1.05633808e-03 0. 9.28403735e-01
      7.07746446e-02 8.21596244e-04 .Nan .Nan .Nan .Nan .Nan .Nan .Nan
      .Nan .Nan .Nan .Nan .Nan</_>
    <_>
      2662. 1.28481216e+02 1.30994370e+02 1.32835083e+02 3.84802032e+02
      3.84802032e+02 6.75007477e+01 2.71085644e+01 0. 4.74455297e-01
      1.73178062e-01 3.02779853e-01 4.95867766e-02 0. 9.92111206e-01
      7.13749044e-03 7.51314801e-04 .Nan .Nan .Nan .Nan .Nan .Nan .Nan
      .Nan .Nan .Nan .Nan .Nan</_>
    <_>
      16307. 5.01347885e+01 4.48178101e+01 1.26626297e+02 7.19830994e+02
      7.19830994e+02 1.01893852e+02 1.57754898e+02 0. 1.58520877e-01
      8.57913792e-02 7.30913103e-01 2.47746371e-02 0. 2.03041643e-01
      2.66756594e-01 5.30201733e-01 .Nan .Nan .Nan .Nan .Nan .Nan .Nan
      .Nan .Nan .Nan .Nan .Nan</_>
    <_>
      2545. 3.20212173e+01 2.83072701e+01 1.43692734e+02 5.89015747e+02
      5.89015747e+02 1.20068764e+02 2.05449905e+02 0. 2.08251476e-02
      3.14341858e-03 9.57956791e-01 1.80746559e-02 0. 4.59724963e-02
      9.39096287e-02 8.60117853e-01 .Nan .Nan .Nan .Nan .Nan .Nan .Nan
      .Nan .Nan .Nan .Nan .Nan</_>
    <_>
      9305. 2.09114456e+01 6.82495422e+01 3.92278328e+01 2.94106079e+02
      2.94106079e+02 7.00981216e+01 1.82535309e+02 0. 1.11767864e-02
      9.88715768e-01 1.07469103e-04 0. 0. 1.17141325e-02 3.32401931e-01
      6.55883908e-01 .Nan .Nan .Nan .Nan .Nan .Nan .Nan .Nan .Nan .Nan
      .Nan .Nan</_>
    <_>
      7852. 8.26991882e+01 8.68669128e+01 9.36944733e+01 1.22603920e+02
      1.22603920e+02 1.02383087e+02 3.56556282e+01 0. 1.28629645e-02
      5.52598059e-01 4.31100368e-01 3.43861431e-03 0. 9.54788566e-01
      4.52114120e-02 0. .Nan .Nan .Nan .Nan .Nan .Nan .Nan .Nan .Nan
      .Nan .Nan .Nan</_>
    <_>
      589. 9.75959244e+01 1.27993210e+02 9.67351456e+01 6.33921890e+01
      6.33921890e+01 6.63820038e+01 9.23242798e+01 0. 3.24278444e-01
      5.84040761e-01 8.82852301e-02 3.39558581e-03 0. 5.82342982e-01
      2.08828524e-01 2.08828524e-01 .Nan .Nan .Nan .Nan .Nan .Nan .Nan
      .Nan .Nan .Nan .Nan .Nan</_>
    <_>
      2155. 6.91675186e+01 1.01983292e+02 7.38143845e+01 6.44793472e+01
      6.44793472e+01 7.56853790e+01 1.03362411e+02 0. 2.41299309e-02
      9.30394411e-01 4.50116023e-02 4.64037119e-04 0. 5.89791179e-01
      6.17169365e-02 3.48491877e-01 .Nan .Nan .Nan .Nan .Nan .Nan .Nan
      .Nan .Nan .Nan .Nan .Nan</_>
    <_>
      116. 8.34913788e+01 8.48793106e+01 4.37155190e+01 2.93775848e+02
      2.93775848e+02 3.10344830e+01 1.36318970e+02 0. 1. 0. 0. 0. 0.
      1.29310340e-01 7.06896544e-01 1.63793102e-01 .Nan .Nan .Nan .Nan
      .Nan .Nan .Nan .Nan .Nan .Nan .Nan .Nan</_>
    <_>
      19948. 4.18734207e+01 4.35853729e+01 5.20231590e+01 5.10404541e+02
      5.10404541e+02 9.32175674e+01 8.19694672e+01 0. 2.11449772e-01
      4.05053124e-02 7.29747355e-01 1.82975736e-02 0. 6.40966535e-01
      2.88349718e-01 7.06837773e-02 .Nan .Nan .Nan .Nan .Nan .Nan .Nan
      .Nan .Nan .Nan .Nan .Nan</_>
    <_>
      107. 8.88785076e+00 5.17850456e+01 4.67102814e+01 64. 64.
      8.62710266e+01 2.23560745e+02 0. 0. 1. 0. 0. 0. 0. 1.12149529e-01
      8.87850463e-01 .Nan .Nan .Nan .Nan .Nan .Nan .Nan .Nan .Nan .Nan
      .Nan .Nan</_>
    <_>
      110. 1.05199997e+02 1.14354546e+02 1.03318184e+02 4.61500000e+02
      4.61500000e+02 54. 2.96000004e+01 0. 3.36363643e-01 6.63636386e-01
      0. 0. 0. 1. 0. 0. .Nan .Nan .Nan .Nan .Nan .Nan .Nan .Nan .Nan
      .Nan .Nan .Nan</_>
    <_>
      4667. 1.14190483e+02 1.15212128e+02 1.16367905e+02 4.74246826e+02
      4.74246826e+02 6.25048218e+01 1.88540821e+01 0. 5.11892021e-01
      1.34990364e-01 3.15406054e-01 3.77115905e-02 0. 9.99357164e-01
      6.42811239e-04 0. .Nan .Nan .Nan .Nan .Nan .Nan .Nan .Nan .Nan
      .Nan .Nan .Nan</_>
    <_>
      4565. 1.12294853e+02 1.09571739e+02 1.07327057e+02 5.71849060e+02
      5.71849060e+02 3.42251930e+01 1.87115002e+01 0. 8.24753582e-01
      4.60021906e-02 9.00328606e-02 3.92113924e-02 0. 9.99123752e-01
      8.76232225e-04 0. .Nan .Nan .Nan .Nan .Nan .Nan .Nan .Nan .Nan
      .Nan .Nan .Nan</_>
    <_>
      1670. 9.82419128e+01 9.24520950e+01 8.65455093e+01 3.60698212e+02
      3.60698212e+02 4.30796394e+01 3.39035912e+01 0. 8.00000012e-01
      2.09580846e-02 4.37125750e-02 1.35329336e-01 0. 9.88023937e-01
      1.19760484e-02 0. .Nan .Nan .Nan .Nan .Nan .Nan .Nan .Nan .Nan
      .Nan .Nan .Nan</_>
    <_>
      1963. 1.32514511e+02 1.38709122e+02 1.39730515e+02 7.62193604e+02
      7.62193604e+02 6.34926147e+01 2.51349983e+01 0. 4.14671421e-01
      4.95669901e-01 7.94702023e-02 1.01884874e-02 0. 9.56698954e-01
      4.33010682e-02 0. .Nan .Nan .Nan .Nan .Nan .Nan .Nan .Nan .Nan
      .Nan .Nan .Nan</_>
    <_>
      168. 6.65714264e+01 6.17142868e+01 5.05178566e+01 2.95684509e+02
      2.95684509e+02 2.15178566e+01 6.34523811e+01 0. 1. 0. 0. 0. 0.
      8.98809552e-01 1.01190478e-01 0. .Nan .Nan .Nan .Nan .Nan .Nan
      .Nan .Nan .Nan .Nan .Nan .Nan</_>
    <_>
      902. 8.75543213e+01 9.05099792e+01 9.01674042e+01 5.87062073e+01
      5.87062073e+01 6.96629715e+01 2.49512196e+01 0. 4.25720632e-01
      3.10421288e-01 2.56097555e-01 7.76053220e-03 0. 9.87804890e-01
      1.10864742e-02 1.10864744e-03 .Nan .Nan .Nan .Nan .Nan .Nan .Nan
      .Nan .Nan .Nan .Nan .Nan</_>
    <_>
      293. 1.20948807e+02 1.22255974e+02 1.21365189e+02 5.53484619e+02
      5.53484619e+02 6.73139954e+01 2.83276443e+01 0. 5.15358388e-01
      7.16723576e-02 3.51535827e-01 6.14334457e-02 0. 9.79522169e-01
      2.04778165e-02 0. .Nan .Nan .Nan .Nan .Nan .Nan .Nan .Nan .Nan
      .Nan .Nan .Nan</_>
    <_>
      50140. 1.46408829e+02 1.48915695e+02 1.48811920e+02 4.35830048e+02
      4.35830048e+02 7.07459717e+01 8.57616711e+00 0. 3.23035508e-01
      5.57060242e-01 1.07538894e-01 1.23653766e-02 0. 9.99680877e-01
      2.79218191e-04 3.98883130e-05 .Nan .Nan .Nan .Nan .Nan .Nan .Nan
      .Nan .Nan .Nan .Nan .Nan</_>
    <_>
      1856. 7.92774811e+01 7.98221970e+01 7.64946136e+01 1.62946655e+02
      1.62946655e+02 5.52257538e+01 3.68997841e+01 0. 6.17456913e-01
      1.72413796e-01 1.98275864e-01 1.18534481e-02 0. 9.22952592e-01
      6.73491359e-02 9.69827548e-03 .Nan .Nan .Nan .Nan .Nan .Nan .Nan
      .Nan .Nan .Nan .Nan .Nan</_>
    <_>
      435. 9.36988525e+01 8.84965515e+01 8.36482773e+01 2.69036774e+02
      2.69036774e+02 3.79747124e+01 3.56597710e+01 0. 7.44827569e-01
      1.05747126e-01 1.37931034e-01 1.14942528e-02 0. 1. 0. 0. .Nan .Nan
      .Nan .Nan .Nan .Nan .Nan .Nan .Nan .Nan .Nan .Nan</_>
    <_>
      9251. 1.57703171e+02 1.58101501e+02 1.57909851e+02 3.98941101e+02
      3.98941101e+02 6.32926178e+01 7.99254131e+00 0. 4.89028215e-01
      3.20830166e-01 1.00637771e-01 8.95038396e-02 0. 1. 0. 0. .Nan .Nan
      .Nan .Nan .Nan .Nan .Nan .Nan .Nan .Nan .Nan .Nan</_>
    <_>
      668. 1.41785934e+02 1.49345810e+02 1.57667664e+02 5.77374268e+02
      5.77374268e+02 9.99535904e+01 2.85883236e+01 0. 7.48502985e-02
      1.66167662e-01 7.51497030e-01 7.48502975e-03 0. 9.82035935e-01
      1.79640725e-02 0. .Nan .Nan .Nan .Nan .Nan .Nan .Nan .Nan .Nan
      .Nan .Nan .Nan</_>
    <_>
      900. 1.00133331e+02 1.03131111e+02 1.00582222e+02 6.43906677e+02
      6.43906677e+02 6.86511078e+01 1.52200003e+01 0. 3.53333324e-01
      5.23333311e-01 1.18888892e-01 4.44444455e-03 0. 9.92222250e-01
      7.77777797e-03 0. .Nan .Nan .Nan .Nan .Nan .Nan .Nan .Nan .Nan
      .Nan .Nan .Nan</_>
    <_>
      373. 5.12627335e+01 5.64557648e+01 5.35067024e+01 1.25761391e+02
      1.25761391e+02 6.40214462e+01 6.75066986e+01 0. 3.86058986e-01
      4.61126000e-01 1.52815014e-01 0. 0. 7.26541579e-01 2.17158183e-01
      5.63002676e-02 .Nan .Nan .Nan .Nan .Nan .Nan .Nan .Nan .Nan .Nan
      .Nan .Nan</_>
    <_>
      177. 1.31124298e+02 1.33225983e+02 1.30129944e+02 4.19096031e+01
      4.19096031e+01 6.26214676e+01 8.13559341e+00 0. 4.97175127e-01
      5.02824843e-01 0. 0. 0. 1. 0. 0. .Nan .Nan .Nan .Nan .Nan .Nan
      .Nan .Nan .Nan .Nan .Nan .Nan</_>
    <_>
      274. 1.10441605e+02 1.16967155e+02 1.25656937e+02 2.90251831e+02
      2.90251831e+02 1.06427010e+02 3.48686142e+01 0. 0. 2.55474448e-01
      7.44525552e-01 0. 0. 9.59854007e-01 4.01459858e-02 0. .Nan .Nan
      .Nan .Nan .Nan .Nan .Nan .Nan .Nan .Nan .Nan .Nan</_>
    <_>
      3205. 9.80705185e+01 1.05706711e+02 1.06580032e+02 3.16755066e+02
      3.16755066e+02 8.00602188e+01 3.04318256e+01 0. 1.92199692e-01
      5.71294844e-01 2.28393137e-01 8.11232440e-03 0. 9.64430571e-01
      3.55694219e-02 0. .Nan .Nan .Nan .Nan .Nan .Nan .Nan .Nan .Nan
      .Nan .Nan .Nan</_>
    <_>
      151. 4.69337730e+01 4.56357613e+01 3.62847672e+01 1.84298019e+02
      1.84298019e+02 3.64768219e+01 8.02980118e+01 0. 8.80794704e-01
      4.63576168e-02 5.96026480e-02 1.32450331e-02 0. 5.23178816e-01
      4.43708599e-01 3.31125818e-02 .Nan .Nan .Nan .Nan .Nan .Nan .Nan
      .Nan .Nan .Nan .Nan .Nan</_>
    <_>
      131. 1.52847336e+02 1.63938934e+02 1.75122131e+02 5.23618347e+02
      5.23618347e+02 1.05045799e+02 3.67022896e+01 0. 0. 1.52671754e-01
      8.47328246e-01 0. 0. 1. 0. 0. .Nan .Nan .Nan .Nan .Nan .Nan .Nan
      .Nan .Nan .Nan .Nan .Nan</_>
    <_>
      129. 1.61263565e+02 1.71139542e+02 1.81224808e+02 4.92186035e+02
      4.92186035e+02 1.04581398e+02 3.17364349e+01 0. 0. 2.01550394e-01
      7.98449636e-01 0. 0. 1. 0. 0. .Nan .Nan .Nan .Nan .Nan .Nan .Nan
      .Nan .Nan .Nan .Nan .Nan</_>
    <_>
      211. 1.52957352e+02 1.60431274e+02 1.69014221e+02 3.49345978e+02
      3.49345978e+02 1.05014221e+02 2.61990528e+01 0. 0. 1.80094793e-01
      8.19905221e-01 0. 0. 1. 0. 0. .Nan .Nan .Nan .Nan .Nan .Nan .Nan
      .Nan .Nan .Nan .Nan .Nan</_>
    <_>
      658. 1.39451370e+02 1.48557755e+02 1.58937683e+02 4.30702118e+02
      4.30702118e+02 1.05164131e+02 3.35653496e+01 0. 0. 1.62613988e-01
      8.37386012e-01 0. 0. 1. 0. 0. .Nan .Nan .Nan .Nan .Nan .Nan .Nan
      .Nan .Nan .Nan .Nan .Nan</_>
    <_>
      271. 1.31339478e+02 1.36767532e+02 1.34763840e+02 5.62210327e+02
      5.62210327e+02 6.65793381e+01 1.68118076e+01 0. 3.35793346e-01
      5.97785950e-01 4.79704812e-02 1.84501838e-02 0. 1. 0. 0. .Nan .Nan
      .Nan .Nan .Nan .Nan .Nan .Nan .Nan .Nan .Nan .Nan</_>
    <_>
      750. 1.26530670e+02 1.23525330e+02 1.17605331e+02 1.86651993e+02
      1.86651993e+02 2.92986660e+01 2.29080009e+01 0. 8.75999987e-01
      7.33333305e-02 4.13333327e-02 9.33333300e-03 0. 9.89333332e-01
      1.06666666e-02 0. .Nan .Nan .Nan .Nan .Nan .Nan .Nan .Nan .Nan
      .Nan .Nan .Nan</_>
    <_>
      156. 1.26179489e+02 130. 1.20980766e+02 8.56019226e+02
      8.56019226e+02 4.90576935e+01 1.93397427e+01 0. 7.30769217e-01
      2.69230783e-01 0. 0. 0. 1. 0. 0. .Nan .Nan .Nan .Nan .Nan .Nan
      .Nan .Nan .Nan .Nan .Nan .Nan</_>
    <_>
      131. 1.38068695e+02 1.39419846e+02 1.39068695e+02 5.92259521e+02
      5.92259521e+02 6.44656525e+01 8.59541988e+00 0. 3.89312983e-01
      4.80916023e-01 1.29770994e-01 0. 0. 1. 0. 0. .Nan .Nan .Nan .Nan
      .Nan .Nan .Nan .Nan .Nan .Nan .Nan .Nan</_>
    <_>
      166. 1.06885544e+02 1.15006027e+02 1.11969879e+02 5.36789185e+02
      5.36789185e+02 7.25481949e+01 2.18614464e+01 0. 1.50602415e-01
      8.49397600e-01 0. 0. 0. 9.63855445e-01 3.61445770e-02 0. .Nan .Nan
      .Nan .Nan .Nan .Nan .Nan .Nan .Nan .Nan .Nan .Nan</_>
    <_>
      811. 1.29896423e+02 1.35584457e+02 1.35045624e+02 4.78881622e+02
      4.78881622e+02 8.16054230e+01 1.40665846e+01 0. 1.03575833e-01
      8.43403220e-01 5.30209616e-02 0. 0. 1. 0. 0. .Nan .Nan .Nan .Nan
      .Nan .Nan .Nan .Nan .Nan .Nan .Nan .Nan</_>
    <_>
      133. 1.51977448e+02 1.57556396e+02 1.53090225e+02 8.56345886e+02
      8.56345886e+02 6.86466141e+01 1.02255640e+01 0. 5.26315793e-02
      9.47368443e-01 0. 0. 0. 1. 0. 0. .Nan .Nan .Nan .Nan .Nan .Nan
      .Nan .Nan .Nan .Nan .Nan .Nan</_>
    <_>
      154. 1.48370132e+02 1.47441559e+02 1.44194809e+02 1.33779221e+02
      1.33779221e+02 2.85779228e+01 9.13636398e+00 0. 8.37662339e-01
      1.62337661e-01 0. 0. 0. 1. 0. 0. .Nan .Nan .Nan .Nan .Nan .Nan
      .Nan .Nan .Nan .Nan .Nan .Nan</_>
    <_>
      167. 1.50988022e+02 1.57604797e+02 1.61497009e+02 4.27544922e+02
      4.27544922e+02 9.81856308e+01 1.75029945e+01 0. 1.79640725e-02
      4.85029936e-01 4.97005999e-01 0. 0. 1. 0. 0. .Nan .Nan .Nan .Nan
      .Nan .Nan .Nan .Nan .Nan .Nan .Nan .Nan</_>
    <_>
      135. 1.76911118e+02 1.77666672e+02 1.77614822e+02 3.32548157e+02
      3.32548157e+02 4.98592606e+01 5.19259262e+00 0. 5.03703713e-01
      4.96296287e-01 0. 0. 0. 1. 0. 0. .Nan .Nan .Nan .Nan .Nan .Nan
      .Nan .Nan .Nan .Nan .Nan .Nan</_>
    <_>
      10832. 1.01174301e+02 9.21988525e+01 8.18334579e+01 1.60333542e+02
      1.60333542e+02 2.12805576e+01 4.79452553e+01 0. 9.70273256e-01
      1.85561292e-02 6.73929090e-03 4.43131477e-03 0. 9.32053149e-01
      6.78545088e-02 9.23190528e-05 .Nan .Nan .Nan .Nan .Nan .Nan .Nan
      .Nan .Nan .Nan .Nan .Nan</_>
    <_>
      144. 1.78652771e+02 1.74284729e+02 1.67416672e+02 2.72534729e+02
      2.72534729e+02 2.51388893e+01 2.00277786e+01 0. 9.23611104e-01
      4.86111119e-02 0. 2.77777780e-02 0. 1. 0. 0. .Nan .Nan .Nan .Nan
      .Nan .Nan .Nan .Nan .Nan .Nan .Nan .Nan</_>
    <_>
      351. 2.23336182e+02 2.23472931e+02 2.19381760e+02 2.86415955e+02
      2.86415955e+02 4.44017105e+01 7.86894608e+00 0. 6.95156693e-01
      2.36467242e-01 5.98290600e-02 8.54700897e-03 0. 1. 0. 0. .Nan .Nan
      .Nan .Nan .Nan .Nan .Nan .Nan .Nan .Nan .Nan .Nan</_>
    <_>
      203. 1.51955658e+02 1.43847290e+02 1.37916260e+02 2.89374390e+02
      2.89374390e+02 2.21970444e+01 3.22118225e+01 0. 8.96551728e-01
      3.94088663e-02 6.40394092e-02 0. 0. 1. 0. 0. .Nan .Nan .Nan .Nan
      .Nan .Nan .Nan .Nan .Nan .Nan .Nan .Nan</_>
    <_>
      241. 1.45834030e+02 1.47107880e+02 1.41995850e+02 3.31120331e+02
      3.31120331e+02 4.73941917e+01 1.70871372e+01 0. 7.26141095e-01
      2.19917014e-01 0. 5.39419092e-02 0. 1. 0. 0. .Nan .Nan .Nan .Nan
      .Nan .Nan .Nan .Nan .Nan .Nan .Nan .Nan</_>
    <_>
      760. 1.81076309e+02 1.76873688e+02 1.68119736e+02 2.95544739e+02
      2.95544739e+02 3.48157883e+01 2.58263149e+01 0. 8.38157892e-01
      1.11842103e-01 1.31578953e-03 4.86842096e-02 0. 9.98684227e-01
      1.31578953e-03 0. .Nan .Nan .Nan .Nan .Nan .Nan .Nan .Nan .Nan
      .Nan .Nan .Nan</_>
    <_>
      13421. 1.00941879e+02 8.20490265e+01 6.66723785e+01 2.98418610e+02
      2.98418610e+02 1.39162502e+01 8.66106873e+01 0. 9.96721566e-01 0.
      0. 3.27844429e-03 0. 4.16883975e-01 5.81923842e-01 1.19216158e-03
      .Nan .Nan .Nan .Nan .Nan .Nan .Nan .Nan .Nan .Nan .Nan .Nan</_>
    <_>
      1487. 1.15570274e+02 1.02862137e+02 8.96698074e+01 2.94186951e+02
      2.94186951e+02 1.55171490e+01 5.79441833e+01 0. 1. 0. 0. 0. 0.
      9.89912570e-01 1.00874240e-02 0. .Nan .Nan .Nan .Nan .Nan .Nan
      .Nan .Nan .Nan .Nan .Nan .Nan</_>
    <_>
      310. 8.12419357e+01 7.43774185e+01 6.60677414e+01 3.34896759e+02
      3.34896759e+02 1.57258062e+01 5.26387100e+01 0. 1. 0. 0. 0. 0.
      9.19354856e-01 8.06451589e-02 0. .Nan .Nan .Nan .Nan .Nan .Nan
      .Nan .Nan .Nan .Nan .Nan .Nan</_>
    <_>
      211. 1.02511848e+02 8.46161118e+01 6.12417068e+01 2.40772507e+02
      2.40772507e+02 1.71184826e+01 1.07966827e+02 0. 1. 0. 0. 0. 0.
      2.41706163e-01 7.48815179e-01 9.47867334e-03 .Nan .Nan .Nan .Nan
      .Nan .Nan .Nan .Nan .Nan .Nan .Nan .Nan</_>
    <_>
      3170. 7.13305969e+01 6.57501602e+01 5.83523674e+01 4.45463715e+02
      4.45463715e+02 2.28993683e+01 6.85615158e+01 0. 9.56466854e-01
      9.14826524e-03 9.46372282e-03 2.49211360e-02 0. 7.99684525e-01
      1.35015771e-01 6.52996823e-02 .Nan .Nan .Nan .Nan .Nan .Nan .Nan
      .Nan .Nan .Nan .Nan .Nan</_>
    <_>
      745. 6.65127487e+01 6.06214752e+01 5.44026833e+01 6.01302032e+01
      6.01302032e+01 2.75892620e+01 4.88013420e+01 0. 9.24832225e-01
      8.05369113e-03 9.39597283e-03 5.77181205e-02 0. 9.85234916e-01
      1.47651006e-02 0. .Nan .Nan .Nan .Nan .Nan .Nan .Nan .Nan .Nan
      .Nan .Nan .Nan</_>
    <_>
      1457. 5.05614281e+01 5.03157158e+01 4.46678123e+01 3.07927246e+01
      3.07927246e+01 3.17069321e+01 3.42402191e+01 0. 8.92244339e-01
      9.12834555e-02 1.09814685e-02 5.49073424e-03 0. 1. 0. 0. .Nan .Nan
      .Nan .Nan .Nan .Nan .Nan .Nan .Nan .Nan .Nan .Nan</_>
    <_>
      196. 8.49183655e+01 7.84336700e+01 7.49744873e+01 4.38096924e+02
      4.38096924e+02 2.96632652e+01 9.93214264e+01 0. 8.72448981e-01
      1.02040814e-02 4.08163257e-02 7.65306130e-02 0. 6.42857134e-01
      8.67346972e-02 2.70408154e-01 .Nan .Nan .Nan .Nan .Nan .Nan .Nan
      .Nan .Nan .Nan .Nan .Nan</_>
    <_>
      165. 9.32727280e+01 9.17393951e+01 8.85515137e+01 5.34945435e+02
      5.34945435e+02 4.44424248e+01 5.25272713e+01 0. 8.12121212e-01 0.
      3.03030312e-02 1.57575756e-01 0. 8.24242413e-01 7.27272704e-02
      1.03030302e-01 .Nan .Nan .Nan .Nan .Nan .Nan .Nan .Nan .Nan .Nan
      .Nan .Nan</_>
    <_>
      720. 9.35444412e+01 9.28333359e+01 8.84402771e+01 5.76386108e+02
      5.76386108e+02 4.61250000e+01 4.97319450e+01 0. 8.59722197e-01
      2.63888892e-02 1.80555563e-02 9.58333313e-02 0. 8.51388872e-01
      4.72222231e-02 1.01388887e-01 .Nan .Nan .Nan .Nan .Nan .Nan .Nan
      .Nan .Nan .Nan .Nan .Nan</_>
    <_>
      352. 1.35275574e+02 1.34127838e+02 1.35380676e+02 4.36892059e+02
      4.36892059e+02 8.54403381e+01 6.25994301e+01 0. 3.49431813e-01
      4.54545468e-02 5.05681813e-01 9.94318202e-02 0. 7.58522749e-01
      5.68181835e-02 1.84659094e-01 .Nan .Nan .Nan .Nan .Nan .Nan .Nan
      .Nan .Nan .Nan .Nan .Nan</_>
    <_>
      142. 5.82253532e+01 5.72253532e+01 5.37323952e+01 4.88647888e+02
      4.88647888e+02 3.45422554e+01 1.00718307e+02 0. 8.66197169e-01
      9.85915512e-02 7.04225339e-03 2.81690136e-02 0. 6.19718313e-01
      9.85915512e-02 2.81690150e-01 .Nan .Nan .Nan .Nan .Nan .Nan .Nan
      .Nan .Nan .Nan .Nan .Nan</_>
    <_>
      234. 132. 1.29123932e+02 1.30619659e+02 5.39269226e+02
      5.39269226e+02 1.01388885e+02 5.80641022e+01 0. 3.71794879e-01 0.
      1.41025648e-01 4.87179488e-01 0. 7.60683775e-01 5.55555560e-02
      1.83760688e-01 .Nan .Nan .Nan .Nan .Nan .Nan .Nan .Nan .Nan .Nan
      .Nan .Nan</_>
    <_>
      180. 1.53411118e+02 1.52699997e+02 1.50716660e+02 4.90161102e+02
      4.90161102e+02 7.69000015e+01 4.92777786e+01 0. 6.49999976e-01
      3.88888903e-02 7.22222254e-02 2.38888890e-01 0. 8.22222233e-01
      3.88888903e-02 1.38888896e-01 .Nan .Nan .Nan .Nan .Nan .Nan .Nan
      .Nan .Nan .Nan .Nan .Nan</_>
    <_>
      261. 8.37854385e+01 1.22601532e+02 1.07655174e+02 3.68689667e+02
      3.68689667e+02 7.83218384e+01 8.31341019e+01 0. 0. 1. 0. 0. 0.
      5.78544080e-01 4.17624533e-01 3.83141753e-03 .Nan .Nan .Nan .Nan
      .Nan .Nan .Nan .Nan .Nan .Nan .Nan .Nan</_>
    <_>
      1030. 1.34244659e+02 1.62213593e+02 1.56872818e+02 4.18956299e+02
      4.18956299e+02 7.97766953e+01 5.00378647e+01 0. 9.12621394e-02
      9.05825257e-01 9.70873807e-04 1.94174761e-03 0. 9.63106811e-01
      3.68932039e-02 0. .Nan .Nan .Nan .Nan .Nan .Nan .Nan .Nan .Nan
      .Nan .Nan .Nan</_>
    <_>
      6828. 1.09410805e+02 1.71919006e+02 1.50277832e+02 2.82708252e+02
      2.82708252e+02 8.00184555e+01 9.64135895e+01 0. 0. 9.99560654e-01
      4.39367315e-04 0. 0. 3.47100168e-01 6.38986528e-01 1.39132980e-02
      .Nan .Nan .Nan .Nan .Nan .Nan .Nan .Nan .Nan .Nan .Nan .Nan</_>
    <_>
      17919. 1.09254868e+02 1.72669128e+02 1.57169708e+02 5.66580261e+02
      5.66580261e+02 8.28821945e+01 9.67721405e+01 0. 0. 9.96149361e-01
      3.85066122e-03 0. 0. 3.66538316e-01 6.29611015e-01 3.85066122e-03
      .Nan .Nan .Nan .Nan .Nan .Nan .Nan .Nan .Nan .Nan .Nan .Nan</_>
    <_>
      573. 9.66928482e+01 1.46352524e+02 1.32776611e+02 5.51258301e+02
      5.51258301e+02 8.16335068e+01 8.82949371e+01 0. 0. 1. 0. 0. 0.
      4.83420581e-01 5.16579390e-01 0. .Nan .Nan .Nan .Nan .Nan .Nan
      .Nan .Nan .Nan .Nan .Nan .Nan</_>
    <_>
      196. 1.15372452e+02 1.66872452e+02 1.55632660e+02 6.78382629e+02
      6.78382629e+02 8.34693909e+01 7.97755127e+01 0. 0. 1. 0. 0. 0.
      7.60204077e-01 2.39795923e-01 0. .Nan .Nan .Nan .Nan .Nan .Nan
      .Nan .Nan .Nan .Nan .Nan .Nan</_>
    <_>
      10991. 9.78522415e+01 1.51851700e+02 1.32134750e+02 8.53509399e+02
      8.53509399e+02 7.94460907e+01 9.23798599e+01 0. 0. 9.99727070e-01
      2.72950594e-04 0. 0. 3.45555454e-01 6.52078986e-01 2.36557191e-03
      .Nan .Nan .Nan .Nan .Nan .Nan .Nan .Nan .Nan .Nan .Nan .Nan</_>
    <_>
      408. 9.87083359e+01 1.58475494e+02 1.39691177e+02 5.96644592e+02
      5.96644592e+02 8.05171585e+01 1.01142159e+02 0. 0. 1. 0. 0. 0.
      2.76960790e-01 7.15686262e-01 7.35294120e-03 .Nan .Nan .Nan .Nan
      .Nan .Nan .Nan .Nan .Nan .Nan .Nan .Nan</_>
    <_>
      135. 1.05274071e+02 1.52881485e+02 1.36548141e+02 8.20599976e+02
      8.20599976e+02 7.97481461e+01 8.15481491e+01 0. 0. 1. 0. 0. 0.
      6.66666687e-01 3.33333343e-01 0. .Nan .Nan .Nan .Nan .Nan .Nan
      .Nan .Nan .Nan .Nan .Nan .Nan</_>
    <_>
      618. 9.13915863e+01 1.36215210e+02 1.19673141e+02 2.90660187e+02
      2.90660187e+02 8.20388336e+01 9.54190903e+01 0. 8.41423944e-02
      8.17152083e-01 3.23624606e-03 9.54692587e-02 0. 3.62459540e-01
      5.90614915e-01 4.69255671e-02 .Nan .Nan .Nan .Nan .Nan .Nan .Nan
      .Nan .Nan .Nan .Nan .Nan</_>
    <_>
      465. 8.48129044e+01 1.53359146e+02 1.32997849e+02 5.26750549e+02
      5.26750549e+02 8.10537643e+01 1.18002151e+02 0. 0. 1. 0. 0. 0.
      6.23655915e-02 9.01075244e-01 3.65591384e-02 .Nan .Nan .Nan .Nan
      .Nan .Nan .Nan .Nan .Nan .Nan .Nan .Nan</_>
    <_>
      109. 74. 1.06064217e+02 8.50825653e+01 950. 950. 7.06055069e+01
      8.13669739e+01 0. 0. 1. 0. 0. 0. 6.05504572e-01 3.85321110e-01
      9.17431153e-03 .Nan .Nan .Nan .Nan .Nan .Nan .Nan .Nan .Nan .Nan
      .Nan .Nan</_>
    <_>
      158. 1.00537971e+02 1.67284805e+02 1.53183548e+02 5.84405090e+02
      5.84405090e+02 8.36835480e+01 1.03398735e+02 0. 0. 1. 0. 0. 0.
      1.39240503e-01 8.60759497e-01 0. .Nan .Nan .Nan .Nan .Nan .Nan
      .Nan .Nan .Nan .Nan .Nan .Nan</_>
    <_>
      100. 9.65899963e+01 1.55410004e+02 1.34089996e+02 6.87809998e+02
      6.87809998e+02 7.49700012e+01 1.06660004e+02 0. 1.09999999e-01
      8.89999986e-01 0. 0. 0. 2.19999999e-01 7.69999981e-01
      9.99999978e-03 .Nan .Nan .Nan .Nan .Nan .Nan .Nan .Nan .Nan .Nan
      .Nan .Nan</_>
    <_>
      432. 1.43847229e+02 1.65379623e+02 1.57844910e+02 7.76641174e+02
      7.76641174e+02 7.96921310e+01 3.67129631e+01 0. 7.40740746e-02
      8.63425910e-01 5.55555560e-02 6.94444450e-03 0. 9.46759284e-01
      5.32407425e-02 0. .Nan .Nan .Nan .Nan .Nan .Nan .Nan .Nan .Nan
      .Nan .Nan .Nan</_>
    <_>
      448. 5.27968750e+01 1.12109375e+02 9.37254486e+01 6.24653992e+02
      6.24653992e+02 8.12075882e+01 1.41805801e+02 0. 0. 1. 0. 0. 0.
      2.90178563e-02 8.10267866e-01 1.60714284e-01 .Nan .Nan .Nan .Nan
      .Nan .Nan .Nan .Nan .Nan .Nan .Nan .Nan</_>
    <_>
      301. 1.13966774e+02 1.84132889e+02 1.62993362e+02 5.32568115e+02
      5.32568115e+02 81. 9.99800644e+01 0. 0. 1. 0. 0. 0. 2.39202663e-01
      7.57475078e-01 3.32225906e-03 .Nan .Nan .Nan .Nan .Nan .Nan .Nan
      .Nan .Nan .Nan .Nan .Nan</_>
    <_>
      270. 6.67925949e+01 1.21396294e+02 1.06270370e+02 5.50514832e+02
      5.50514832e+02 8.17259293e+01 1.20085182e+02 0. 0. 1. 0. 0. 0.
      6.29629642e-02 8.74074101e-01 6.29629642e-02 .Nan .Nan .Nan .Nan
      .Nan .Nan .Nan .Nan .Nan .Nan .Nan .Nan</_>
    <_>
      248. 8.12862930e+01 1.49141129e+02 1.31415329e+02 5.85491943e+02
      5.85491943e+02 8.21572571e+01 1.21572578e+02 0. 0. 1. 0. 0. 0.
      6.04838692e-02 8.58870983e-01 8.06451589e-02 .Nan .Nan .Nan .Nan
      .Nan .Nan .Nan .Nan .Nan .Nan .Nan .Nan</_>
    <_>
      516. 5.45271301e+01 1.05800385e+02 8.83372116e+01 5.97695740e+02
      5.97695740e+02 7.95736465e+01 1.33515503e+02 0. 0. 1. 0. 0. 0.
      9.10852700e-02 7.40310073e-01 1.68604657e-01 .Nan .Nan .Nan .Nan
      .Nan .Nan .Nan .Nan .Nan .Nan .Nan .Nan</_>
    <_>
      516. 8.51027145e+01 1.28149231e+02 1.18722870e+02 8.56903076e+02
      8.56903076e+02 8.32984467e+01 9.62189941e+01 0. 0. 1. 0. 0. 0.
      4.36046511e-01 5.17441869e-01 4.65116277e-02 .Nan .Nan .Nan .Nan
      .Nan .Nan .Nan .Nan .Nan .Nan .Nan .Nan</_>
    <_>
      1076. 8.75594788e+01 1.13168213e+02 1.04646843e+02 9.81290894e+02
      9.81290894e+02 8.12527847e+01 6.27639389e+01 0. 1.30111529e-02
      9.21003699e-01 5.85501865e-02 7.43494416e-03 0. 7.50000000e-01
      2.47211903e-01 2.78810412e-03 .Nan .Nan .Nan .Nan .Nan .Nan .Nan
      .Nan .Nan .Nan .Nan .Nan</_>
    <_>
      108444. 5.41281509e+01 6.09233627e+01 5.18885612e+01
      8.11902771e+02 8.11902771e+02 5.91853752e+01 7.74426880e+01 0.
      3.39723736e-01 5.94555736e-01 3.65810916e-02 2.91394629e-02 0.
      6.29310966e-01 3.69610131e-01 1.07889785e-03 .Nan .Nan .Nan .Nan
      .Nan .Nan .Nan .Nan .Nan .Nan .Nan .Nan</_>
    <_>
      7762. 1.30368713e+02 1.64604996e+02 1.63892944e+02 1.15533493e+02
      1.15533493e+02 9.10667343e+01 6.00784607e+01 0. 0. 9.18191195e-01
      8.06493163e-02 1.15949498e-03 0. 8.38572562e-01 1.58721983e-01
      2.70548835e-03 .Nan .Nan .Nan .Nan .Nan .Nan .Nan .Nan .Nan .Nan
      .Nan .Nan</_>
    <_>
      300. 9.57666702e+01 1.22186668e+02 1.16563332e+02 8.19446655e+02
      8.19446655e+02 8.39866638e+01 5.69333344e+01 0. 0. 1. 0. 0. 0.
      8.93333316e-01 1.06666669e-01 0. .Nan .Nan .Nan .Nan .Nan .Nan
      .Nan .Nan .Nan .Nan .Nan .Nan</_>
    <_>
      766. 1.05438644e+02 1.55672318e+02 1.47798950e+02 5.92926880e+02
      5.92926880e+02 8.55613556e+01 8.51553497e+01 0. 0. 1. 0. 0. 0.
      4.86945182e-01 5.13054848e-01 0. .Nan .Nan .Nan .Nan .Nan .Nan
      .Nan .Nan .Nan .Nan .Nan .Nan</_>
    <_>
      131. 9.78854980e+01 1.62549622e+02 1.54152664e+02 6.08824402e+02
      6.08824402e+02 8.61221390e+01 1.05824425e+02 0. 0. 1. 0. 0. 0.
      1.83206111e-01 8.09160292e-01 7.63358781e-03 .Nan .Nan .Nan .Nan
      .Nan .Nan .Nan .Nan .Nan .Nan .Nan .Nan</_>
    <_>
      220. 7.88590927e+01 1.11645454e+02 9.66045456e+01 9.62968201e+02
      9.62968201e+02 7.44227295e+01 7.49227295e+01 0. 0. 1. 0. 0. 0.
      5.77272713e-01 4.22727287e-01 0. .Nan .Nan .Nan .Nan .Nan .Nan
      .Nan .Nan .Nan .Nan .Nan .Nan</_>
    <_>
      217. 8.58617477e+01 9.69308777e+01 9.88479233e+01 7.88603699e+02
      7.88603699e+02 9.34285736e+01 4.23364067e+01 0. 5.06912433e-02
      8.61751139e-01 5.52995391e-02 3.22580636e-02 0. 9.30875599e-01
      6.45161271e-02 4.60829493e-03 .Nan .Nan .Nan .Nan .Nan .Nan .Nan
      .Nan .Nan .Nan .Nan .Nan</_>
    <_>
      153. 1.71078430e+02 2.07699341e+02 2.05973862e+02 5.74464050e+02
      5.74464050e+02 8.97385635e+01 5.14771233e+01 0. 0. 9.80392158e-01
      1.96078438e-02 0. 0. 7.90849686e-01 2.09150329e-01 0. .Nan .Nan
      .Nan .Nan .Nan .Nan .Nan .Nan .Nan .Nan .Nan .Nan</_>
    <_>
      409. 1.13002441e+02 1.37926651e+02 1.37581909e+02 9.14669952e+01
      9.14669952e+01 9.77017136e+01 6.17212715e+01 0. 1.95599031e-02
      7.04156458e-01 2.12713942e-01 6.35696799e-02 0. 7.72616148e-01
      2.07823962e-01 1.95599031e-02 .Nan .Nan .Nan .Nan .Nan .Nan .Nan
      .Nan .Nan .Nan .Nan .Nan</_>
    <_>
      121. 9.04132233e+01 1.14966942e+02 1.02768593e+02 8.30099182e+02
      8.30099182e+02 7.50247955e+01 5.59752083e+01 0. 0. 1. 0. 0. 0.
      9.66942132e-01 3.30578499e-02 0. .Nan .Nan .Nan .Nan .Nan .Nan
      .Nan .Nan .Nan .Nan .Nan .Nan</_>
    <_>
      202. 1.05202972e+02 1.36262375e+02 1.31915848e+02 1.91049500e+02
      1.91049500e+02 8.59108887e+01 6.13811874e+01 0. 0. 1. 0. 0. 0.
      9.25742567e-01 7.42574260e-02 0. .Nan .Nan .Nan .Nan .Nan .Nan
      .Nan .Nan .Nan .Nan .Nan .Nan</_>
    <_>
      6489. 6.22488823e+01 8.45193405e+01 8.09237137e+01 1.73867462e+02
      1.73867462e+02 8.44313431e+01 6.78626938e+01 0. 9.70873795e-03
      9.90291238e-01 0. 0. 0. 8.26321483e-01 1.73678532e-01 0. .Nan .Nan
      .Nan .Nan .Nan .Nan .Nan .Nan .Nan .Nan .Nan .Nan</_>
    <_>
      506. 8.62450562e+01 1.16583000e+02 1.18385376e+02 2.39669968e+02
      2.39669968e+02 9.19505920e+01 7.33478241e+01 0. 0. 9.13043499e-01
      8.69565234e-02 0. 0. 7.25296438e-01 2.74703562e-01 0. .Nan .Nan
      .Nan .Nan .Nan .Nan .Nan .Nan .Nan .Nan .Nan .Nan</_>
    <_>
      102. 1.13892159e+02 1.42715683e+02 1.38794113e+02 1.62774506e+02
      1.62774506e+02 8.60392151e+01 5.44509811e+01 0. 0. 1. 0. 0. 0.
      9.50980365e-01 4.90196086e-02 0. .Nan .Nan .Nan .Nan .Nan .Nan
      .Nan .Nan .Nan .Nan .Nan .Nan</_>
    <_>
      611. 1.03476265e+02 1.23004913e+02 1.20456627e+02 9.03027802e+01
      9.03027802e+01 8.49508972e+01 4.48068733e+01 0. 1.96399353e-02
      9.68903422e-01 1.14566283e-02 0. 0. 9.54173505e-01 4.58265133e-02
      0. .Nan .Nan .Nan .Nan .Nan .Nan .Nan .Nan .Nan .Nan .Nan .Nan</_>
    <_>
      230. 9.04000015e+01 1.11547829e+02 1.05082611e+02 1.47460876e+02
      1.47460876e+02 7.65999985e+01 5.26826096e+01 0. 7.82608688e-02
      9.21739101e-01 0. 0. 0. 9.47826087e-01 5.21739125e-02 0. .Nan .Nan
      .Nan .Nan .Nan .Nan .Nan .Nan .Nan .Nan .Nan .Nan</_>
    <_>
      510. 4.73823547e+01 6.38568611e+01 5.99196091e+01 1.72825485e+02
      1.72825485e+02 8.26117630e+01 6.76568604e+01 0. 1.37254903e-02
      9.86274481e-01 0. 0. 0. 7.90196061e-01 2.09803924e-01 0. .Nan .Nan
      .Nan .Nan .Nan .Nan .Nan .Nan .Nan .Nan .Nan .Nan</_>
    <_>
      3496. 7.38575516e+01 8.93032074e+01 8.85603561e+01 4.55045776e+01
      4.55045776e+01 8.87697372e+01 5.10449066e+01 0. 3.71853542e-03
      9.19050336e-01 7.72311240e-02 0. 0. 9.24485147e-01 7.52288327e-02
      2.86041177e-04 .Nan .Nan .Nan .Nan .Nan .Nan .Nan .Nan .Nan .Nan
      .Nan .Nan</_>
    <_>
      290. 9.19344864e+01 1.10979309e+02 1.05831032e+02 1.42206898e+01
      1.42206898e+01 7.93034515e+01 4.62586212e+01 0. 2.75862068e-02
      9.72413778e-01 0. 0. 0. 9.34482753e-01 6.55172393e-02 0. .Nan .Nan
      .Nan .Nan .Nan .Nan .Nan .Nan .Nan .Nan .Nan .Nan</_>
    <_>
      192. 9.14687500e+01 1.08671875e+02 1.09317711e+02 5.23489571e+01
      5.23489571e+01 9.23072891e+01 4.81406250e+01 0. 0. 8.12500000e-01
      1.87500000e-01 0. 0. 9.73958313e-01 2.60416660e-02 0. .Nan .Nan
      .Nan .Nan .Nan .Nan .Nan .Nan .Nan .Nan .Nan .Nan</_>
    <_>
      207. 8.60048294e+01 7.90869598e+01 6.16038666e+01 9.29473450e+02
      9.29473450e+02 2.77729473e+01 8.33816452e+01 0. 8.55072439e-01
      1.44927531e-01 0. 0. 0. 5.45893729e-01 4.54106271e-01 0. .Nan .Nan
      .Nan .Nan .Nan .Nan .Nan .Nan .Nan .Nan .Nan .Nan</_>
    <_>
      103. 6.68252411e+01 7.42815552e+01 8.04660187e+01 1.66796112e+01
      1.66796112e+01 1.02077667e+02 4.31941757e+01 0. 1.94174759e-02
      4.56310689e-01 5.04854381e-01 1.94174759e-02 0. 9.80582535e-01
      1.94174759e-02 0. .Nan .Nan .Nan .Nan .Nan .Nan .Nan .Nan .Nan
      .Nan .Nan .Nan</_>
    <_>
      473. 7.75179672e+01 6.78266373e+01 4.94968300e+01 9.78644836e+02
      9.78644836e+02 3.24355164e+01 9.86004257e+01 0. 7.52642691e-01
      2.47357294e-01 0. 0. 0. 3.97462994e-01 5.87737858e-01
      1.47991544e-02 .Nan .Nan .Nan .Nan .Nan .Nan .Nan .Nan .Nan .Nan
      .Nan .Nan</_>
    <_>
      345. 7.62869568e+01 6.72666702e+01 5.31014481e+01 8.40657959e+02
      8.40657959e+02 3.06231880e+01 8.45536194e+01 0. 7.50724614e-01
      2.49275357e-01 0. 0. 0. 5.15942037e-01 4.84057963e-01 0. .Nan .Nan
      .Nan .Nan .Nan .Nan .Nan .Nan .Nan .Nan .Nan .Nan</_>
    <_>
      252. 7.27857132e+01 6.94007950e+01 5.02142868e+01 9.30111084e+02
      9.30111084e+02 3.81626968e+01 9.73055573e+01 0. 6.78571403e-01
      3.21428567e-01 0. 0. 0. 4.00793642e-01 5.91269851e-01
      7.93650839e-03 .Nan .Nan .Nan .Nan .Nan .Nan .Nan .Nan .Nan .Nan
      .Nan .Nan</_>
    <_>
      103. 5.79514580e+01 4.28543701e+01 8.63300934e+01 7.10135925e+02
      7.10135925e+02 1.35679611e+02 1.26805824e+02 0. 0. 0.
      8.64077687e-01 1.35922328e-01 0. 2.13592231e-01 6.21359229e-01
      1.65048540e-01 .Nan .Nan .Nan .Nan .Nan .Nan .Nan .Nan .Nan .Nan
      .Nan .Nan</_>
    <_>
      476. 9.66533585e+01 7.74894943e+01 1.18331932e+02 7.52647034e+02
      7.52647034e+02 1.37668060e+02 9.29348755e+01 0. 3.15126069e-02 0.
      7.22689092e-01 2.45798320e-01 0. 5.33613443e-01 3.73949587e-01
      9.24369767e-02 .Nan .Nan .Nan .Nan .Nan .Nan .Nan .Nan .Nan .Nan
      .Nan .Nan</_>
    <_>
      32836. 5.11841583e+01 4.85423622e+01 1.45888321e+02 4.59371887e+02
      4.59371887e+02 1.19259651e+02 1.56828384e+02 0. 1.76026318e-02
      7.91813880e-02 8.72883439e-01 3.03325616e-02 0. 1.70635894e-01
      3.64965290e-01 4.64398831e-01 .Nan .Nan .Nan .Nan .Nan .Nan .Nan
      .Nan .Nan .Nan .Nan .Nan</_>
    <_>
      122. 1.18352463e+02 7.97950821e+01 5.16639328e+01 9.00557373e+02
      9.00557373e+02 1.26885242e+01 1.44737701e+02 0. 1. 0. 0. 0. 0. 0.
      8.44262302e-01 1.55737698e-01 .Nan .Nan .Nan .Nan .Nan .Nan .Nan
      .Nan .Nan .Nan .Nan .Nan</_>
    <_>
      1245. 8.68514023e+01 7.00184708e+01 1.18354218e+02 7.19750977e+02
      7.19750977e+02 1.23061844e+02 1.11352608e+02 0. 9.47791189e-02 0.
      7.54216850e-01 1.51004016e-01 0. 3.77510041e-01 4.40963864e-01
      1.81526110e-01 .Nan .Nan .Nan .Nan .Nan .Nan .Nan .Nan .Nan .Nan
      .Nan .Nan</_>
    <_>
      3052. 7.18273239e+01 5.91710358e+01 7.48414154e+01 7.00061584e+02
      7.00061584e+02 1.00534073e+02 9.07807999e+01 0. 2.63433814e-01
      9.63302776e-02 4.29554403e-01 2.10681513e-01 0. 5.23918748e-01
      4.05963302e-01 7.01179579e-02 .Nan .Nan .Nan .Nan .Nan .Nan .Nan
      .Nan .Nan .Nan .Nan .Nan</_>
    <_>
      703. 7.86401138e+01 6.25177803e+01 4.52560463e+01 9.97927429e+02
      9.97927429e+02 2.45007114e+01 1.05085350e+02 0. 8.73399734e-01
      1.26600280e-01 0. 0. 0. 3.69843543e-01 6.08819366e-01
      2.13371273e-02 .Nan .Nan .Nan .Nan .Nan .Nan .Nan .Nan .Nan .Nan
      .Nan .Nan</_>
    <_>
      144. 9.59444427e+01 7.21666641e+01 6.32013893e+01 7.04923584e+02
      7.04923584e+02 2.10833340e+01 8.78958359e+01 0. 9.16666687e-01 0.
      4.86111119e-02 3.47222239e-02 0. 5.13888896e-01 4.79166657e-01
      6.94444450e-03 .Nan .Nan .Nan .Nan .Nan .Nan .Nan .Nan .Nan .Nan
      .Nan .Nan</_>
    <_>
      213. 5.41924896e+01 4.80845070e+01 3.59671364e+01 8.54910828e+02
      8.54910828e+02 3.14553986e+01 9.42769928e+01 0. 7.93427229e-01
      1.97183102e-01 0. 9.38967150e-03 0. 4.08450693e-01 5.77464759e-01
      1.40845068e-02 .Nan .Nan .Nan .Nan .Nan .Nan .Nan .Nan .Nan .Nan
      .Nan .Nan</_>
    <_>
      179. 8.44580994e+01 7.54860306e+01 1.24100555e+02 6.84368713e+02
      6.84368713e+02 1.25251396e+02 1.04195534e+02 0. 0. 0. 1. 0. 0.
      4.74860340e-01 3.74301672e-01 1.50837988e-01 .Nan .Nan .Nan .Nan
      .Nan .Nan .Nan .Nan .Nan .Nan .Nan .Nan</_>
    <_>
      463. 6.49784012e+01 4.91792641e+01 1.14948166e+02 7.05989197e+02
      7.05989197e+02 1.29481644e+02 1.41397415e+02 0. 3.02375816e-02 0.
      8.16414714e-01 1.53347731e-01 0. 2.26781860e-01 3.73650104e-01
      3.99568021e-01 .Nan .Nan .Nan .Nan .Nan .Nan .Nan .Nan .Nan .Nan
      .Nan .Nan</_>
    <_>
      441. 4.89274368e+01 4.37029495e+01 1.44029480e+02 5.62954651e+02
      5.62954651e+02 1.21634918e+02 1.67351471e+02 0. 0. 2.49433108e-02
      9.75056708e-01 0. 0. 7.48299286e-02 4.14965987e-01 5.10204077e-01
      .Nan .Nan .Nan .Nan .Nan .Nan .Nan .Nan .Nan .Nan .Nan .Nan</_>
    <_>
      171. 5.49473686e+01 5.16257324e+01 3.61695900e+01 9.98959045e+02
      9.98959045e+02 3.23742676e+01 9.51403503e+01 0. 8.18713427e-01
      1.81286544e-01 0. 0. 0. 3.80116969e-01 5.96491218e-01
      2.33918130e-02 .Nan .Nan .Nan .Nan .Nan .Nan .Nan .Nan .Nan .Nan
      .Nan .Nan</_>
    <_>
      194. 5.19587631e+01 4.32061844e+01 1.40072159e+02 5.34628845e+02
      5.34628845e+02 1.23180412e+02 1.73175262e+02 0. 0. 0. 1. 0. 0.
      1.03092780e-02 2.78350502e-01 7.11340189e-01 .Nan .Nan .Nan .Nan
      .Nan .Nan .Nan .Nan .Nan .Nan .Nan .Nan</_>
    <_>
      413. 4.13147697e+01 4.81065369e+01 9.13414078e+01 6.19849854e+02
      6.19849854e+02 1.14319611e+02 1.39864410e+02 0. 0. 3.87409218e-02
      9.61259067e-01 0. 0. 4.84261513e-02 7.69975781e-01 1.81598067e-01
      .Nan .Nan .Nan .Nan .Nan .Nan .Nan .Nan .Nan .Nan .Nan .Nan</_>
    <_>
      497. 4.14104614e+01 4.11046295e+01 1.39291748e+02 6.20460754e+02
      6.20460754e+02 1.19714287e+02 1.82993958e+02 0. 0. 0. 1. 0. 0. 0.
      2.53521115e-01 7.46478856e-01 .Nan .Nan .Nan .Nan .Nan .Nan .Nan
      .Nan .Nan .Nan .Nan .Nan</_>
    <_>
      1049. 8.54051514e+01 7.09428024e+01 8.15595779e+01 7.36397522e+02
      7.36397522e+02 1.01089607e+02 6.72936096e+01 0. 3.06005716e-01
      1.04861772e-02 4.64251667e-01 2.19256431e-01 0. 7.32125819e-01
      2.67874151e-01 0. .Nan .Nan .Nan .Nan .Nan .Nan .Nan .Nan .Nan
      .Nan .Nan .Nan</_>
    <_>
      763. 1.11076019e+02 7.27758865e+01 4.74429893e+01 9.94209717e+02
      9.94209717e+02 1.43237219e+01 1.40959366e+02 0. 9.90825713e-01
      9.17431153e-03 0. 0. 0. 6.29095659e-02 8.40104878e-01
      9.69855860e-02 .Nan .Nan .Nan .Nan .Nan .Nan .Nan .Nan .Nan .Nan
      .Nan .Nan</_>
    <_>
      376. 4.20159569e+01 3.78085098e+01 1.80271271e+02 6.32500000e+02
      6.32500000e+02 1.20912231e+02 2.01385635e+02 0. 0. 0. 1. 0. 0. 0.
      7.97872338e-03 9.92021263e-01 .Nan .Nan .Nan .Nan .Nan .Nan .Nan
      .Nan .Nan .Nan .Nan .Nan</_>
    <_>
      342. 6.41228104e+01 5.41637421e+01 4.11315804e+01 8.39570190e+02
      8.39570190e+02 2.49035091e+01 9.26520462e+01 0. 8.97660792e-01
      1.02339178e-01 0. 0. 0. 4.29824561e-01 5.70175409e-01 0. .Nan .Nan
      .Nan .Nan .Nan .Nan .Nan .Nan .Nan .Nan .Nan .Nan</_>
    <_>
      725. 5.20455170e+01 4.64744835e+01 1.46591721e+02 3.28937927e+02
      3.28937927e+02 1.21783447e+02 1.80220688e+02 0. 0. 0. 1. 0. 0.
      1.37931034e-02 2.81379312e-01 7.04827607e-01 .Nan .Nan .Nan .Nan
      .Nan .Nan .Nan .Nan .Nan .Nan .Nan .Nan</_>
    <_>
      195. 6.32512817e+01 5.42051277e+01 1.62343582e+02 3.82825653e+02
      3.82825653e+02 1.22687180e+02 1.72656418e+02 0. 0. 0. 1. 0. 0.
      1.02564106e-02 4.76923078e-01 5.12820542e-01 .Nan .Nan .Nan .Nan
      .Nan .Nan .Nan .Nan .Nan .Nan .Nan .Nan</_>
    <_>
      197. 5.11370544e+01 4.58730965e+01 3.12842636e+01 1.00669037e+03
      1.00669037e+03 3.18527927e+01 1.08619286e+02 0. 7.56345153e-01
      2.43654817e-01 0. 0. 0. 3.29949230e-01 6.14213169e-01
      5.58375642e-02 .Nan .Nan .Nan .Nan .Nan .Nan .Nan .Nan .Nan .Nan
      .Nan .Nan</_>
    <_>
      1169. 4.34807510e+01 4.38237801e+01 1.24775879e+02 2.63730530e+02
      2.63730530e+02 1.20245506e+02 1.81253204e+02 0. 0. 2.48075277e-02
      9.75192487e-01 0. 0. 4.96150553e-02 2.68605649e-01 6.81779325e-01
      .Nan .Nan .Nan .Nan .Nan .Nan .Nan .Nan .Nan .Nan .Nan .Nan</_>
    <_>
      1227. 5.40986137e+01 5.33007317e+01 1.01174408e+02 5.48042358e+02
      5.48042358e+02 1.17692749e+02 1.18371635e+02 0. 2.85248570e-02
      6.35696799e-02 8.72045636e-01 3.58598195e-02 0. 3.34963322e-01
      4.39282805e-01 2.25753874e-01 .Nan .Nan .Nan .Nan .Nan .Nan .Nan
      .Nan .Nan .Nan .Nan .Nan</_>
    <_>
      8688. 8.68428879e+01 9.47959290e+01 1.41551910e+02 2.94174042e+02
      2.94174042e+02 1.19293854e+02 1.13946365e+02 0. 2.30202582e-04
      1.73687845e-01 8.10428202e-01 1.56537760e-02 0. 3.05133522e-01
      5.37062585e-01 1.57803863e-01 .Nan .Nan .Nan .Nan .Nan .Nan .Nan
      .Nan .Nan .Nan .Nan .Nan</_>
    <_>
      101. 7.46732635e+01 1.14693069e+02 145. 2.92920807e+02
      2.92920807e+02 1.05841583e+02 1.27950493e+02 0. 0. 3.76237631e-01
      6.23762369e-01 0. 0. 1.78217828e-01 7.32673287e-01 8.91089141e-02
      .Nan .Nan .Nan .Nan .Nan .Nan .Nan .Nan .Nan .Nan .Nan .Nan</_>
    <_>
      401. 1.15875313e+02 1.04872818e+02 1.79234421e+02 3.41523682e+02
      3.41523682e+02 1.25625938e+02 1.10660851e+02 0. 0. 2.49376567e-03
      9.92518723e-01 4.98753134e-03 0. 2.89276809e-01 5.83541155e-01
      1.27182052e-01 .Nan .Nan .Nan .Nan .Nan .Nan .Nan .Nan .Nan .Nan
      .Nan .Nan</_>
    <_>
      158. 1.06917725e+02 1.49329117e+02 1.78759491e+02 3.12177216e+02
      3.12177216e+02 1.03658226e+02 1.11177216e+02 0. 0. 5.18987358e-01
      4.81012672e-01 0. 0. 2.21518993e-01 7.27848113e-01 5.06329127e-02
      .Nan .Nan .Nan .Nan .Nan .Nan .Nan .Nan .Nan .Nan .Nan .Nan</_>
    <_>
      238. 6.34537811e+01 5.07941170e+01 3.84243698e+01 9.41071411e+02
      9.41071411e+02 2.15504208e+01 1.02147057e+02 0. 8.99159670e-01
      1.00840338e-01 0. 0. 0. 3.02521020e-01 6.63865566e-01
      3.36134471e-02 .Nan .Nan .Nan .Nan .Nan .Nan .Nan .Nan .Nan .Nan
      .Nan .Nan</_>
    <_>
      962. 8.23887711e+01 5.69324341e+01 3.95883560e+01 8.90847168e+02
      8.90847168e+02 1.68804569e+01 1.25462578e+02 0. 9.52182949e-01
      4.78170477e-02 0. 0. 0. 1.50727645e-01 8.04573834e-01
      4.46985438e-02 .Nan .Nan .Nan .Nan .Nan .Nan .Nan .Nan .Nan .Nan
      .Nan .Nan</_>
    <_>
      273. 1.36252747e+02 1.19040291e+02 1.47036636e+02 2.55798538e+02
      2.55798538e+02 1.41205124e+02 5.19780235e+01 0. 0. 0.
      9.15750921e-01 8.42490867e-02 0. 9.12087917e-01 8.42490867e-02
      3.66300368e-03 .Nan .Nan .Nan .Nan .Nan .Nan .Nan .Nan .Nan .Nan
      .Nan .Nan</_>
    <_>
      233. 1.15450645e+02 1.72437775e+02 1.96141632e+02 3.06982819e+02
      3.06982819e+02 9.91030045e+01 1.07793991e+02 0. 0. 8.41201723e-01
      1.58798277e-01 0. 0. 1.63090125e-01 8.36909890e-01 0. .Nan .Nan
      .Nan .Nan .Nan .Nan .Nan .Nan .Nan .Nan .Nan .Nan</_>
    <_>
      128. 5.18281250e+01 4.60703125e+01 3.48828125e+01 7.93125000e+02
      7.93125000e+02 2.67187500e+01 9.36171875e+01 0. 8.20312500e-01
      1.79687500e-01 0. 0. 0. 4.14062500e-01 5.85937500e-01 0. .Nan .Nan
      .Nan .Nan .Nan .Nan .Nan .Nan .Nan .Nan .Nan .Nan</_>
    <_>
      383. 7.55770264e+01 6.36057434e+01 1.50033936e+02 4.51065277e+02
      4.51065277e+02 1.25065277e+02 1.49869446e+02 0. 0. 0. 1. 0. 0.
      6.52741492e-02 6.13577008e-01 3.21148813e-01 .Nan .Nan .Nan .Nan
      .Nan .Nan .Nan .Nan .Nan .Nan .Nan .Nan</_>
    <_>
      735. 8.69414978e+01 7.12408142e+01 6.27156448e+01 7.69447632e+02
      7.69447632e+02 2.56884346e+01 7.69034042e+01 0. 9.08843517e-01
      9.52380989e-03 0. 8.16326514e-02 0. 5.98639429e-01 3.97278905e-01
      4.08163248e-03 .Nan .Nan .Nan .Nan .Nan .Nan .Nan .Nan .Nan .Nan
      .Nan .Nan</_>
    <_>
      131. 8.08167953e+01 6.39618340e+01 6.06717567e+01 7.17938904e+02
      7.17938904e+02 4.84503822e+01 6.93969498e+01 0. 7.48091578e-01 0.
      0. 2.51908392e-01 0. 6.94656491e-01 3.05343509e-01 0. .Nan .Nan
      .Nan .Nan .Nan .Nan .Nan .Nan .Nan .Nan .Nan .Nan</_>
    <_>
      372. 6.83575287e+01 6.22284927e+01 1.87564514e+02 2.77150536e+01
      2.77150536e+01 1.21935486e+02 1.83994629e+02 0. 0. 0. 1. 0. 0.
      6.18279576e-02 3.33333343e-01 6.04838729e-01 .Nan .Nan .Nan .Nan
      .Nan .Nan .Nan .Nan .Nan .Nan .Nan .Nan</_>
    <_>
      318. 3.14685535e+01 2.58773594e+01 1.16707550e+02 3.66257858e+01
      3.66257858e+01 1.21301888e+02 2.02720123e+02 0. 0. 0. 1. 0. 0.
      3.14465398e-03 1.28930822e-01 8.67924511e-01 .Nan .Nan .Nan .Nan
      .Nan .Nan .Nan .Nan .Nan .Nan .Nan .Nan</_>
    <_>
      281. 5.73416367e+01 4.80640564e+01 1.27366547e+02 4.82309601e+02
      4.82309601e+02 1.23754448e+02 1.59313171e+02 0. 0. 0. 1. 0. 0. 0.
      7.15302467e-01 2.84697503e-01 .Nan .Nan .Nan .Nan .Nan .Nan .Nan
      .Nan .Nan .Nan .Nan .Nan</_>
    <_>
      367. 2.57166214e+01 2.98719349e+01 4.63514977e+01 3.33242512e+00
      3.33242512e+00 1.16114441e+02 1.19297005e+02 0. 1.63487736e-02
      1.38964579e-01 7.71117151e-01 7.35694841e-02 0. 2.47956410e-01
      6.23978198e-01 1.28065392e-01 .Nan .Nan .Nan .Nan .Nan .Nan .Nan
      .Nan .Nan .Nan .Nan .Nan</_>
    <_>
      23763. 4.94446831e+01 4.61689186e+01 1.15657028e+02 1.15469048e+02
      1.15469048e+02 1.20830872e+02 1.54343140e+02 0. 8.37436318e-03
      9.38433688e-03 9.78159308e-01 4.08197613e-03 0. 6.92252666e-02
      5.22535026e-01 4.08239692e-01 .Nan .Nan .Nan .Nan .Nan .Nan .Nan
      .Nan .Nan .Nan .Nan .Nan</_>
    <_>
      303. 1.05066010e+02 9.47524719e+01 1.41161713e+02 2.15409241e+02
      2.15409241e+02 1.28537949e+02 9.23135300e+01 0. 0. 0. 1. 0. 0.
      4.38943893e-01 5.31353116e-01 2.97029708e-02 .Nan .Nan .Nan .Nan
      .Nan .Nan .Nan .Nan .Nan .Nan .Nan .Nan</_>
    <_>
      750. 6.75826645e+01 5.54906654e+01 3.82866669e+01 9.49489319e+02
      9.49489319e+02 2.68759995e+01 1.02375999e+02 0. 8.82666647e-01
      1.17333330e-01 0. 0. 0. 3.33333343e-01 6.52000010e-01
      1.46666663e-02 .Nan .Nan .Nan .Nan .Nan .Nan .Nan .Nan .Nan .Nan
      .Nan .Nan</_>
    <_>
      309. 7.54304199e+01 5.98414230e+01 4.16796112e+01 1.00734302e+03
      1.00734302e+03 2.15210361e+01 1.09220062e+02 0. 9.28802609e-01
      7.11974129e-02 0. 0. 0. 2.39482194e-01 7.57281542e-01
      3.23624606e-03 .Nan .Nan .Nan .Nan .Nan .Nan .Nan .Nan .Nan .Nan
      .Nan .Nan</_>
    <_>
      3997. 9.23587723e+01 7.87112808e+01 1.14594193e+02 1.69826370e+02
      1.69826370e+02 1.33359268e+02 8.57530670e+01 0. 1.05078807e-02 0.
      9.11683738e-01 7.78083578e-02 0. 5.31898916e-01 4.52589452e-01
      1.55116338e-02 .Nan .Nan .Nan .Nan .Nan .Nan .Nan .Nan .Nan .Nan
      .Nan .Nan</_>
    <_>
      124. 8.46128998e+01 62. 8.12500000e+01 5.50822571e+02
      5.50822571e+02 1.28072586e+02 8.66451645e+01 0. 1.77419350e-01 0.
      3.30645174e-01 4.91935492e-01 0. 5.16129017e-01 4.83870953e-01 0.
      .Nan .Nan .Nan .Nan .Nan .Nan .Nan .Nan .Nan .Nan .Nan .Nan</_>
    <_>
      177. 8.25310745e+01 6.32372894e+01 8.01412430e+01 5.14971741e+02
      5.14971741e+02 1.20322037e+02 8.20508499e+01 0. 2.09039554e-01 0.
      3.89830500e-01 4.01129931e-01 0. 6.49717510e-01 3.50282490e-01 0.
      .Nan .Nan .Nan .Nan .Nan .Nan .Nan .Nan .Nan .Nan .Nan .Nan</_>
    <_>
      285. 6.53228073e+01 6.23719292e+01 5.98070183e+01 6.74887695e+02
      6.74887695e+02 6.68666687e+01 4.87473679e+01 0. 5.19298255e-01
      2.14035094e-01 1.36842102e-01 1.29824564e-01 0. 8.98245633e-01
      1.01754382e-01 0. .Nan .Nan .Nan .Nan .Nan .Nan .Nan .Nan .Nan
      .Nan .Nan .Nan</_>
    <_>
      25972. 1.00040619e+02 6.38417931e+01 4.62490768e+01 8.90391663e+02
      8.90391663e+02 1.02860384e+01 1.36314804e+02 0. 9.96342242e-01
      1.30910205e-03 0. 2.34868331e-03 0. 1.03958109e-02 9.87948537e-01
      1.65562914e-03 .Nan .Nan .Nan .Nan .Nan .Nan .Nan .Nan .Nan .Nan
      .Nan .Nan</_>
    <_>
      117. 1.60581192e+02 1.41871796e+02 1.72179489e+02 3.71162384e+02
      3.71162384e+02 1.39136749e+02 4.88974342e+01 0. 0. 0. 1. 0. 0.
      9.31623936e-01 6.83760718e-02 0. .Nan .Nan .Nan .Nan .Nan .Nan
      .Nan .Nan .Nan .Nan .Nan .Nan</_>
    <_>
      176. 7.41306839e+01 6.47329559e+01 7.33409119e+01 6.27982971e+02
      6.27982971e+02 9.08693161e+01 6.47727280e+01 0. 3.23863626e-01
      5.11363633e-02 4.94318187e-01 1.30681813e-01 0. 7.95454562e-01
      2.04545453e-01 0. .Nan .Nan .Nan .Nan .Nan .Nan .Nan .Nan .Nan
      .Nan .Nan .Nan</_>
    <_>
      213. 3.37183113e+01 4.20845070e+01 3.37793427e+01 8.64234741e+02
      8.64234741e+02 6.07042236e+01 7.55868530e+01 0. 2.34741777e-01
      7.65258193e-01 0. 0. 0. 6.90140843e-01 3.09859157e-01 0. .Nan .Nan
      .Nan .Nan .Nan .Nan .Nan .Nan .Nan .Nan .Nan .Nan</_>
    <_>
      153. 7.71830063e+01 6.71764679e+01 1.36215683e+02 9.12026138e+01
      9.12026138e+01 1.24385620e+02 1.39294113e+02 0. 0. 0. 1. 0. 0.
      9.15032700e-02 7.12418318e-01 1.96078435e-01 .Nan .Nan .Nan .Nan
      .Nan .Nan .Nan .Nan .Nan .Nan .Nan .Nan</_>
    <_>
      784. 7.31364822e+01 6.14247437e+01 8.75790787e+01 5.50225769e+02
      5.50225769e+02 1.24993622e+02 8.43341827e+01 0. 9.43877548e-02
      7.65306130e-03 6.91326559e-01 2.06632659e-01 0. 5.65051019e-01
      4.20918375e-01 1.40306121e-02 .Nan .Nan .Nan .Nan .Nan .Nan .Nan
      .Nan .Nan .Nan .Nan .Nan</_>
    <_>
      105. 4.25904770e+01 4.29809532e+01 3.12285709e+01 865. 865.
      3.62000008e+01 7.71904755e+01 0. 9.23809528e-01 7.61904791e-02 0.
      0. 0. 5.90476215e-01 4.09523815e-01 0. .Nan .Nan .Nan .Nan .Nan
      .Nan .Nan .Nan .Nan .Nan .Nan .Nan</_>
    <_>
      989. 8.18958511e+01 5.86177940e+01 4.17532845e+01 8.52579346e+02
      8.52579346e+02 1.43923159e+01 1.19851364e+02 0. 9.95955527e-01
      4.04448947e-03 0. 0. 0. 1.28412545e-01 8.58442843e-01
      1.31445909e-02 .Nan .Nan .Nan .Nan .Nan .Nan .Nan .Nan .Nan .Nan
      .Nan .Nan</_>
    <_>
      105. 5.41333351e+01 4.79523811e+01 8.42285690e+01 2.36514282e+02
      2.36514282e+02 1.26419044e+02 1.09028572e+02 0. 0. 0. 1. 0. 0.
      1.80952385e-01 8.19047630e-01 0. .Nan .Nan .Nan .Nan .Nan .Nan
      .Nan .Nan .Nan .Nan .Nan .Nan</_>
    <_>
      10617. 7.74421234e+01 7.81103897e+01 7.75216141e+01 2.68627289e+02
      2.68627289e+02 6.17459717e+01 7.67140427e+01 0. 4.65385705e-01
      2.51106709e-01 2.70321190e-01 1.31863989e-02 0. 5.99416018e-01
      3.99736285e-01 8.47697083e-04 .Nan .Nan .Nan .Nan .Nan .Nan .Nan
      .Nan .Nan .Nan .Nan .Nan</_>
    <_>
      1103. 7.75222092e+01 5.35203972e+01 4.15031738e+01 9.86310974e+02
      9.86310974e+02 1.26545782e+01 1.14364464e+02 0. 9.87307370e-01
      9.06618312e-03 0. 3.62647325e-03 0. 1.76790565e-01 8.16863120e-01
      6.34632818e-03 .Nan .Nan .Nan .Nan .Nan .Nan .Nan .Nan .Nan .Nan
      .Nan .Nan</_>
    <_>
      139. 8.85611496e+01 6.82805786e+01 6.80143890e+01 5.31661865e+02
      5.31661865e+02 6.41654663e+01 7.91366882e+01 0. 6.33093536e-01 0.
      1.51079133e-01 2.15827331e-01 0. 5.97122312e-01 4.02877688e-01 0.
      .Nan .Nan .Nan .Nan .Nan .Nan .Nan .Nan .Nan .Nan .Nan .Nan</_>
    <_>
      417. 7.01366882e+01 8.29592361e+01 1.22685852e+02 2.81517975e+02
      2.81517975e+02 1.09791367e+02 1.12141487e+02 0. 2.39808150e-02
      2.20623508e-01 7.55395710e-01 0. 0. 1.79856122e-01 8.00959229e-01
      1.91846527e-02 .Nan .Nan .Nan .Nan .Nan .Nan .Nan .Nan .Nan .Nan
      .Nan .Nan</_>
    <_>
      119. 8.06890793e+01 5.79579849e+01 4.46890755e+01 6.40218506e+02
      6.40218506e+02 1.09411764e+01 1.10218491e+02 0. 1. 0. 0. 0. 0.
      1.59663871e-01 8.40336144e-01 0. .Nan .Nan .Nan .Nan .Nan .Nan
      .Nan .Nan .Nan .Nan .Nan .Nan</_>
    <_>
      1889. 6.82567520e+01 5.61847534e+01 5.27009010e+01 5.15315491e+02
      5.15315491e+02 4.03568039e+01 8.80275269e+01 0. 7.33192146e-01
      4.87030186e-02 1.93753302e-01 2.43515093e-02 0. 4.79089469e-01
      5.16146123e-01 4.76442557e-03 .Nan .Nan .Nan .Nan .Nan .Nan .Nan
      .Nan .Nan .Nan .Nan .Nan</_>
    <_>
      1780. 8.91994400e+01 8.26932602e+01 1.07309547e+02 1.94316849e+02
      1.94316849e+02 1.00111237e+02 8.11842728e+01 0. 2.25280896e-01
      8.42696615e-03 7.17977524e-01 4.83146049e-02 0. 5.55617988e-01
      4.30898875e-01 1.34831462e-02 .Nan .Nan .Nan .Nan .Nan .Nan .Nan
      .Nan .Nan .Nan .Nan .Nan</_>
    <_>
      2131. 7.25931473e+01 5.32712326e+01 4.08869057e+01 7.12966675e+02
      7.12966675e+02 1.40164242e+01 1.06819336e+02 0. 9.94838119e-01
      4.69263265e-04 0. 4.69263270e-03 0. 2.24777102e-01 7.75222898e-01
      0. .Nan .Nan .Nan .Nan .Nan .Nan .Nan .Nan .Nan .Nan .Nan .Nan</_>
    <_>
      1519. 8.67689285e+01 7.01889420e+01 6.18775520e+01 4.45878204e+02
      4.45878204e+02 3.62448997e+01 9.06036835e+01 0. 8.12376559e-01
      2.43581310e-02 1.38248846e-01 2.50164587e-02 0. 4.41737980e-01
      5.51678717e-01 6.58327853e-03 .Nan .Nan .Nan .Nan .Nan .Nan .Nan
      .Nan .Nan .Nan .Nan .Nan</_>
    <_>
      217. 7.03179703e+01 5.72027664e+01 5.31428566e+01 5.08202759e+02
      5.08202759e+02 5.45852547e+01 6.55253448e+01 0. 7.09677398e-01 0.
      8.75576064e-02 2.02764973e-01 0. 7.46543765e-01 2.53456235e-01 0.
      .Nan .Nan .Nan .Nan .Nan .Nan .Nan .Nan .Nan .Nan .Nan .Nan</_>
    <_>
      179. 8.63184357e+01 6.49776535e+01 4.94078217e+01 6.76547485e+02
      6.76547485e+02 1.27877092e+01 1.07927376e+02 0. 1. 0. 0. 0. 0.
      2.01117322e-01 7.98882663e-01 0. .Nan .Nan .Nan .Nan .Nan .Nan
      .Nan .Nan .Nan .Nan .Nan .Nan</_>
    <_>
      107. 5.65607491e+01 6.01214943e+01 1.02953270e+02 6.89065399e+01
      6.89065399e+01 1.17700935e+02 1.14130844e+02 0. 0. 9.34579410e-03
      9.90654230e-01 0. 0. 3.55140179e-01 4.76635516e-01 1.68224305e-01
      .Nan .Nan .Nan .Nan .Nan .Nan .Nan .Nan .Nan .Nan .Nan .Nan</_>
    <_>
      295. 1.01447456e+02 9.95694885e+01 1.27128815e+02 1.63433899e+02
      1.63433899e+02 1.20938980e+02 5.81152534e+01 0. 0. 6.10169508e-02
      9.22033906e-01 1.69491526e-02 0. 7.69491553e-01 2.30508476e-01 0.
      .Nan .Nan .Nan .Nan .Nan .Nan .Nan .Nan .Nan .Nan .Nan .Nan</_>
    <_>
      388. 8.87860794e+01 8.05309296e+01 9.21391754e+01 5.37654648e+01
      5.37654648e+01 8.76030960e+01 6.02087631e+01 0. 3.99484545e-01
      2.57731951e-03 4.66494858e-01 1.31443292e-01 0. 8.11855674e-01
      1.70103088e-01 1.80412363e-02 .Nan .Nan .Nan .Nan .Nan .Nan .Nan
      .Nan .Nan .Nan .Nan .Nan</_>
    <_>
      932. 7.54109421e+01 8.06373367e+01 1.01850861e+02 3.81887329e+02
      3.81887329e+02 1.14250000e+02 7.19452820e+01 0. 0. 4.07725312e-02
      9.59227443e-01 0. 0. 7.60729611e-01 2.38197431e-01 1.07296137e-03
      .Nan .Nan .Nan .Nan .Nan .Nan .Nan .Nan .Nan .Nan .Nan .Nan</_>
    <_>
      13366. 9.92089615e+01 6.60867157e+01 4.41109543e+01 1.38766129e+02
      1.38766129e+02 1.22584171e+01 1.41455780e+02 0. 9.98653293e-01
      3.74083495e-04 6.73350296e-04 2.99266801e-04 0. 1.15965884e-02
      9.88029301e-01 3.74083495e-04 .Nan .Nan .Nan .Nan .Nan .Nan .Nan
      .Nan .Nan .Nan .Nan .Nan</_>
    <_>
      1077. 8.46731644e+01 7.91169891e+01 8.60092850e+01 6.11745605e+01
      6.11745605e+01 6.91912689e+01 5.54930344e+01 0. 5.10677814e-01
      9.84215438e-02 3.13834727e-01 7.70659223e-02 0. 8.31012070e-01
      1.42989784e-01 2.59981435e-02 .Nan .Nan .Nan .Nan .Nan .Nan .Nan
      .Nan .Nan .Nan .Nan .Nan</_>
    <_>
      1059. 7.61803589e+01 6.11935806e+01 4.86373940e+01 4.78028320e+02
      4.78028320e+02 2.33437214e+01 9.19338989e+01 0. 9.32011306e-01
      1.88857410e-02 4.34372053e-02 5.66572230e-03 0. 3.95656288e-01
      6.04343712e-01 0. .Nan .Nan .Nan .Nan .Nan .Nan .Nan .Nan .Nan
      .Nan .Nan .Nan</_>
    <_>
      720. 6.53694458e+01 7.24875031e+01 7.76638870e+01 3.21522217e+02
      3.21522217e+02 8.84347229e+01 5.56833344e+01 0. 1.69444442e-01
      3.01388890e-01 5.19444466e-01 9.72222257e-03 0. 8.88888896e-01
      1.11111112e-01 0. .Nan .Nan .Nan .Nan .Nan .Nan .Nan .Nan .Nan
      .Nan .Nan .Nan</_>
    <_>
      221. 5.87737541e+01 6.20723991e+01 7.19637985e+01 3.15619904e+02
      3.15619904e+02 1.11787331e+02 4.70904961e+01 0. 4.52488707e-03
      1.40271500e-01 8.46153855e-01 9.04977415e-03 0. 9.95475113e-01
      4.52488707e-03 0. .Nan .Nan .Nan .Nan .Nan .Nan .Nan .Nan .Nan
      .Nan .Nan .Nan</_>
    <_>
      124. 6.31129036e+01 9.44274216e+01 9.16451645e+01 2.69701599e+02
      2.69701599e+02 8.76128998e+01 8.56371002e+01 0. 0. 1. 0. 0. 0.
      4.91935492e-01 4.91935492e-01 1.61290318e-02 .Nan .Nan .Nan .Nan
      .Nan .Nan .Nan .Nan .Nan .Nan .Nan .Nan</_>
    <_>
      1497. 1.30628586e+02 1.26864395e+02 1.32667999e+02 1.01731665e+03
      1.01731665e+03 8.89539108e+01 4.42772217e+01 0. 2.78557122e-01
      2.43152976e-01 3.64061445e-01 1.14228457e-01 0. 8.84435534e-01
      1.15564466e-01 0. .Nan .Nan .Nan .Nan .Nan .Nan .Nan .Nan .Nan
      .Nan .Nan .Nan</_>
    <_>
      214. 7.03551407e+01 5.99158897e+01 4.62476654e+01 5.09500000e+02
      5.09500000e+02 1.84579449e+01 8.55467300e+01 0. 1. 0. 0. 0. 0.
      4.95327115e-01 5.04672885e-01 0. .Nan .Nan .Nan .Nan .Nan .Nan
      .Nan .Nan .Nan .Nan .Nan .Nan</_>
    <_>
      113. 5.75752220e+01 5.49203529e+01 7.86283188e+01 4.23486725e+02
      4.23486725e+02 1.02486725e+02 9.02743378e+01 0. 1.76991150e-01
      7.07964599e-02 7.16814160e-01 3.53982300e-02 0. 4.86725658e-01
      5.13274312e-01 0. .Nan .Nan .Nan .Nan .Nan .Nan .Nan .Nan .Nan
      .Nan .Nan .Nan</_>
    <_>
      1171. 6.77327042e+01 5.99641342e+01 6.92177658e+01 6.11699409e+01
      6.11699409e+01 8.40085373e+01 8.30700226e+01 0. 4.14175928e-01
      7.68573862e-03 5.11528611e-01 6.66097328e-02 0. 5.34585834e-01
      4.56874460e-01 8.53970926e-03 .Nan .Nan .Nan .Nan .Nan .Nan .Nan
      .Nan .Nan .Nan .Nan .Nan</_>
    <_>
      100. 9.27699966e+01 7.14499969e+01 6.63799973e+01 1.28580002e+02
      1.28580002e+02 5.01699982e+01 9.79800034e+01 0. 6.99999988e-01 0.
      2.09999993e-01 9.00000036e-02 0. 3.10000002e-01 6.89999998e-01 0.
      .Nan .Nan .Nan .Nan .Nan .Nan .Nan .Nan .Nan .Nan .Nan .Nan</_>
    <_>
      3331. 7.66337433e+01 7.12002411e+01 6.97871475e+01 3.08237457e+02
      3.08237457e+02 6.24500160e+01 7.56709671e+01 0. 5.05553901e-01
      1.42900035e-01 3.14920455e-01 3.66256386e-02 0. 6.19333506e-01
      3.80066037e-01 6.00420288e-04 .Nan .Nan .Nan .Nan .Nan .Nan .Nan
      .Nan .Nan .Nan .Nan .Nan</_>
    <_>
      2651. 7.59430389e+01 5.53651466e+01 4.08351555e+01 7.21103760e+02
      7.21103760e+02 1.38370428e+01 1.14772163e+02 0. 9.99622762e-01
      3.77216144e-04 0. 0. 0. 1.21463597e-01 8.78159165e-01
      3.77216144e-04 .Nan .Nan .Nan .Nan .Nan .Nan .Nan .Nan .Nan .Nan
      .Nan .Nan</_>
    <_>
      242. 1.08619835e+02 1.00020660e+02 1.10805786e+02 6.04214859e+01
      6.04214859e+01 7.85206604e+01 5.89834709e+01 0. 4.46280986e-01
      8.26446246e-03 4.33884293e-01 1.11570247e-01 0. 8.34710717e-01
      1.32231399e-01 3.30578499e-02 .Nan .Nan .Nan .Nan .Nan .Nan .Nan
      .Nan .Nan .Nan .Nan .Nan</_>
    <_>
      197. 6.70253830e+01 7.97969513e+01 9.68578644e+01 3.73086304e+02
      3.73086304e+02 1.07045685e+02 8.16040573e+01 0. 0. 2.23350257e-01
      7.76649773e-01 0. 0. 6.44670069e-01 3.55329961e-01 0. .Nan .Nan
      .Nan .Nan .Nan .Nan .Nan .Nan .Nan .Nan .Nan .Nan</_>
    <_>
      318. 7.33490601e+01 8.90094376e+01 8.73867950e+01 2.69283020e+02
      2.69283020e+02 7.11100616e+01 6.94685516e+01 0. 2.51572341e-01
      6.76100612e-01 5.66037744e-02 1.57232713e-02 0. 7.32704401e-01
      2.54716992e-01 1.25786159e-02 .Nan .Nan .Nan .Nan .Nan .Nan .Nan
      .Nan .Nan .Nan .Nan .Nan</_>
    <_>
      33129. 8.89564133e+01 5.80756149e+01 4.19961967e+01 6.17101990e+02
      6.17101990e+02 1.02465515e+01 1.34513092e+02 0. 9.99758542e-01 0.
      0. 2.41480273e-04 0. 7.24440848e-04 9.99275565e-01 0. .Nan .Nan
      .Nan .Nan .Nan .Nan .Nan .Nan .Nan .Nan .Nan .Nan</_>
    <_>
      110. 5.76636353e+01 5.35999985e+01 8.06636353e+01 4.07909088e+01
      4.07909088e+01 1.10081818e+02 9.21454544e+01 0. 1.36363640e-01
      4.54545468e-02 7.72727251e-01 4.54545468e-02 0. 5.63636363e-01
      3.90909106e-01 4.54545468e-02 .Nan .Nan .Nan .Nan .Nan .Nan .Nan
      .Nan .Nan .Nan .Nan .Nan</_>
    <_>
      145. 7.01448288e+01 4.99172401e+01 3.65172424e+01 9.07406921e+02
      9.07406921e+02 1.22137928e+01 1.20303452e+02 0. 1. 0. 0. 0. 0.
      4.13793102e-02 9.58620667e-01 0. .Nan .Nan .Nan .Nan .Nan .Nan
      .Nan .Nan .Nan .Nan .Nan .Nan</_>
    <_>
      244. 6.97500000e+01 5.72377052e+01 4.26680336e+01 5.85864746e+02
      5.85864746e+02 1.95983601e+01 9.45327835e+01 0. 9.95901644e-01
      4.09836043e-03 0. 0. 0. 3.03278685e-01 6.96721315e-01 0. .Nan .Nan
      .Nan .Nan .Nan .Nan .Nan .Nan .Nan .Nan .Nan .Nan</_>
    <_>
      918. 7.52538147e+01 5.50413933e+01 4.16819191e+01 5.10137268e+02
      5.10137268e+02 1.29052286e+01 1.12142700e+02 0. 9.95642722e-01
      4.35729837e-03 0. 0. 0. 8.06100219e-02 9.19389963e-01 0. .Nan .Nan
      .Nan .Nan .Nan .Nan .Nan .Nan .Nan .Nan .Nan .Nan</_>
    <_>
      771. 8.04280167e+01 6.43942947e+01 4.85940323e+01 3.84155640e+02
      3.84155640e+02 2.42217903e+01 9.94941635e+01 0. 8.69001269e-01
      1.15434498e-01 1.55642023e-02 0. 0. 3.04798961e-01 6.95201039e-01
      0. .Nan .Nan .Nan .Nan .Nan .Nan .Nan .Nan .Nan .Nan .Nan .Nan</_>
    <_>
      165. 7.58727264e+01 7.43878784e+01 7.46484833e+01 3.95333344e+02
      3.95333344e+02 8.38363647e+01 5.29090919e+01 0. 3.33333343e-01
      1.33333340e-01 4.30303037e-01 1.03030302e-01 0. 8.42424214e-01
      1.57575756e-01 0. .Nan .Nan .Nan .Nan .Nan .Nan .Nan .Nan .Nan
      .Nan .Nan .Nan</_>
    <_>
      169. 8.40710068e+01 5.96035500e+01 4.51065102e+01 4.34331360e+02
      4.34331360e+02 1.17514791e+01 1.17082840e+02 0. 1. 0. 0. 0. 0.
      5.32544367e-02 9.46745574e-01 0. .Nan .Nan .Nan .Nan .Nan .Nan
      .Nan .Nan .Nan .Nan .Nan .Nan</_>
    <_>
      299. 8.52976608e+01 7.88428116e+01 8.93377914e+01 9.11672211e+01
      9.11672211e+01 1.38862869e+02 4.70769234e+01 0. 0. 0.
      9.46488321e-01 5.35117052e-02 0. 8.69565189e-01 7.35785961e-02
      5.68561889e-02 .Nan .Nan .Nan .Nan .Nan .Nan .Nan .Nan .Nan .Nan
      .Nan .Nan</_>
    <_>
      14468. 1.44501099e+02 1.34108795e+02 1.45451691e+02 1.06762856e+02
      1.06762856e+02 1.47776260e+02 2.21076164e+01 0. 0. 0.
      6.59731805e-01 3.40268165e-01 0. 1. 0. 0. .Nan .Nan .Nan .Nan .Nan
      .Nan .Nan .Nan .Nan .Nan .Nan .Nan</_>
    <_>
      506. 1.17715416e+02 1.15616600e+02 1.26191696e+02 2.15023712e+02
      2.15023712e+02 1.27007904e+02 2.63754940e+01 0. 0. 0. 1. 0. 0.
      9.98023689e-01 1.97628466e-03 0. .Nan .Nan .Nan .Nan .Nan .Nan
      .Nan .Nan .Nan .Nan .Nan .Nan</_>
    <_>
      204. 8.25147095e+01 7.61029434e+01 8.62696075e+01 1.22500000e+02
      1.22500000e+02 1.39568634e+02 3.70098038e+01 0. 0. 0. 1. 0. 0.
      9.41176474e-01 5.88235296e-02 0. .Nan .Nan .Nan .Nan .Nan .Nan
      .Nan .Nan .Nan .Nan .Nan .Nan</_>
    <_>
      196. 9.82091827e+01 9.12448959e+01 1.01382652e+02 1.25500000e+02
      1.25500000e+02 1.41183670e+02 2.60663261e+01 0. 0. 0. 1. 0. 0. 1.
      0. 0. .Nan .Nan .Nan .Nan .Nan .Nan .Nan .Nan .Nan .Nan .Nan .Nan</_>
    <_>
      139. 1.07676262e+02 1.00302155e+02 1.10496407e+02 154. 154.
      1.42230209e+02 2.36402874e+01 0. 0. 0. 1. 0. 0. 1. 0. 0. .Nan .Nan
      .Nan .Nan .Nan .Nan .Nan .Nan .Nan .Nan .Nan .Nan</_>
    <_>
      137. 1.13875916e+02 1.05656937e+02 1.16875916e+02 155. 155.
      1.42167877e+02 2.45839424e+01 0. 0. 0. 1. 0. 0. 1. 0. 0. .Nan .Nan
      .Nan .Nan .Nan .Nan .Nan .Nan .Nan .Nan .Nan .Nan</_>
    <_>
      1722. 1.45459930e+02 1.40513351e+02 1.54188736e+02 3.36667236e+02
      3.36667236e+02 1.32064453e+02 2.45313587e+01 0. 0. 5.80720080e-04
      9.67479646e-01 3.19396034e-02 0. 9.97096419e-01 2.32288032e-03
      5.80720080e-04 .Nan .Nan .Nan .Nan .Nan .Nan .Nan .Nan .Nan .Nan
      .Nan .Nan</_>
    <_>
      316. 1.30199371e+02 1.28253159e+02 1.43756332e+02 3.89490509e+02
      3.89490509e+02 1.23987343e+02 2.78512650e+01 0. 0. 0. 1. 0. 0. 1.
      0. 0. .Nan .Nan .Nan .Nan .Nan .Nan .Nan .Nan .Nan .Nan .Nan .Nan</_>
    <_>
      547. 9.37605133e+01 9.63181000e+01 1.03354660e+02 2.23839130e+01
      2.23839130e+01 1.17645340e+02 3.20274239e+01 0. 0. 2.46800736e-01
      7.27605104e-01 2.55941506e-02 0. 9.76234019e-01 2.37659961e-02 0.
      .Nan .Nan .Nan .Nan .Nan .Nan .Nan .Nan .Nan .Nan .Nan .Nan</_>
    <_>
      425. 1.21087059e+02 1.19291763e+02 1.29028229e+02 8.48658829e+01
      8.48658829e+01 1.26032944e+02 2.52658825e+01 0. 0. 8.94117653e-02
      8.77647042e-01 3.29411775e-02 0. 1. 0. 0. .Nan .Nan .Nan .Nan .Nan
      .Nan .Nan .Nan .Nan .Nan .Nan .Nan</_>
    <_>
      127. 1.37724411e+02 1.30921265e+02 1.37826767e+02 2.50078735e+01
      2.50078735e+01 1.43622040e+02 1.94330711e+01 0. 0. 0.
      4.33070868e-01 5.66929162e-01 0. 1. 0. 0. .Nan .Nan .Nan .Nan .Nan
      .Nan .Nan .Nan .Nan .Nan .Nan .Nan</_>
    <_>
      380. 1.64863159e+02 1.57036835e+02 1.68202637e+02 4.13473694e+02
      4.13473694e+02 1.41236847e+02 1.70842113e+01 0. 0. 0. 1. 0. 0. 1.
      0. 0. .Nan .Nan .Nan .Nan .Nan .Nan .Nan .Nan .Nan .Nan .Nan .Nan</_>
    <_>
      146014. 1.49613770e+02 1.40629410e+02 1.52591644e+02
      3.28494598e+02 3.28494598e+02 1.42790955e+02 2.06873856e+01 0.
      3.42432904e-05 2.73946334e-05 9.29123223e-01 7.08151236e-02 0.
      9.99876738e-01 9.58812161e-05 2.73946334e-05 .Nan .Nan .Nan .Nan
      .Nan .Nan .Nan .Nan .Nan .Nan .Nan .Nan</_>
    <_>
      310. 6.64032288e+01 6.72645187e+01 8.02903214e+01 6.44500000e+02
      6.44500000e+02 1.18267738e+02 5.75387115e+01 0. 0. 3.87096778e-02
      9.61290300e-01 0. 0. 9.03225780e-01 9.67741907e-02 0. .Nan .Nan
      .Nan .Nan .Nan .Nan .Nan .Nan .Nan .Nan .Nan .Nan</_>
    <_>
      145. 1.65248276e+02 1.54034485e+02 1.61731033e+02 4.20620689e+01
      4.20620689e+01 1.58579315e+02 1.86827583e+01 0. 0. 0.
      1.86206892e-01 8.13793123e-01 0. 1. 0. 0. .Nan .Nan .Nan .Nan .Nan
      .Nan .Nan .Nan .Nan .Nan .Nan .Nan</_>
    <_>
      969. 1.03128998e+02 9.97069168e+01 1.13537666e+02 5.96812195e+02
      5.96812195e+02 1.26766769e+02 3.49380798e+01 0. 0. 0. 1. 0. 0.
      9.94840026e-01 5.15995873e-03 0. .Nan .Nan .Nan .Nan .Nan .Nan
      .Nan .Nan .Nan .Nan .Nan .Nan</_>
    <_>
      143. 5.06293716e+01 5.08111877e+01 6.24825172e+01 728. 728.
      1.19545456e+02 5.24125862e+01 0. 0. 0. 1. 0. 0. 1. 0. 0. .Nan .Nan
      .Nan .Nan .Nan .Nan .Nan .Nan .Nan .Nan .Nan .Nan</_>
    <_>
      143. 6.59370651e+01 6.43985977e+01 7.63985977e+01 728. 728.
      1.23846153e+02 4.21328659e+01 0. 0. 0. 1. 0. 0. 1. 0. 0. .Nan .Nan
      .Nan .Nan .Nan .Nan .Nan .Nan .Nan .Nan .Nan .Nan</_>
    <_>
      143. 8.02517471e+01 7.86993027e+01 9.06993027e+01 728. 728.
      1.23881119e+02 3.57412605e+01 0. 0. 0. 1. 0. 0. 1. 0. 0. .Nan .Nan
      .Nan .Nan .Nan .Nan .Nan .Nan .Nan .Nan .Nan .Nan</_>
    <_>
      142. 8.93169022e+01 8.77676086e+01 9.97676086e+01 7.28500000e+02
      7.28500000e+02 1.23873238e+02 3.29436607e+01 0. 0. 0. 1. 0. 0. 1.
      0. 0. .Nan .Nan .Nan .Nan .Nan .Nan .Nan .Nan .Nan .Nan .Nan .Nan</_>
    <_>
      309. 1.16653725e+02 1.13297737e+02 1.26546928e+02 645. 645.
      1.27142395e+02 2.78446598e+01 0. 0. 0. 1. 0. 0. 1. 0. 0. .Nan .Nan
      .Nan .Nan .Nan .Nan .Nan .Nan .Nan .Nan .Nan .Nan</_>
    <_>
      2181. 1.31830811e+02 1.27204033e+02 1.38716644e+02 6.36733582e+02
      6.36733582e+02 1.31573593e+02 2.18528194e+01 0. 0. 4.58505267e-04
      9.99541521e-01 0. 0. 9.99541521e-01 4.58505267e-04 0. .Nan .Nan
      .Nan .Nan .Nan .Nan .Nan .Nan .Nan .Nan .Nan .Nan</_>
    <_>
      284. 8.90211258e+01 8.63732376e+01 9.83732376e+01 7.63975342e+02
      7.63975342e+02 1.26619720e+02 3.20457764e+01 0. 0. 0. 1. 0. 0. 1.
      0. 0. .Nan .Nan .Nan .Nan .Nan .Nan .Nan .Nan .Nan .Nan .Nan .Nan</_>
    <_>
      127. 1.17488190e+02 120. 1.25417320e+02 5.91464539e+02
      5.91464539e+02 1.12039368e+02 2.11181107e+01 0. 0. 2.20472440e-01
      7.79527545e-01 0. 0. 9.84251976e-01 1.57480314e-02 0. .Nan .Nan
      .Nan .Nan .Nan .Nan .Nan .Nan .Nan .Nan .Nan .Nan</_>
    <_>
      854. 1.44101868e+02 1.36605392e+02 1.48394608e+02 7.08550354e+02
      7.08550354e+02 1.39148712e+02 2.06018734e+01 0. 0. 0. 1. 0. 0. 1.
      0. 0. .Nan .Nan .Nan .Nan .Nan .Nan .Nan .Nan .Nan .Nan .Nan .Nan</_>
    <_>
      1974. 1.34961502e+02 1.29078522e+02 1.40316620e+02 4.50271515e+02
      4.50271515e+02 1.35482773e+02 2.23895645e+01 0. 2.53292802e-03
      2.02634255e-03 9.75683868e-01 1.97568387e-02 0. 9.91388023e-01
      5.57244197e-03 3.03951371e-03 .Nan .Nan .Nan .Nan .Nan .Nan .Nan
      .Nan .Nan .Nan .Nan .Nan</_>
    <_>
      135. 1.48392593e+02 1.38392593e+02 1.50392593e+02 7.65748169e+02
      7.65748169e+02 145. 2.04148140e+01 0. 0. 0. 1. 0. 0. 1. 0. 0. .Nan
      .Nan .Nan .Nan .Nan .Nan .Nan .Nan .Nan .Nan .Nan .Nan</_>
    <_>
      395. 1.61536713e+02 1.53288605e+02 1.63349365e+02 2.84012665e+02
      2.84012665e+02 1.45210129e+02 1.61113930e+01 0. 0. 0.
      8.81012678e-01 1.18987344e-01 0. 1. 0. 0. .Nan .Nan .Nan .Nan .Nan
      .Nan .Nan .Nan .Nan .Nan .Nan .Nan</_>
    <_>
      142. 1.61133804e+02 1.52133804e+02 1.65133804e+02 4.82169006e+02
      4.82169006e+02 141. 2.01619720e+01 0. 0. 0. 1. 0. 0. 1. 0. 0. .Nan
      .Nan .Nan .Nan .Nan .Nan .Nan .Nan .Nan .Nan .Nan .Nan</_>
    <_>
      310. 1.63870972e+02 1.55261292e+02 1.67480652e+02 5.17774170e+02
      5.17774170e+02 1.41390320e+02 1.86741943e+01 0. 0. 0. 1. 0. 0. 1.
      0. 0. .Nan .Nan .Nan .Nan .Nan .Nan .Nan .Nan .Nan .Nan .Nan .Nan</_>
    <_>
      560. 1.41741074e+02 1.39248215e+02 1.44046432e+02 7.17962524e+02
      7.17962524e+02 1.19971428e+02 1.40517855e+01 0. 1.16071425e-01
      1.19642854e-01 5.94642878e-01 1.69642851e-01 0. 1. 0. 0. .Nan .Nan
      .Nan .Nan .Nan .Nan .Nan .Nan .Nan .Nan .Nan .Nan</_>
    <_>
      203. 1.69586212e+02 1.63192123e+02 1.72665024e+02 2.35172409e+02
      2.35172409e+02 1.39019699e+02 1.39704437e+01 0. 0. 0. 1. 0. 0. 1.
      0. 0. .Nan .Nan .Nan .Nan .Nan .Nan .Nan .Nan .Nan .Nan .Nan .Nan</_>
    <_>
      1309. 1.73757065e+02 1.64070282e+02 1.75483582e+02 6.46507996e+02
      6.46507996e+02 1.45617264e+02 1.69740257e+01 0. 0. 0.
      9.37356770e-01 6.26432374e-02 0. 1. 0. 0. .Nan .Nan .Nan .Nan .Nan
      .Nan .Nan .Nan .Nan .Nan .Nan .Nan</_>
    <_>
      256. 1.60261719e+02 1.50320312e+02 1.62367188e+02 5.99937500e+02
      5.99937500e+02 1.44785156e+02 2.02695312e+01 0. 0. 0. 1. 0. 0. 1.
      0. 0. .Nan .Nan .Nan .Nan .Nan .Nan .Nan .Nan .Nan .Nan .Nan .Nan</_>
    <_>
      653. 1.62486984e+02 1.48777954e+02 1.59626343e+02 7.67611008e+01
      7.67611008e+01 1.56254211e+02 2.18928032e+01 0. 0. 0.
      1.53139362e-03 9.98468578e-01 0. 1. 0. 0. .Nan .Nan .Nan .Nan .Nan
      .Nan .Nan .Nan .Nan .Nan .Nan .Nan</_>
    <_>
      275. 1.53065460e+02 1.44330902e+02 1.56403641e+02 4.14792725e+02
      4.14792725e+02 1.42021820e+02 1.98690910e+01 0. 0. 0. 1. 0. 0. 1.
      0. 0. .Nan .Nan .Nan .Nan .Nan .Nan .Nan .Nan .Nan .Nan .Nan .Nan</_>
    <_>
      166. 1.40981934e+02 1.36740967e+02 1.47391571e+02 6.23433716e+02
      6.23433716e+02 1.31891571e+02 2.05240955e+01 0. 0. 0. 1. 0. 0. 1.
      0. 0. .Nan .Nan .Nan .Nan .Nan .Nan .Nan .Nan .Nan .Nan .Nan .Nan</_>
    <_>
      1885. 1.31860474e+02 1.24376656e+02 1.38018570e+02 7.30575623e+02
      7.30575623e+02 1.37068970e+02 2.58334217e+01 0. 0. 0. 1. 0. 0. 1.
      0. 0. .Nan .Nan .Nan .Nan .Nan .Nan .Nan .Nan .Nan .Nan .Nan .Nan</_>
    <_>
      666. 1.56241745e+02 1.47403900e+02 1.60045044e+02 6.24064575e+02
      6.24064575e+02 1.41286789e+02 2.02837830e+01 0. 0. 0. 1. 0. 0. 1.
      0. 0. .Nan .Nan .Nan .Nan .Nan .Nan .Nan .Nan .Nan .Nan .Nan .Nan</_>
    <_>
      503. 1.55397614e+02 1.44377731e+02 1.52445328e+02 1.75626240e+01
      1.75626240e+01 1.57673950e+02 1.83717690e+01 0. 0. 0. 0. 1. 0. 1.
      0. 0. .Nan .Nan .Nan .Nan .Nan .Nan .Nan .Nan .Nan .Nan .Nan .Nan</_>
    <_>
      266. 1.60563904e+02 1.51563904e+02 1.64563904e+02 5.21917297e+02
      5.21917297e+02 141. 2.02631588e+01 0. 0. 0. 1. 0. 0. 1. 0. 0. .Nan
      .Nan .Nan .Nan .Nan .Nan .Nan .Nan .Nan .Nan .Nan .Nan</_>
    <_>
      111. 1.63189194e+02 1.49846848e+02 1.60225220e+02 4.40990982e+01
      4.40990982e+01 1.56612610e+02 2.11171169e+01 0. 0. 0. 0. 1. 0. 1.
      0. 0. .Nan .Nan .Nan .Nan .Nan .Nan .Nan .Nan .Nan .Nan .Nan .Nan</_>
    <_>
      267. 1.57093628e+02 1.48086136e+02 1.61086136e+02 6.91243469e+02
      6.91243469e+02 1.41014984e+02 2.06629219e+01 0. 0. 0. 1. 0. 0. 1.
      0. 0. .Nan .Nan .Nan .Nan .Nan .Nan .Nan .Nan .Nan .Nan .Nan .Nan</_>
    <_>
      286. 1.54769226e+02 1.45769226e+02 1.58769226e+02 5.60132874e+02
      5.60132874e+02 141. 2.10909100e+01 0. 0. 0. 1. 0. 0. 1. 0. 0. .Nan
      .Nan .Nan .Nan .Nan .Nan .Nan .Nan .Nan .Nan .Nan .Nan</_>
    <_>
      43327. 6.55697632e+01 6.61062164e+01 8.19883881e+01 6.85435791e+02
      6.85435791e+02 1.20565582e+02 6.31168327e+01 0. 0. 3.00043845e-04
      9.99699950e-01 0. 0. 7.90638626e-01 2.03914419e-01 5.44694997e-03
      .Nan .Nan .Nan .Nan .Nan .Nan .Nan .Nan .Nan .Nan .Nan .Nan</_>
    <_>
      394. 1.44662430e+02 1.31022842e+02 1.41565994e+02 3.58096428e+01
      3.58096428e+01 1.56913712e+02 2.41649742e+01 0. 0. 0. 0. 1. 0. 1.
      0. 0. .Nan .Nan .Nan .Nan .Nan .Nan .Nan .Nan .Nan .Nan .Nan .Nan</_>
    <_>
      331. 1.64549850e+02 1.55087616e+02 1.66818726e+02 2.06410873e+02
      2.06410873e+02 1.44193359e+02 1.80392742e+01 0. 0. 0. 1. 0. 0. 1.
      0. 0. .Nan .Nan .Nan .Nan .Nan .Nan .Nan .Nan .Nan .Nan .Nan .Nan</_>
    <_>
      946. 1.72021149e+02 1.63543335e+02 1.74782242e+02 3.02756866e+02
      3.02756866e+02 1.42716705e+02 1.64746304e+01 0. 0. 0. 1. 0. 0. 1.
      0. 0. .Nan .Nan .Nan .Nan .Nan .Nan .Nan .Nan .Nan .Nan .Nan .Nan</_>
    <_>
      104. 1.19384613e+02 1.11144234e+02 1.23423080e+02 5.76826904e+02
      5.76826904e+02 1.40355774e+02 2.58942299e+01 0. 0. 0. 1. 0. 0. 1.
      0. 0. .Nan .Nan .Nan .Nan .Nan .Nan .Nan .Nan .Nan .Nan .Nan .Nan</_>
    <_>
      1142. 1.62670746e+02 1.54895798e+02 1.66757446e+02 4.19136597e+02
      4.19136597e+02 1.39876526e+02 1.84308224e+01 0. 0. 0. 1. 0. 0. 1.
      0. 0. .Nan .Nan .Nan .Nan .Nan .Nan .Nan .Nan .Nan .Nan .Nan .Nan</_>
    <_>
      198. 1.32202026e+02 1.28202026e+02 1.40202026e+02 4.43434357e+02
      4.43434357e+02 130. 2.28030300e+01 0. 0. 0. 1. 0. 0. 1. 0. 0. .Nan
      .Nan .Nan .Nan .Nan .Nan .Nan .Nan .Nan .Nan .Nan .Nan</_>
    <_>
      837. 1.07491043e+02 1.03044205e+02 1.17534050e+02 5.70397827e+02
      5.70397827e+02 1.29661880e+02 3.23106346e+01 0. 0. 0. 1. 0. 0. 1.
      0. 0. .Nan .Nan .Nan .Nan .Nan .Nan .Nan .Nan .Nan .Nan .Nan .Nan</_>
    <_>
      479. 1.50215027e+02 1.42121078e+02 1.54004181e+02 5.20532349e+02
      5.20532349e+02 1.40659714e+02 1.98642998e+01 0. 0. 0. 1. 0. 0. 1.
      0. 0. .Nan .Nan .Nan .Nan .Nan .Nan .Nan .Nan .Nan .Nan .Nan .Nan</_>
    <_>
      561. 1.61413544e+02 1.46759354e+02 1.59859177e+02 3.97415314e+01
      3.97415314e+01 1.52661316e+02 2.43975048e+01 0. 0. 0.
      5.40106952e-01 4.59893048e-01 0. 1. 0. 0. .Nan .Nan .Nan .Nan .Nan
      .Nan .Nan .Nan .Nan .Nan .Nan .Nan</_>
    <_>
      112. 1.73125000e+02 1.62071426e+02 1.73937500e+02 1.88276779e+02
      1.88276779e+02 1.47642853e+02 1.86339283e+01 0. 0. 0.
      7.76785731e-01 2.23214284e-01 0. 1. 0. 0. .Nan .Nan .Nan .Nan .Nan
      .Nan .Nan .Nan .Nan .Nan .Nan .Nan</_>
    <_>
      3129. 1.67907959e+02 1.54495361e+02 1.62613297e+02 1.03804413e+02
      1.03804413e+02 1.58230423e+02 2.19642067e+01 0. 1.24640465e-02 0.
      2.39693195e-01 7.47842789e-01 0. 9.98402059e-01 1.27836375e-03
      3.19590938e-04 .Nan .Nan .Nan .Nan .Nan .Nan .Nan .Nan .Nan .Nan
      .Nan .Nan</_>
    <_>
      100. 9.79000015e+01 9.35599976e+01 1.04790001e+02 6.59130005e+02
      6.59130005e+02 1.32339996e+02 2.88600006e+01 0. 0. 0. 1. 0. 0. 1.
      0. 0. .Nan .Nan .Nan .Nan .Nan .Nan .Nan .Nan .Nan .Nan .Nan .Nan</_>
    <_>
      530. 1.60235855e+02 1.47713211e+02 1.54166031e+02 2.45905666e+01
      2.45905666e+01 1.63801880e+02 2.07226410e+01 0. 0. 0.
      7.73584917e-02 9.22641516e-01 0. 1. 0. 0. .Nan .Nan .Nan .Nan .Nan
      .Nan .Nan .Nan .Nan .Nan .Nan .Nan</_>
    <_>
      353. 8.06232300e+01 7.64589233e+01 8.85807343e+01 7.29847046e+02
      7.29847046e+02 1.30685547e+02 4.61444740e+01 0. 0. 0.
      9.71671402e-01 2.83286124e-02 0. 9.32011306e-01 5.94900846e-02
      8.49858392e-03 .Nan .Nan .Nan .Nan .Nan .Nan .Nan .Nan .Nan .Nan
      .Nan .Nan</_>
    <_>
      248. 1.62818542e+02 1.51850800e+02 1.62701614e+02 2.87375000e+02
      2.87375000e+02 1.50120972e+02 1.86975803e+01 0. 0. 0.
      5.76612890e-01 4.23387110e-01 0. 1. 0. 0. .Nan .Nan .Nan .Nan .Nan
      .Nan .Nan .Nan .Nan .Nan .Nan .Nan</_>
    <_>
      141. 1.67602844e+02 1.53120575e+02 1.61283691e+02 4.89503555e+01
      4.89503555e+01 1.60539001e+02 2.27588654e+01 0. 0. 0.
      1.27659574e-01 8.72340441e-01 0. 1. 0. 0. .Nan .Nan .Nan .Nan .Nan
      .Nan .Nan .Nan .Nan .Nan .Nan .Nan</_>
    <_>
      241. 7.74066391e+01 7.86970978e+01 9.09916992e+01 7.69734436e+02
      7.69734436e+02 1.17360992e+02 5.69709549e+01 0. 0. 5.39419092e-02
      9.46058095e-01 0. 0. 7.46887982e-01 2.48962656e-01 4.14937781e-03
      .Nan .Nan .Nan .Nan .Nan .Nan .Nan .Nan .Nan .Nan .Nan .Nan</_>
    <_>
      166. 1.42987946e+02 133. 1.44813248e+02 1.72668671e+02
      1.72668671e+02 1.45343369e+02 2.14337349e+01 0. 0. 0. 1. 0. 0. 1.
      0. 0. .Nan .Nan .Nan .Nan .Nan .Nan .Nan .Nan .Nan .Nan .Nan .Nan</_>
    <_>
      190. 1.15847366e+02 1.13578949e+02 1.26510529e+02 5.49636841e+02
      5.49636841e+02 1.25263161e+02 2.78894730e+01 0. 0. 0. 1. 0. 0. 1.
      0. 0. .Nan .Nan .Nan .Nan .Nan .Nan .Nan .Nan .Nan .Nan .Nan .Nan</_>
    <_>
      306. 1.69490189e+02 1.56549026e+02 1.66660126e+02 1.52294113e+02
      1.52294113e+02 1.55003265e+02 2.11437912e+01 0. 0. 0.
      4.67320263e-01 5.32679737e-01 0. 1. 0. 0. .Nan .Nan .Nan .Nan .Nan
      .Nan .Nan .Nan .Nan .Nan .Nan .Nan</_>
    <_>
      122. 8.04098358e+01 7.80491791e+01 9.06967239e+01 6.78950806e+02
      6.78950806e+02 1.25803276e+02 4.18032799e+01 0. 0. 0. 1. 0. 0.
      9.67213094e-01 3.27868834e-02 0. .Nan .Nan .Nan .Nan .Nan .Nan
      .Nan .Nan .Nan .Nan .Nan .Nan</_>
    <_>
      118. 5.78983040e+01 5.51694908e+01 7.22457657e+01 7.79720337e+02
      7.79720337e+02 1.25228813e+02 7.25423737e+01 0. 0. 0. 1. 0. 0.
      7.11864412e-01 2.79661030e-01 8.47457629e-03 .Nan .Nan .Nan .Nan
      .Nan .Nan .Nan .Nan .Nan .Nan .Nan .Nan</_>
    <_>
      250. 6.18639984e+01 6.51959991e+01 8.23519974e+01 6.25851990e+02
      6.25851990e+02 1.17012001e+02 6.74479980e+01 0. 0. 0. 1. 0. 0.
      8.00000012e-01 1.95999995e-01 4.00000019e-03 .Nan .Nan .Nan .Nan
      .Nan .Nan .Nan .Nan .Nan .Nan .Nan .Nan</_>
    <_>
      102. 1.57617645e+02 1.45833328e+02 1.57764709e+02 1.86235291e+02
      1.86235291e+02 1.48696075e+02 2.16372547e+01 0. 0. 0.
      6.47058845e-01 3.52941185e-01 0. 1. 0. 0. .Nan .Nan .Nan .Nan .Nan
      .Nan .Nan .Nan .Nan .Nan .Nan .Nan</_>
    <_>
      121. 131. 1.22578514e+02 1.34520660e+02 4.00446289e+02
      4.00446289e+02 1.41479340e+02 2.28347111e+01 0. 0. 0. 1. 0. 0. 1.
      0. 0. .Nan .Nan .Nan .Nan .Nan .Nan .Nan .Nan .Nan .Nan .Nan .Nan</_>
    <_>
      110. 3.32090912e+01 4.00545464e+01 5.87363625e+01 7.46945435e+02
      7.46945435e+02 1.12099998e+02 1.16763634e+02 0. 0. 0. 1. 0. 0.
      1.27272725e-01 8.36363614e-01 3.63636352e-02 .Nan .Nan .Nan .Nan
      .Nan .Nan .Nan .Nan .Nan .Nan .Nan .Nan</_>
    <_>
      178. 5.00730324e+01 5.83314590e+01 8.10561829e+01 7.94264038e+02
      7.94264038e+02 1.11971909e+02 1.05421349e+02 0. 0. 0. 1. 0. 0.
      2.58426964e-01 7.02247202e-01 3.93258445e-02 .Nan .Nan .Nan .Nan
      .Nan .Nan .Nan .Nan .Nan .Nan .Nan .Nan</_>
    <_>
      142. 1.14507042e+02 1.05302818e+02 1.17359154e+02 5.01218323e+02
      5.01218323e+02 1.43049301e+02 2.76901417e+01 0. 0. 0. 1. 0. 0. 1.
      0. 0. .Nan .Nan .Nan .Nan .Nan .Nan .Nan .Nan .Nan .Nan .Nan .Nan</_>
    <_>
      288. 1.44350693e+02 1.30871521e+02 1.41430557e+02 4.33055573e+01
      4.33055573e+01 1.53840271e+02 2.64062500e+01 0. 0. 0.
      5.06944418e-01 4.93055552e-01 0. 1. 0. 0. .Nan .Nan .Nan .Nan .Nan
      .Nan .Nan .Nan .Nan .Nan .Nan .Nan</_>
    <_>
      121. 1.20181816e+02 1.10570251e+02 1.21892563e+02 9.93388462e+00
      9.93388462e+00 1.45801651e+02 2.44049587e+01 0. 0. 0.
      9.25619841e-01 7.43801668e-02 0. 1. 0. 0. .Nan .Nan .Nan .Nan .Nan
      .Nan .Nan .Nan .Nan .Nan .Nan .Nan</_>
    <_>
      132. 1.18780304e+02 1.08272728e+02 1.21689392e+02 4.67515137e+02
      4.67515137e+02 1.43363632e+02 2.90075760e+01 0. 0. 0. 1. 0. 0. 1.
      0. 0. .Nan .Nan .Nan .Nan .Nan .Nan .Nan .Nan .Nan .Nan .Nan .Nan</_>
    <_>
      100. 1.52160004e+02 1.48190002e+02 1.58169998e+02 1.98399994e+02
      1.98399994e+02 1.31660004e+02 1.66299992e+01 0. 0. 0. 1. 0. 0. 1.
      0. 0. .Nan .Nan .Nan .Nan .Nan .Nan .Nan .Nan .Nan .Nan .Nan .Nan</_>
    <_>
      5902. 1.18516777e+02 1.28829712e+02 1.09632668e+02 6.98256714e+02
      6.98256714e+02 4.42375450e+01 5.89418831e+01 0. 6.00643873e-01
      3.99356157e-01 0. 0. 0. 8.88681829e-01 1.10640459e-01
      6.77736360e-04 .Nan .Nan .Nan .Nan .Nan .Nan .Nan .Nan .Nan .Nan
      .Nan .Nan</_>
    <_>
      585. 8.43829041e+01 1.14888885e+02 1.09348717e+02 4.28666649e+01
      4.28666649e+01 8.51641006e+01 7.15470123e+01 0. 0. 1. 0. 0. 0.
      7.58974373e-01 2.41025642e-01 0. .Nan .Nan .Nan .Nan .Nan .Nan
      .Nan .Nan .Nan .Nan .Nan .Nan</_>
    <_>
      78267. 1.07187141e+02 1.36397491e+02 1.31699280e+02 1.92157715e+02
      1.92157715e+02 8.68139801e+01 5.59631653e+01 0. 9.36537795e-03
      9.77397859e-01 1.25467945e-02 6.89945940e-04 0. 7.63463557e-01
      2.36523688e-01 1.27767771e-05 .Nan .Nan .Nan .Nan .Nan .Nan .Nan
      .Nan .Nan .Nan .Nan .Nan</_>
    <_>
      8312. 1.55999161e+02 1.61511185e+02 1.49457413e+02 4.62668060e+02
      4.62668060e+02 4.66373901e+01 4.21580849e+01 0. 5.34768999e-01
      4.64509130e-01 1.20307988e-04 6.01539970e-04 0. 9.99639094e-01
      3.60923965e-04 0. .Nan .Nan .Nan .Nan .Nan .Nan .Nan .Nan .Nan
      .Nan .Nan .Nan</_>
    <_>
      1463. 1.25943954e+02 1.38920715e+02 1.11632942e+02 5.11573486e+02
      5.11573486e+02 4.33219414e+01 5.97655487e+01 0. 6.84894025e-01
      3.15105945e-01 0. 0. 0. 8.83116901e-01 1.16883114e-01 0. .Nan .Nan
      .Nan .Nan .Nan .Nan .Nan .Nan .Nan .Nan .Nan .Nan</_>
    <_>
      2720. 1.18323532e+02 1.39633087e+02 1.38773163e+02 1.17936394e+02
      1.17936394e+02 8.93419113e+01 4.28551483e+01 0. 5.51470602e-03
      9.84191179e-01 1.02941180e-02 0. 0. 9.65808809e-01 3.41911763e-02
      0. .Nan .Nan .Nan .Nan .Nan .Nan .Nan .Nan .Nan .Nan .Nan .Nan</_>
    <_>
      124. 5.80725822e+01 8.32016144e+01 7.67419357e+01 7.08709641e+01
      7.08709641e+01 8.23709641e+01 8.25887070e+01 0. 0. 1. 0. 0. 0.
      5.48387110e-01 4.51612890e-01 0. .Nan .Nan .Nan .Nan .Nan .Nan
      .Nan .Nan .Nan .Nan .Nan .Nan</_>
    <_>
      200. 9.78399963e+01 1.09745003e+02 113. 5.09000015e+00
      5.09000015e+00 9.56200027e+01 3.40600014e+01 0. 0. 9.70000029e-01
      2.99999993e-02 0. 0. 1. 0. 0. .Nan .Nan .Nan .Nan .Nan .Nan .Nan
      .Nan .Nan .Nan .Nan .Nan</_>
    <_>
      1119. 1.04482574e+02 1.16478104e+02 1.17958000e+02 6.40706024e+01
      6.40706024e+01 8.40196609e+01 3.48882942e+01 0. 1.20643429e-01
      8.58802497e-01 2.05540657e-02 0. 0. 9.79445934e-01 2.05540657e-02
      0. .Nan .Nan .Nan .Nan .Nan .Nan .Nan .Nan .Nan .Nan .Nan .Nan</_>
    <_>
      182. 1.36802200e+02 1.47895599e+02 1.44675827e+02 3.83824188e+02
      3.83824188e+02 6.92087936e+01 2.85054951e+01 0. 2.80219793e-01
      7.19780207e-01 0. 0. 0. 1. 0. 0. .Nan .Nan .Nan .Nan .Nan .Nan
      .Nan .Nan .Nan .Nan .Nan .Nan</_>
    <_>
      361. 7.38476486e+01 1.04878113e+02 1.02301941e+02 2.26592803e+00
      2.26592803e+00 8.80997238e+01 7.67977829e+01 0. 0. 9.88919675e-01
      1.10803321e-02 0. 0. 6.89750671e-01 3.10249299e-01 0. .Nan .Nan
      .Nan .Nan .Nan .Nan .Nan .Nan .Nan .Nan .Nan .Nan</_>
    <_>
      358. 9.59636841e+01 1.06687149e+02 8.29720688e+01 7.70972046e+02
      7.70972046e+02 4.12262573e+01 7.12932968e+01 0. 7.09497213e-01
      2.90502787e-01 0. 0. 0. 7.09497213e-01 2.84916192e-01
      5.58659201e-03 .Nan .Nan .Nan .Nan .Nan .Nan .Nan .Nan .Nan .Nan
      .Nan .Nan</_>
    <_>
      863. 8.28968735e+01 1.03786789e+02 8.63001175e+01 8.71020874e+02
      8.71020874e+02 6.22271156e+01 6.24623413e+01 0. 3.20973337e-01
      6.79026663e-01 0. 0. 0. 8.08806479e-01 1.90034762e-01
      1.15874852e-03 .Nan .Nan .Nan .Nan .Nan .Nan .Nan .Nan .Nan .Nan
      .Nan .Nan</_>
    <_>
      9360. 1.73580978e+02 1.58700211e+02 1.43746048e+02 6.14945312e+02
      6.14945312e+02 2.10755348e+01 4.75034180e+01 0. 8.99465799e-01
      9.87179503e-02 5.34188061e-04 1.28205132e-03 0. 1. 0. 0. .Nan .Nan
      .Nan .Nan .Nan .Nan .Nan .Nan .Nan .Nan .Nan .Nan</_>
    <_>
      114. 1.05175438e+02 1.24868423e+02 1.29587723e+02 3.77701752e+02
      3.77701752e+02 9.55877228e+01 5.38157883e+01 0. 0. 1. 0. 0. 0.
      9.03508782e-01 8.77192989e-02 8.77192989e-03 .Nan .Nan .Nan .Nan
      .Nan .Nan .Nan .Nan .Nan .Nan .Nan .Nan</_>
    <_>
      342. 9.72456131e+01 1.11690056e+02 9.29035110e+01 8.08991211e+02
      8.08991211e+02 5.16812859e+01 6.39122810e+01 0. 5.14619887e-01
      4.85380113e-01 0. 0. 0. 7.45614052e-01 2.45614037e-01
      8.77192989e-03 .Nan .Nan .Nan .Nan .Nan .Nan .Nan .Nan .Nan .Nan
      .Nan .Nan</_>
    <_>
      450. 1.21699997e+02 1.42413330e+02 1.34660004e+02 4.05626678e+02
      4.05626678e+02 6.80333328e+01 4.57355537e+01 0. 2.59999990e-01
      7.40000010e-01 0. 0. 0. 9.51111138e-01 4.88888882e-02 0. .Nan .Nan
      .Nan .Nan .Nan .Nan .Nan .Nan .Nan .Nan .Nan .Nan</_>
    <_>
      243. 1.25168724e+02 1.44769547e+02 1.49374481e+02 9.69382706e+01
      9.69382706e+01 9.55349808e+01 4.13045273e+01 0. 0. 1. 0. 0. 0. 1.
      0. 0. .Nan .Nan .Nan .Nan .Nan .Nan .Nan .Nan .Nan .Nan .Nan .Nan</_>
    <_>
      329. 1.18519760e+02 1.48495438e+02 1.50544067e+02 3.64917938e+02
      3.64917938e+02 9.22310028e+01 5.60243149e+01 0. 0. 1. 0. 0. 0.
      9.66565371e-01 3.34346518e-02 0. .Nan .Nan .Nan .Nan .Nan .Nan
      .Nan .Nan .Nan .Nan .Nan .Nan</_>
    <_>
      929. 9.29634018e+01 1.15659851e+02 1.05171150e+02 9.29103333e+02
      9.29103333e+02 7.52249756e+01 5.49784698e+01 0. 6.02798723e-02
      9.39720154e-01 0. 0. 0. 9.23573732e-01 7.53498375e-02
      1.07642624e-03 .Nan .Nan .Nan .Nan .Nan .Nan .Nan .Nan .Nan .Nan
      .Nan .Nan</_>
    <_>
      11191. 1.75805023e+02 1.68207840e+02 1.56767136e+02 4.28115540e+02
      4.28115540e+02 2.19691715e+01 3.80341339e+01 0. 8.96255910e-01
      1.03654720e-01 0. 8.93575198e-05 0. 9.78822291e-01 2.11777315e-02
      0. .Nan .Nan .Nan .Nan .Nan .Nan .Nan .Nan .Nan .Nan .Nan .Nan</_>
    <_>
      5582. 1.50274460e+02 1.53047653e+02 1.40144211e+02 9.38319763e+02
      9.38319763e+02 4.15627022e+01 4.01162682e+01 0. 5.74346125e-01
      4.24578995e-01 0. 1.07488350e-03 0. 9.99641716e-01 3.58294521e-04
      0. .Nan .Nan .Nan .Nan .Nan .Nan .Nan .Nan .Nan .Nan .Nan .Nan</_>
    <_>
      421. 7.49121170e+01 1.05553444e+02 7.73325424e+01 1.00582898e+03
      1.00582898e+03 6.30095024e+01 8.69406204e+01 0. 9.02612805e-02
      9.09738719e-01 0. 0. 0. 5.32066524e-01 4.44180518e-01
      2.37529688e-02 .Nan .Nan .Nan .Nan .Nan .Nan .Nan .Nan .Nan .Nan
      .Nan .Nan</_>
    <_>
      101231. 1.53950897e+02 1.36551376e+02 1.20376694e+02
      6.25766174e+02 6.25766174e+02 1.44069204e+01 5.55312614e+01 0. 1.
      0. 0. 0. 0. 1. 0. 0. .Nan .Nan .Nan .Nan .Nan .Nan .Nan .Nan .Nan
      .Nan .Nan .Nan</_>
    <_>
      38974. 1.59727310e+02 1.35527451e+02 1.17628647e+02 9.33345398e+02
      9.33345398e+02 1.28216763e+01 6.72361069e+01 0. 1. 0. 0. 0. 0. 1.
      0. 0. .Nan .Nan .Nan .Nan .Nan .Nan .Nan .Nan .Nan .Nan .Nan .Nan</_>
    <_>
      169. 8.20177536e+01 1.36165680e+02 1.16514793e+02 4.57863892e+02
      4.57863892e+02 7.91775131e+01 1.02147926e+02 0. 0. 1. 0. 0. 0.
      4.73372787e-02 9.52662706e-01 0. .Nan .Nan .Nan .Nan .Nan .Nan
      .Nan .Nan .Nan .Nan .Nan .Nan</_>
    <_>
      37002. 1.46071350e+02 1.39931198e+02 1.27086266e+02 2.88556671e+02
      2.88556671e+02 2.41846123e+01 3.42647972e+01 0. 9.70325947e-01
      2.75931023e-02 2.08096858e-03 0. 0. 1. 0. 0. .Nan .Nan .Nan .Nan
      .Nan .Nan .Nan .Nan .Nan .Nan .Nan .Nan</_>
    <_>
      13979. 1.42862930e+02 1.63954788e+02 1.64858139e+02 8.53973816e+02
      8.53973816e+02 5.78587875e+01 6.58572845e+01 0. 4.78718072e-01
      5.13627589e-01 5.50826220e-03 2.14607618e-03 0. 7.01480806e-01
      2.98519194e-01 0. .Nan .Nan .Nan .Nan .Nan .Nan .Nan .Nan .Nan
      .Nan .Nan .Nan</_>
    <_>
      308. 9.05844193e+01 9.91168823e+01 9.79577942e+01 2.75551949e+01
      2.75551949e+01 8.57824707e+01 2.35681820e+01 0. 0. 9.87012982e-01
      1.29870130e-02 0. 0. 1. 0. 0. .Nan .Nan .Nan .Nan .Nan .Nan .Nan
      .Nan .Nan .Nan .Nan .Nan</_>
    <_>
      408. 1.08529411e+02 1.26281860e+02 1.29338242e+02 1.25151962e+02
      1.25151962e+02 9.49264679e+01 4.20661774e+01 0. 0. 9.11764681e-01
      8.82352963e-02 0. 0. 1. 0. 0. .Nan .Nan .Nan .Nan .Nan .Nan .Nan
      .Nan .Nan .Nan .Nan .Nan</_>
    <_>
      135. 1.50037033e+02 1.48977783e+02 1.44066666e+02 7.74718506e+02
      7.74718506e+02 4.62666664e+01 3.01703701e+01 0. 6.07407391e-01
      3.70370358e-01 1.48148146e-02 7.40740728e-03 0. 1. 0. 0. .Nan .Nan
      .Nan .Nan .Nan .Nan .Nan .Nan .Nan .Nan .Nan .Nan</_>
    <_>
      648. 1.15532410e+02 1.37723770e+02 1.33907410e+02 2.53336426e+02
      2.53336426e+02 8.25354919e+01 4.42685204e+01 0. 3.85802463e-02
      9.58333313e-01 3.08641978e-03 0. 0. 9.70678985e-01 2.93209869e-02
      0. .Nan .Nan .Nan .Nan .Nan .Nan .Nan .Nan .Nan .Nan .Nan .Nan</_>
    <_>
      219. 9.77488556e+01 1.38100464e+02 1.26858444e+02 3.10730591e+02
      3.10730591e+02 8.16027374e+01 7.64840164e+01 0. 0. 1. 0. 0. 0.
      7.76255727e-01 2.23744288e-01 0. .Nan .Nan .Nan .Nan .Nan .Nan
      .Nan .Nan .Nan .Nan .Nan .Nan</_>
    <_>
      297. 1.26855217e+02 1.57276093e+02 1.53962967e+02 3.21313141e+02
      3.21313141e+02 8.67272720e+01 4.96599312e+01 0. 0. 1. 0. 0. 0. 1.
      0. 0. .Nan .Nan .Nan .Nan .Nan .Nan .Nan .Nan .Nan .Nan .Nan .Nan</_>
    <_>
      159. 1.10283020e+02 1.27301888e+02 1.22327042e+02 2.00974838e+02
      2.00974838e+02 8.15471725e+01 3.47106934e+01 0. 0. 1. 0. 0. 0. 1.
      0. 0. .Nan .Nan .Nan .Nan .Nan .Nan .Nan .Nan .Nan .Nan .Nan .Nan</_>
    <_>
      381. 9.78582687e+01 1.05643044e+02 1.10821526e+02 3.05275593e+01
      3.05275593e+01 1.02545929e+02 3.13543301e+01 0. 0. 5.11811018e-01
      4.88188982e-01 0. 0. 1. 0. 0. .Nan .Nan .Nan .Nan .Nan .Nan .Nan
      .Nan .Nan .Nan .Nan .Nan</_>
    <_>
      103. 9.33786392e+01 1.03106796e+02 105. 6.31165047e+01
      6.31165047e+01 9.41456299e+01 3.07961159e+01 0. 0. 9.90291238e-01
      9.70873795e-03 0. 0. 9.80582535e-01 1.94174759e-02 0. .Nan .Nan
      .Nan .Nan .Nan .Nan .Nan .Nan .Nan .Nan .Nan .Nan</_>
    <_>
      3029. 1.23679100e+02 1.42707825e+02 1.40485641e+02 3.28758331e+02
      3.28758331e+02 8.39072266e+01 3.67748413e+01 0. 5.01815788e-02
      9.30670202e-01 1.91482343e-02 0. 0. 9.88114893e-01 1.18851103e-02
      0. .Nan .Nan .Nan .Nan .Nan .Nan .Nan .Nan .Nan .Nan .Nan .Nan</_>
    <_>
      235. 1.45446808e+02 1.53263824e+02 151. 8.16131897e+02
      8.16131897e+02 6.47063828e+01 2.63617020e+01 0. 3.91489357e-01
      5.40425539e-01 3.40425521e-02 3.40425521e-02 0. 1. 0. 0. .Nan .Nan
      .Nan .Nan .Nan .Nan .Nan .Nan .Nan .Nan .Nan .Nan</_>
    <_>
      234. 1.08769234e+02 1.27094017e+02 1.31132477e+02 4.72606850e+01
      4.72606850e+01 9.62051315e+01 4.33589745e+01 0. 0. 9.23076928e-01
      7.69230798e-02 0. 0. 1. 0. 0. .Nan .Nan .Nan .Nan .Nan .Nan .Nan
      .Nan .Nan .Nan .Nan .Nan</_>
    <_>
      246. 1.04459351e+02 1.15735771e+02 1.16487808e+02 3.83943100e+01
      3.83943100e+01 9.18252029e+01 3.39634132e+01 0. 0. 8.94308925e-01
      1.05691060e-01 0. 0. 9.55284536e-01 3.25203240e-02 1.21951215e-02
      .Nan .Nan .Nan .Nan .Nan .Nan .Nan .Nan .Nan .Nan .Nan .Nan</_>
    <_>
      465. 1.35363434e+02 1.64952682e+02 1.68784943e+02 8.64604309e+02
      8.64604309e+02 8.32344055e+01 5.05483856e+01 0. 1.13978498e-01
      8.86021495e-01 0. 0. 0. 8.81720424e-01 1.18279569e-01 0. .Nan .Nan
      .Nan .Nan .Nan .Nan .Nan .Nan .Nan .Nan .Nan .Nan</_>
    <_>
      688. 9.37441864e+01 1.07629364e+02 1.05584305e+02 1.56555233e+01
      1.56555233e+01 8.45581360e+01 3.67936058e+01 0. 1.45348841e-02
      9.43313956e-01 4.21511643e-02 0. 0. 9.95639563e-01 4.36046533e-03
      0. .Nan .Nan .Nan .Nan .Nan .Nan .Nan .Nan .Nan .Nan .Nan .Nan</_>
    <_>
      484. 1.52103302e+02 1.72543396e+02 1.75433884e+02 8.86818176e+02
      8.86818176e+02 7.64814072e+01 3.81219025e+01 0. 2.21074387e-01
      7.74793386e-01 4.13223123e-03 0. 0. 9.97933865e-01 2.06611562e-03
      0. .Nan .Nan .Nan .Nan .Nan .Nan .Nan .Nan .Nan .Nan .Nan .Nan</_>
    <_>
      828. 1.34694443e+02 1.51624390e+02 1.48876816e+02 6.72632828e+01
      6.72632828e+01 8.50978241e+01 3.03647346e+01 0. 0. 9.78260875e-01
      2.17391308e-02 0. 0. 9.98792291e-01 1.20772945e-03 0. .Nan .Nan
      .Nan .Nan .Nan .Nan .Nan .Nan .Nan .Nan .Nan .Nan</_>
    <_>
      122. 8.50163956e+01 1.23852463e+02 1.15836067e+02 2.68368866e+02
      2.68368866e+02 8.40655746e+01 8.13442612e+01 0. 0. 1. 0. 0. 0.
      6.06557369e-01 3.85245889e-01 8.19672085e-03 .Nan .Nan .Nan .Nan
      .Nan .Nan .Nan .Nan .Nan .Nan .Nan .Nan</_>
    <_>
      144. 8.42986145e+01 1.07798615e+02 1.06736115e+02 6.36666679e+01
      6.36666679e+01 8.84097214e+01 6.41805573e+01 0. 0. 1. 0. 0. 0.
      8.12500000e-01 1.80555552e-01 6.94444450e-03 .Nan .Nan .Nan .Nan
      .Nan .Nan .Nan .Nan .Nan .Nan .Nan .Nan</_>
    <_>
      206. 9.22135925e+01 1.28199036e+02 1.12500000e+02 2.05145630e+02
      2.05145630e+02 8.18155365e+01 7.34271851e+01 0. 0. 9.22330081e-01
      7.76699036e-02 0. 0. 6.21359229e-01 3.78640771e-01 0. .Nan .Nan
      .Nan .Nan .Nan .Nan .Nan .Nan .Nan .Nan .Nan .Nan</_>
    <_>
      239. 8.78117142e+01 1.27790794e+02 1.05133888e+02 1.72916321e+02
      1.72916321e+02 7.33556519e+01 8.51673660e+01 0. 0. 1. 0. 0. 0.
      5.48117161e-01 4.26778257e-01 2.51046028e-02 .Nan .Nan .Nan .Nan
      .Nan .Nan .Nan .Nan .Nan .Nan .Nan .Nan</_>
    <_>
      183. 1.45371582e+02 1.66683060e+02 1.69131149e+02 9.10540955e+02
      9.10540955e+02 8.19398880e+01 3.75081978e+01 0. 1.53005466e-01
      8.46994519e-01 0. 0. 0. 1. 0. 0. .Nan .Nan .Nan .Nan .Nan .Nan
      .Nan .Nan .Nan .Nan .Nan .Nan</_>
    <_>
      726. 1.19709366e+02 1.37020660e+02 1.36088150e+02 1.42143250e+02
      1.42143250e+02 8.61418762e+01 3.59297523e+01 0. 3.16804424e-02
      9.10468340e-01 5.78512400e-02 0. 0. 9.94490385e-01 5.50964195e-03
      0. .Nan .Nan .Nan .Nan .Nan .Nan .Nan .Nan .Nan .Nan .Nan .Nan</_>
    <_>
      190. 9.07578964e+01 1.23652634e+02 1.20689476e+02 9.56736832e+01
      9.56736832e+01 8.74157867e+01 6.83631592e+01 0. 0. 1. 0. 0. 0.
      7.68421054e-01 2.31578946e-01 0. .Nan .Nan .Nan .Nan .Nan .Nan
      .Nan .Nan .Nan .Nan .Nan .Nan</_>
    <_>
      121. 1.38198349e+02 1.65289261e+02 1.66595047e+02 8.68371887e+02
      8.68371887e+02 7.92561951e+01 4.68512383e+01 0. 1.48760334e-01
      8.42975199e-01 0. 8.26446246e-03 0. 9.17355359e-01 8.26446265e-02
      0. .Nan .Nan .Nan .Nan .Nan .Nan .Nan .Nan .Nan .Nan .Nan .Nan</_>
    <_>
      1032. 1.12363373e+02 1.26154068e+02 1.24678291e+02 5.03992233e+01
      5.03992233e+01 8.43546524e+01 3.32509689e+01 0. 8.23643431e-02
      8.42054248e-01 7.46124014e-02 9.68992244e-04 0. 9.88372087e-01
      1.16279069e-02 0. .Nan .Nan .Nan .Nan .Nan .Nan .Nan .Nan .Nan
      .Nan .Nan .Nan</_>
    <_>
      413. 1.41300247e+02 1.42917679e+02 1.37338989e+02 9.30426147e+02
      9.30426147e+02 4.31041145e+01 4.30145264e+01 0. 6.48910403e-01
      3.43825668e-01 4.84261522e-03 2.42130761e-03 0. 9.75786924e-01
      2.42130756e-02 0. .Nan .Nan .Nan .Nan .Nan .Nan .Nan .Nan .Nan
      .Nan .Nan .Nan</_>
    <_>
      175. 1.85074280e+02 1.75977142e+02 1.62759995e+02 2.73399994e+02
      2.73399994e+02 1.82571430e+01 3.31885719e+01 0. 1. 0. 0. 0. 0. 1.
      0. 0. .Nan .Nan .Nan .Nan .Nan .Nan .Nan .Nan .Nan .Nan .Nan .Nan</_>
    <_>
      142. 1.53232391e+02 1.37408447e+02 1.24098595e+02 6.79225342e+02
      6.79225342e+02 1.37253523e+01 4.91478882e+01 0. 1. 0. 0. 0. 0. 1.
      0. 0. .Nan .Nan .Nan .Nan .Nan .Nan .Nan .Nan .Nan .Nan .Nan .Nan</_>
    <_>
      113. 7.57522125e+01 1.05619469e+02 9.75132751e+01 8.41592884e+00
      8.41592884e+00 8.24867249e+01 7.61858444e+01 0. 0. 1. 0. 0. 0.
      5.39822996e-01 4.60177004e-01 0. .Nan .Nan .Nan .Nan .Nan .Nan
      .Nan .Nan .Nan .Nan .Nan .Nan</_>
    <_>
      479. 9.91148224e+01 1.18419624e+02 1.37260956e+02 3.03576202e+02
      3.03576202e+02 1.13594986e+02 7.01837158e+01 0. 0. 2.19206676e-01
      7.76617944e-01 4.17536544e-03 0. 6.97286010e-01 2.86012530e-01
      1.67014617e-02 .Nan .Nan .Nan .Nan .Nan .Nan .Nan .Nan .Nan .Nan
      .Nan .Nan</_>
    <_>
      549. 8.43315125e+01 1.35375229e+02 1.60234970e+02 3.43517303e+02
      3.43517303e+02 1.05222221e+02 1.18579231e+02 0. 0. 5.71949005e-01
      4.20765013e-01 7.28597445e-03 0. 3.22404385e-01 6.10200346e-01
      6.73952624e-02 .Nan .Nan .Nan .Nan .Nan .Nan .Nan .Nan .Nan .Nan
      .Nan .Nan</_>
    <_>
      553. 8.60632935e+01 1.59658234e+02 1.84249542e+02 4.08338165e+02
      4.08338165e+02 9.82314682e+01 1.35184448e+02 0. 0. 9.18625653e-01
      8.13743249e-02 0. 0. 6.32911399e-02 8.49909604e-01 8.67992789e-02
      .Nan .Nan .Nan .Nan .Nan .Nan .Nan .Nan .Nan .Nan .Nan .Nan</_>
    <_>
      471. 1.00700638e+02 1.94751587e+02 2.22244156e+02 3.24734619e+02
      3.24734619e+02 9.68131638e+01 1.40290863e+02 0. 0. 1. 0. 0. 0. 0.
      9.53290880e-01 4.67091277e-02 .Nan .Nan .Nan .Nan .Nan .Nan .Nan
      .Nan .Nan .Nan .Nan .Nan</_>
    <_>
      741. 9.02024307e+01 1.87878540e+02 2.16168686e+02 3.22425110e+02
      3.22425110e+02 9.67314453e+01 1.50333328e+02 0. 0. 1. 0. 0. 0. 0.
      8.92037809e-01 1.07962213e-01 .Nan .Nan .Nan .Nan .Nan .Nan .Nan
      .Nan .Nan .Nan .Nan .Nan</_>
    <_>
      139. 6.15467644e+01 8.51007156e+01 9.81438828e+01 3.86561157e+02
      3.86561157e+02 1.02014389e+02 1.02410072e+02 0. 0. 5.39568365e-01
      4.46043164e-01 1.43884895e-02 0. 3.52517992e-01 5.68345308e-01
      7.91366920e-02 .Nan .Nan .Nan .Nan .Nan .Nan .Nan .Nan .Nan .Nan
      .Nan .Nan</_>
    <_>
      315. 4.75936508e+01 5.68539696e+01 7.13587265e+01 3.00146027e+02
      3.00146027e+02 1.07409523e+02 1.18301590e+02 0. 5.39682545e-02
      1.46031752e-01 7.74603188e-01 2.53968257e-02 0. 4.47619051e-01
      3.39682549e-01 2.12698415e-01 .Nan .Nan .Nan .Nan .Nan .Nan .Nan
      .Nan .Nan .Nan .Nan .Nan</_>
    <_>
      3041. 5.95465317e+01 7.41065445e+01 9.73607330e+01 3.36305176e+02
      3.36305176e+02 1.07611641e+02 1.09494576e+02 0. 1.34824067e-02
      1.78559691e-01 8.06313694e-01 1.64419599e-03 0. 2.56165743e-01
      6.57020688e-01 8.68135467e-02 .Nan .Nan .Nan .Nan .Nan .Nan .Nan
      .Nan .Nan .Nan .Nan .Nan</_>
    <_>
      388. 5.51907234e+01 1.09819588e+02 1.28752579e+02 3.27742279e+02
      3.27742279e+02 9.81237106e+01 1.48989685e+02 0. 0. 8.68556678e-01
      1.31443292e-01 0. 0. 2.57731955e-02 7.34536111e-01 2.39690721e-01
      .Nan .Nan .Nan .Nan .Nan .Nan .Nan .Nan .Nan .Nan .Nan .Nan</_>
    <_>
      156. 7.13782043e+01 9.98910294e+01 1.23153847e+02 3.35448723e+01
      3.35448723e+01 1.06916664e+02 1.05897438e+02 0. 0. 3.26923072e-01
      6.73076928e-01 0. 0. 3.91025633e-01 5.25641024e-01 8.33333358e-02
      .Nan .Nan .Nan .Nan .Nan .Nan .Nan .Nan .Nan .Nan .Nan .Nan</_>
    <_>
      115. 7.08869553e+01 8.52173920e+01 1.09939133e+02 364. 364.
      1.11086960e+02 8.74347839e+01 0. 0. 8.69565234e-02 9.13043499e-01
      0. 0. 4.34782594e-01 5.65217376e-01 0. .Nan .Nan .Nan .Nan .Nan
      .Nan .Nan .Nan .Nan .Nan .Nan .Nan</_>
    <_>
