%YAML:1.0
region: !!opencv-ml-boost-tree
   boosting_type: DiscreteAdaboost
   splitting_criteria: 3
   ntrees: 100
   weight_trimming_rate: 9.4999999999999996e-01
   is_classifier: 1
   var_all: 81
   var_count: 81
   ord_var_count: 81
   cat_var_count: 0
   training_params:
      use_surrogates: 1
      max_categories: 10
      max_depth: 1
      min_sample_count: 10
      cross_validation_folds: 0
      priors: !!opencv-matrix
         rows: 1
         cols: 2
         dt: d
         data: [ 1., 1. ]
   var_type: [ 0, 0, 0, 0, 0, 0, 0, 0, 0, 0, 0, 0, 0, 0, 0, 0, 0, 0, 0,
       0, 0, 0, 0, 0, 0, 0, 0, 0, 0, 0, 0, 0, 0, 0, 0, 0, 0, 0, 0, 0, 0,
       0, 0, 0, 0, 0, 0, 0, 0, 0, 0, 0, 0, 0, 0, 0, 0, 0, 0, 0, 0, 0, 0,
       0, 0, 0, 0, 0, 0, 0, 0, 0, 0, 0, 0, 0, 0, 0, 0, 0, 0 ]
   cat_count: !!opencv-matrix
      rows: 1
      cols: 1
      dt: i
      data: [ 2 ]
   cat_map: !!opencv-matrix
      rows: 1
      cols: 2
      dt: i
      data: [ -1, 1 ]
   trees:
      -
         best_tree_idx: -1
         nodes:
            -
               depth: 0
               sample_count: 4661
               value: 1.3959770618363869e+00
               norm_class_idx: 1
               Tn: 0
               complexity: 0
               alpha: 0.
               node_risk: 0.
               tree_risk: 0.
               tree_error: 0.
               splits:
                  - { var:10, quality:8.0154472589492798e-01,
                      le:2.6721310615539551e-01 }
            -
               depth: 1
               sample_count: 4637
               value: 1.3959770618363869e+00
               norm_class_idx: 1
               Tn: 0
               complexity: 0
               alpha: 0.
               node_risk: 0.
               tree_risk: 0.
               tree_error: 0.
            -
               depth: 1
               sample_count: 24
               value: -1.3959770618363869e+00
               norm_class_idx: 0
               Tn: 0
               complexity: 0
               alpha: 0.
               node_risk: 0.
               tree_risk: 0.
               tree_error: 0.
      -
         best_tree_idx: -1
         nodes:
            -
               depth: 0
               sample_count: 4661
               value: 7.8943537412068354e-01
               norm_class_idx: 1
               Tn: 0
               complexity: 0
               alpha: 0.
               node_risk: 0.
               tree_risk: 0.
               tree_error: 0.
               splits:
                  - { var:26, quality:6.8771010637283325e-01,
                      le:6.9611959159374237e-02 }
                  - { var:10, quality:5.2416723966598511e-01,
                      le:6.8151399493217468e-02 }
                  - { var:17, quality:5.2034348249435425e-01,
                      gt:4.4012576341629028e-02 }
                  - { var:18, quality:5.1517504453659058e-01,
                      gt:4.7117151319980621e-02 }
                  - { var:16, quality:5.1113361120223999e-01,
                      gt:4.3669082224369049e-02 }
                  - { var:19, quality:5.1112174987792969e-01,
                      gt:4.4087618589401245e-02 }
                  - { var:9, quality:5.0791472196578979e-01,
                      le:3.7846364080905914e-02 }
                  - { var:25, quality:5.0548952817916870e-01,
                      le:5.8906033635139465e-02 }
                  - { var:20, quality:4.8643755912780762e-01,
                      gt:4.7019124031066895e-02 }
                  - { var:15, quality:4.7959449887275696e-01,
                      gt:4.4137939810752869e-02 }
                  - { var:11, quality:4.5298612117767334e-01,
                      le:5.4389316588640213e-02 }
                  - { var:21, quality:4.4731912016868591e-01,
                      gt:4.5970961451530457e-02 }
                  - { var:14, quality:4.3547484278678894e-01,
                      gt:4.6721674501895905e-02 }
                  - { var:24, quality:4.1471996903419495e-01,
                      le:5.0628207623958588e-02 }
                  - { var:22, quality:4.1254544258117676e-01,
                      gt:4.7344651073217392e-02 }
                  - { var:13, quality:3.9945453405380249e-01,
                      gt:5.0857707858085632e-02 }
                  - { var:12, quality:3.8770726323127747e-01,
                      le:4.1119955480098724e-02 }
                  - { var:8, quality:3.7266173958778381e-01,
                      gt:3.3090454526245594e-03 }
                  - { var:5, quality:3.6990666389465332e-01,
                      gt:3.2870806753635406e-03 }
                  - { var:2, quality:3.6811962723731995e-01,
                      gt:3.4807100892066956e-03 }
                  - { var:3, quality:3.6677736043930054e-01,
                      gt:3.4797997213900089e-03 }
                  - { var:4, quality:3.6669716238975525e-01,
                      gt:4.1180886328220367e-03 }
                  - { var:7, quality:3.6664700508117676e-01,
                      gt:3.7089143879711628e-03 }
                  - { var:6, quality:3.6618682742118835e-01,
                      gt:3.3846222795546055e-03 }
                  - { var:23, quality:3.6602315306663513e-01,
                      le:2.1454142406582832e-02 }
                  - { var:1, quality:3.6523777246475220e-01,
                      gt:3.6825849674642086e-03 }
                  - { var:0, quality:3.6402088403701782e-01,
                      le:3.5422774089965969e-05 }
            -
               depth: 1
               sample_count: 2761
               value: 7.8943537412068354e-01
               norm_class_idx: 1
               Tn: 0
               complexity: 0
               alpha: 0.
               node_risk: 0.
               tree_risk: 0.
               tree_error: 0.
            -
               depth: 1
               sample_count: 1900
               value: -7.8943537412068354e-01
               norm_class_idx: 0
               Tn: 0
               complexity: 0
               alpha: 0.
               node_risk: 0.
               tree_risk: 0.
               tree_error: 0.
      -
         best_tree_idx: -1
         nodes:
            -
               depth: 0
               sample_count: 4661
               value: 4.3049813703692885e-01
               norm_class_idx: 1
               Tn: 0
               complexity: 0
               alpha: 0.
               node_risk: 0.
               tree_risk: 0.
               tree_error: 0.
               splits:
                  - { var:11, quality:6.0599261522293091e-01,
                      le:6.5372049808502197e-02 }
                  - { var:10, quality:4.2572775483131409e-01,
                      le:7.7457547187805176e-02 }
                  - { var:12, quality:4.1245535016059875e-01,
                      le:5.6561075150966644e-02 }
                  - { var:18, quality:4.1208931803703308e-01,
                      gt:3.8023278117179871e-02 }
                  - { var:19, quality:4.0620794892311096e-01,
                      gt:3.7628520280122757e-02 }
                  - { var:17, quality:4.0051904320716858e-01,
                      gt:3.7530828267335892e-02 }
                  - { var:20, quality:3.9951494336128235e-01,
                      gt:3.8249991834163666e-02 }
                  - { var:9, quality:3.8518363237380981e-01,
                      le:3.8995064795017242e-02 }
                  - { var:21, quality:3.7846356630325317e-01,
                      gt:3.6752961575984955e-02 }
                  - { var:16, quality:3.7576189637184143e-01,
                      gt:3.3327922224998474e-02 }
                  - { var:26, quality:3.7097844481468201e-01,
                      le:9.7373865544795990e-02 }
                  - { var:13, quality:3.6819037795066833e-01,
                      le:6.6770493984222412e-02 }
                  - { var:7, quality:3.6159041523933411e-01,
                      le:4.5272400602698326e-03 }
                  - { var:25, quality:3.6064681410789490e-01,
                      le:7.0406302809715271e-02 }
                  - { var:4, quality:3.5999950766563416e-01,
                      le:4.7478573396801949e-03 }
                  - { var:3, quality:3.5985508561134338e-01,
                      gt:1.2862745279562660e-05 }
                  - { var:1, quality:3.5985508561134338e-01,
                      gt:1.3837874575983733e-05 }
                  - { var:0, quality:3.5977995395660400e-01,
                      le:7.1091661229729652e-03 }
                  - { var:6, quality:3.5970675945281982e-01,
                      le:6.4709861762821674e-03 }
                  - { var:2, quality:3.5968977212905884e-01,
                      le:6.9568324834108353e-03 }
                  - { var:5, quality:3.5961461067199707e-01,
                      gt:1.1332183930790052e-05 }
                  - { var:8, quality:3.5955992341041565e-01,
                      le:6.9045843556523323e-03 }
            -
               depth: 1
               sample_count: 3163
               value: 4.3049813703692885e-01
               norm_class_idx: 1
               Tn: 0
               complexity: 0
               alpha: 0.
               node_risk: 0.
               tree_risk: 0.
               tree_error: 0.
            -
               depth: 1
               sample_count: 1498
               value: -4.3049813703692885e-01
               norm_class_idx: 0
               Tn: 0
               complexity: 0
               alpha: 0.
               node_risk: 0.
               tree_risk: 0.
               tree_error: 0.
      -
         best_tree_idx: -1
         nodes:
            -
               depth: 0
               sample_count: 4661
               value: -3.1670815028037674e-01
               norm_class_idx: 0
               Tn: 0
               complexity: 0
               alpha: 0.
               node_risk: 0.
               tree_risk: 0.
               tree_error: 0.
               splits:
                  - { var:25, quality:5.7852178812026978e-01,
                      le:5.8828230947256088e-02 }
                  - { var:26, quality:4.0456321835517883e-01,
                      le:6.4013764262199402e-02 }
                  - { var:24, quality:3.9377912878990173e-01,
                      le:5.0787448883056641e-02 }
                  - { var:18, quality:3.8742136955261230e-01,
                      gt:5.4670192301273346e-02 }
                  - { var:17, quality:3.8460531830787659e-01,
                      gt:5.2395924925804138e-02 }
                  - { var:16, quality:3.6871853470802307e-01,
                      gt:4.8692226409912109e-02 }
                  - { var:19, quality:3.6247482895851135e-01,
                      gt:5.2178040146827698e-02 }
                  - { var:10, quality:3.5493621230125427e-01,
                      le:5.5958129465579987e-02 }
                  - { var:23, quality:3.5269173979759216e-01,
                      le:4.0596928447484970e-02 }
                  - { var:15, quality:3.5235038399696350e-01,
                      gt:4.9971714615821838e-02 }
                  - { var:20, quality:3.4894374012947083e-01,
                      gt:4.6134673058986664e-02 }
                  - { var:9, quality:3.4647336602210999e-01,
                      le:3.1905829906463623e-02 }
                  - { var:11, quality:3.4476292133331299e-01,
                      le:4.9845427274703979e-02 }
                  - { var:14, quality:3.2854220271110535e-01,
                      gt:5.5252205580472946e-02 }
                  - { var:12, quality:3.2793968915939331e-01,
                      le:3.9036907255649567e-02 }
                  - { var:22, quality:3.2152029871940613e-01,
                      le:2.9667779803276062e-02 }
                  - { var:0, quality:3.1493997573852539e-01,
                      gt:1.1582169681787491e-03 }
                  - { var:21, quality:3.1428068876266479e-01,
                      gt:5.7428762316703796e-02 }
                  - { var:6, quality:3.1388843059539795e-01,
                      gt:1.1027019936591387e-03 }
                  - { var:2, quality:3.1344363093376160e-01,
                      gt:1.1902574915438890e-03 }
                  - { var:8, quality:3.1216380000114441e-01,
                      gt:1.2520760064944625e-03 }
                  - { var:13, quality:3.1091347336769104e-01,
                      gt:5.5701706558465958e-02 }
                  - { var:5, quality:3.0931940674781799e-01,
                      gt:1.2875442625954747e-03 }
                  - { var:1, quality:3.0778875946998596e-01,
                      gt:1.4080503024160862e-03 }
                  - { var:4, quality:3.0768001079559326e-01,
                      gt:1.2953524710610509e-03 }
                  - { var:3, quality:3.0764862895011902e-01,
                      gt:2.0523979328572750e-03 }
                  - { var:7, quality:3.0712038278579712e-01,
                      gt:1.9788451027125120e-03 }
            -
               depth: 1
               sample_count: 2780
               value: 3.1670815028037674e-01
               norm_class_idx: 1
               Tn: 0
               complexity: 0
               alpha: 0.
               node_risk: 0.
               tree_risk: 0.
               tree_error: 0.
            -
               depth: 1
               sample_count: 1881
               value: -3.1670815028037674e-01
               norm_class_idx: 0
               Tn: 0
               complexity: 0
               alpha: 0.
               node_risk: 0.
               tree_risk: 0.
               tree_error: 0.
      -
         best_tree_idx: -1
         nodes:
            -
               depth: 0
               sample_count: 4661
               value: -2.1546320344399500e-01
               norm_class_idx: 0
               Tn: 0
               complexity: 0
               alpha: 0.
               node_risk: 0.
               tree_risk: 0.
               tree_error: 0.
               splits:
                  - { var:26, quality:5.5365836620330811e-01,
                      le:6.9287598133087158e-02 }
                  - { var:10, quality:4.0647652745246887e-01,
                      le:6.8682923913002014e-02 }
                  - { var:17, quality:4.0180212259292603e-01,
                      gt:4.7499731183052063e-02 }
                  - { var:16, quality:3.9956134557723999e-01,
                      gt:4.3669082224369049e-02 }
                  - { var:9, quality:3.9735692739486694e-01,
                      le:3.7846364080905914e-02 }
                  - { var:18, quality:3.9527773857116699e-01,
                      gt:5.0204694271087646e-02 }
                  - { var:25, quality:3.9227765798568726e-01,
                      le:5.8906033635139465e-02 }
                  - { var:19, quality:3.8867384195327759e-01,
                      gt:4.4087618589401245e-02 }
                  - { var:15, quality:3.8185057044029236e-01,
                      gt:4.7261331230401993e-02 }
                  - { var:20, quality:3.8027995824813843e-01,
                      gt:4.6773619949817657e-02 }
                  - { var:14, quality:3.5159960389137268e-01,
                      gt:5.0267376005649567e-02 }
                  - { var:21, quality:3.5152405500411987e-01,
                      gt:4.5970961451530457e-02 }
                  - { var:11, quality:3.4689608216285706e-01,
                      le:5.1276773214340210e-02 }
                  - { var:22, quality:3.3443555235862732e-01,
                      gt:4.7344651073217392e-02 }
                  - { var:13, quality:3.2902941107749939e-01,
                      gt:5.3649041801691055e-02 }
                  - { var:24, quality:3.2091137766838074e-01,
                      le:3.8058623671531677e-02 }
                  - { var:12, quality:3.0204424262046814e-01,
                      gt:9.0068742632865906e-02 }
                  - { var:1, quality:3.0144146084785461e-01,
                      le:8.4177139797247946e-05 }
                  - { var:5, quality:3.0101951956748962e-01,
                      le:8.8773813331499696e-05 }
                  - { var:3, quality:3.0097830295562744e-01,
                      le:8.5401108663063496e-05 }
                  - { var:4, quality:3.0080664157867432e-01,
                      le:8.3263017586432397e-05 }
                  - { var:7, quality:3.0078577995300293e-01,
                      le:8.2886523159686476e-05 }
                  - { var:8, quality:3.0060327053070068e-01,
                      le:7.6855809311382473e-05 }
                  - { var:2, quality:3.0043157935142517e-01,
                      le:7.1335103712044656e-05 }
                  - { var:6, quality:3.0034893751144409e-01,
                      le:7.7707998570986092e-05 }
                  - { var:0, quality:3.0028107762336731e-01,
                      le:6.9128946051932871e-05 }
                  - { var:23, quality:2.9888582229614258e-01,
                      gt:5.3041037172079086e-02 }
            -
               depth: 1
               sample_count: 2742
               value: -2.1546320344399500e-01
               norm_class_idx: 0
               Tn: 0
               complexity: 0
               alpha: 0.
               node_risk: 0.
               tree_risk: 0.
               tree_error: 0.
            -
               depth: 1
               sample_count: 1919
               value: 2.1546320344399500e-01
               norm_class_idx: 1
               Tn: 0
               complexity: 0
               alpha: 0.
               node_risk: 0.
               tree_risk: 0.
               tree_error: 0.
      -
         best_tree_idx: -1
         nodes:
            -
               depth: 0
               sample_count: 4656
               value: -2.9600586198451478e-01
               norm_class_idx: 0
               Tn: 0
               complexity: 0
               alpha: 0.
               node_risk: 0.
               tree_risk: 0.
               tree_error: 0.
               splits:
                  - { var:19, quality:5.7334047555923462e-01,
                      le:4.6886816620826721e-02 }
                  - { var:17, quality:4.4031476974487305e-01,
                      le:4.6527087688446045e-02 }
                  - { var:20, quality:4.3816274404525757e-01,
                      le:4.7019124031066895e-02 }
                  - { var:10, quality:4.2778724431991577e-01,
                      gt:6.5715812146663666e-02 }
                  - { var:18, quality:4.1669854521751404e-01,
                      le:4.9509659409523010e-02 }
                  - { var:9, quality:4.1285586357116699e-01,
                      gt:3.8787133991718292e-02 }
                  - { var:26, quality:4.0644520521163940e-01,
                      gt:6.1047472059726715e-02 }
                  - { var:16, quality:4.0430679917335510e-01,
                      le:4.4287316501140594e-02 }
                  - { var:21, quality:3.9745900034904480e-01,
                      le:4.7277960926294327e-02 }
                  - { var:15, quality:3.8157635927200317e-01,
                      le:4.8874191939830780e-02 }
                  - { var:11, quality:3.8145172595977783e-01,
                      gt:5.8487676084041595e-02 }
                  - { var:25, quality:3.6609613895416260e-01,
                      gt:4.5913275331258774e-02 }
                  - { var:22, quality:3.6452043056488037e-01,
                      le:5.0606615841388702e-02 }
                  - { var:1, quality:3.5060036182403564e-01,
                      le:5.2500348538160324e-03 }
                  - { var:5, quality:3.5024639964103699e-01,
                      le:4.6868687495589256e-03 }
                  - { var:7, quality:3.5003110766410828e-01,
                      le:4.8936791718006134e-03 }
                  - { var:0, quality:3.4956166148185730e-01,
                      gt:6.9128946051932871e-05 }
                  - { var:4, quality:3.4955033659934998e-01,
                      le:5.4269493557512760e-03 }
                  - { var:8, quality:3.4929969906806946e-01,
                      gt:8.7839769548736513e-05 }
                  - { var:6, quality:3.4895026683807373e-01,
                      gt:7.7707998570986092e-05 }
                  - { var:14, quality:3.4869590401649475e-01,
                      le:1.3689243793487549e-01 }
            -
               depth: 1
               sample_count: 2262
               value: -2.9600586198451478e-01
               norm_class_idx: 0
               Tn: 0
               complexity: 0
               alpha: 0.
               node_risk: 0.
               tree_risk: 0.
               tree_error: 0.
            -
               depth: 1
               sample_count: 2394
               value: 2.9600586198451478e-01
               norm_class_idx: 1
               Tn: 0
               complexity: 0
               alpha: 0.
               node_risk: 0.
               tree_risk: 0.
               tree_error: 0.
      -
         best_tree_idx: -1
         nodes:
            -
               depth: 0
               sample_count: 4659
               value: 1.7425131550641207e-01
               norm_class_idx: 1
               Tn: 0
               complexity: 0
               alpha: 0.
               node_risk: 0.
               tree_risk: 0.
               tree_error: 0.
               splits:
                  - { var:24, quality:5.4339832067489624e-01,
                      le:5.1579646766185760e-02 }
                  - { var:23, quality:3.8044533133506775e-01,
                      le:4.3354380875825882e-02 }
                  - { var:25, quality:3.6562612652778625e-01,
                      le:6.0905568301677704e-02 }
                  - { var:22, quality:3.4936523437500000e-01,
                      le:3.8753911852836609e-02 }
                  - { var:18, quality:3.3036771416664124e-01,
                      gt:6.9305218756198883e-02 }
                  - { var:21, quality:3.2558462023735046e-01,
                      le:3.5103932023048401e-02 }
                  - { var:17, quality:3.1952050328254700e-01,
                      gt:5.2653580904006958e-02 }
                  - { var:9, quality:3.1809720396995544e-01,
                      gt:7.5376778841018677e-02 }
                  - { var:26, quality:3.1714949011802673e-01,
                      le:5.0337851047515869e-02 }
                  - { var:12, quality:3.0752059817314148e-01,
                      le:4.3423432856798172e-02 }
                  - { var:10, quality:3.0473312735557556e-01,
                      gt:1.1632184684276581e-01 }
                  - { var:13, quality:3.0390408635139465e-01,
                      le:4.2906947433948517e-02 }
                  - { var:19, quality:3.0152547359466553e-01,
                      gt:6.2319733202457428e-02 }
                  - { var:20, quality:3.0056697130203247e-01,
                      le:2.8041128069162369e-02 }
                  - { var:11, quality:3.0023291707038879e-01,
                      le:4.6741109341382980e-02 }
                  - { var:16, quality:2.9794809222221375e-01,
                      gt:4.8692226409912109e-02 }
                  - { var:14, quality:2.9560503363609314e-01,
                      le:2.8345298022031784e-02 }
                  - { var:0, quality:2.9532542824745178e-01,
                      gt:8.6578004993498325e-04 }
                  - { var:2, quality:2.9367822408676147e-01,
                      gt:1.1539601255208254e-03 }
                  - { var:6, quality:2.9367527365684509e-01,
                      gt:9.1498781694099307e-04 }
                  - { var:15, quality:2.9339367151260376e-01,
                      gt:5.8133278042078018e-02 }
                  - { var:4, quality:2.9305914044380188e-01,
                      gt:8.0216629430651665e-04 }
                  - { var:8, quality:2.9303210973739624e-01,
                      gt:1.2049279175698757e-03 }
                  - { var:1, quality:2.9284396767616272e-01,
                      gt:8.5240224143490195e-04 }
                  - { var:5, quality:2.9173466563224792e-01,
                      gt:9.5966958906501532e-04 }
                  - { var:3, quality:2.9062286019325256e-01,
                      gt:8.6338049732148647e-04 }
                  - { var:7, quality:2.9027414321899414e-01,
                      gt:4.9832323566079140e-04 }
            -
               depth: 1
               sample_count: 2704
               value: 1.7425131550641207e-01
               norm_class_idx: 1
               Tn: 0
               complexity: 0
               alpha: 0.
               node_risk: 0.
               tree_risk: 0.
               tree_error: 0.
            -
               depth: 1
               sample_count: 1955
               value: -1.7425131550641207e-01
               norm_class_idx: 0
               Tn: 0
               complexity: 0
               alpha: 0.
               node_risk: 0.
               tree_risk: 0.
               tree_error: 0.
      -
         best_tree_idx: -1
         nodes:
            -
               depth: 0
               sample_count: 4659
               value: 1.5346731799386606e-01
               norm_class_idx: 1
               Tn: 0
               complexity: 0
               alpha: 0.
               node_risk: 0.
               tree_risk: 0.
               tree_error: 0.
               splits:
                  - { var:12, quality:5.3829169273376465e-01,
                      le:5.7339869439601898e-02 }
                  - { var:13, quality:3.7385329604148865e-01,
                      le:5.1101930439472198e-02 }
                  - { var:11, quality:3.6487859487533569e-01,
                      le:8.0878332257270813e-02 }
                  - { var:14, quality:3.4536269307136536e-01,
                      le:6.4012199640274048e-02 }
                  - { var:2, quality:3.3663105964660645e-01,
                      gt:6.9673760663135909e-06 }
                  - { var:4, quality:3.3655345439910889e-01,
                      le:5.2632912993431091e-03 }
                  - { var:6, quality:3.3644512295722961e-01,
                      gt:1.0311490768799558e-05 }
                  - { var:7, quality:3.3630266785621643e-01,
                      gt:9.1708225227193907e-06 }
                  - { var:5, quality:3.3628728985786438e-01,
                      gt:7.0723208409617655e-06 }
                  - { var:3, quality:3.3628728985786438e-01,
                      gt:6.8035515141673386e-06 }
                  - { var:1, quality:3.3628728985786438e-01,
                      gt:7.0021787905716337e-06 }
                  - { var:8, quality:3.3622643351554871e-01,
                      gt:1.2170241461717524e-05 }
                  - { var:0, quality:3.3594727516174316e-01,
                      gt:3.7647187127731740e-06 }
                  - { var:15, quality:3.3554440736770630e-01,
                      le:8.9330881834030151e-02 }
                  - { var:16, quality:3.3491408824920654e-01,
                      le:2.1967363357543945e-01 }
            -
               depth: 1
               sample_count: 3210
               value: 1.5346731799386606e-01
               norm_class_idx: 1
               Tn: 0
               complexity: 0
               alpha: 0.
               node_risk: 0.
               tree_risk: 0.
               tree_error: 0.
            -
               depth: 1
               sample_count: 1449
               value: -1.5346731799386606e-01
               norm_class_idx: 0
               Tn: 0
               complexity: 0
               alpha: 0.
               node_risk: 0.
               tree_risk: 0.
               tree_error: 0.
      -
         best_tree_idx: -1
         nodes:
            -
               depth: 0
               sample_count: 4660
               value: -1.6163848448214121e-01
               norm_class_idx: 0
               Tn: 0
               complexity: 0
               alpha: 0.
               node_risk: 0.
               tree_risk: 0.
               tree_error: 0.
               splits:
                  - { var:0, quality:5.4026740789413452e-01,
                      le:2.1634607110172510e-03 }
                  - { var:6, quality:5.0484532117843628e-01,
                      le:2.5565908290445805e-03 }
                  - { var:2, quality:5.0435340404510498e-01,
                      le:2.4645566008985043e-03 }
                  - { var:8, quality:4.9065598845481873e-01,
                      le:2.5758431293070316e-03 }
                  - { var:4, quality:4.5847484469413757e-01,
                      le:2.9263203032314777e-03 }
                  - { var:1, quality:4.5698893070220947e-01,
                      le:2.9011797159910202e-03 }
                  - { var:3, quality:4.5440739393234253e-01,
                      le:2.9003429226577282e-03 }
                  - { var:5, quality:4.5439127087593079e-01,
                      le:2.9646973125636578e-03 }
                  - { var:7, quality:4.5231565833091736e-01,
                      le:2.9360852204263210e-03 }
                  - { var:17, quality:4.0528714656829834e-01,
                      gt:9.8089855164289474e-03 }
                  - { var:18, quality:4.0453824400901794e-01,
                      gt:9.2952596023678780e-03 }
                  - { var:16, quality:4.0395605564117432e-01,
                      gt:4.7558648511767387e-03 }
                  - { var:13, quality:4.0361985564231873e-01,
                      gt:9.0362261980772018e-03 }
                  - { var:23, quality:4.0337258577346802e-01,
                      gt:9.2880148440599442e-03 }
                  - { var:15, quality:4.0325212478637695e-01,
                      gt:1.0012531653046608e-02 }
                  - { var:22, quality:4.0308371186256409e-01,
                      gt:9.9668875336647034e-03 }
                  - { var:12, quality:4.0287187695503235e-01,
                      gt:9.4563178718090057e-03 }
                  - { var:21, quality:4.0214204788208008e-01,
                      gt:2.1586034563370049e-04 }
                  - { var:19, quality:4.0158438682556152e-01,
                      gt:1.0793017281685024e-04 }
                  - { var:14, quality:4.0152484178543091e-01,
                      gt:7.4350470677018166e-03 }
                  - { var:11, quality:4.0133723616600037e-01,
                      gt:9.5465937629342079e-03 }
                  - { var:20, quality:4.0107199549674988e-01,
                      gt:9.4538237899541855e-03 }
                  - { var:25, quality:4.0051028132438660e-01,
                      gt:1.8528055399656296e-02 }
                  - { var:24, quality:4.0034201741218567e-01,
                      gt:1.0018061846494675e-02 }
                  - { var:26, quality:4.0010401606559753e-01,
                      le:2.0256447792053223e-01 }
                  - { var:9, quality:3.9896276593208313e-01,
                      gt:5.2521011093631387e-04 }
                  - { var:10, quality:3.9858111739158630e-01,
                      gt:2.7749515720643103e-04 }
            -
               depth: 1
               sample_count: 3383
               value: -1.6163848448214121e-01
               norm_class_idx: 0
               Tn: 0
               complexity: 0
               alpha: 0.
               node_risk: 0.
               tree_risk: 0.
               tree_error: 0.
            -
               depth: 1
               sample_count: 1277
               value: 1.6163848448214121e-01
               norm_class_idx: 1
               Tn: 0
               complexity: 0
               alpha: 0.
               node_risk: 0.
               tree_risk: 0.
               tree_error: 0.
      -
         best_tree_idx: -1
         nodes:
            -
               depth: 0
               sample_count: 4393
               value: 1.8728647317942798e-01
               norm_class_idx: 1
               Tn: 0
               complexity: 0
               alpha: 0.
               node_risk: 0.
               tree_risk: 0.
               tree_error: 0.
               splits:
                  - { var:7, quality:5.4340708255767822e-01,
                      le:2.2266455926001072e-03 }
                  - { var:1, quality:5.2862286567687988e-01,
                      le:2.2937715984880924e-03 }
                  - { var:5, quality:5.2846455574035645e-01,
                      le:2.2686999291181564e-03 }
                  - { var:3, quality:5.2582615613937378e-01,
                      le:2.2401968017220497e-03 }
                  - { var:4, quality:5.2575391530990601e-01,
                      le:2.2710524499416351e-03 }
                  - { var:8, quality:5.0593465566635132e-01,
                      le:1.9496274180710316e-03 }
                  - { var:6, quality:4.9329200387001038e-01,
                      le:1.9271320197731256e-03 }
                  - { var:2, quality:4.9149695038795471e-01,
                      le:2.0691389217972755e-03 }
                  - { var:0, quality:4.5783171057701111e-01,
                      le:1.5380084514617920e-03 }
                  - { var:12, quality:3.5937905311584473e-01,
                      gt:3.0538894236087799e-02 }
                  - { var:21, quality:3.5909229516983032e-01,
                      gt:1.9876956939697266e-02 }
                  - { var:14, quality:3.5846689343452454e-01,
                      gt:2.0007506012916565e-02 }
                  - { var:18, quality:3.5820969939231873e-01,
                      gt:9.3567371368408203e-03 }
                  - { var:16, quality:3.5782092809677124e-01,
                      gt:1.0389680042862892e-02 }
                  - { var:13, quality:3.5755282640457153e-01,
                      gt:2.0216617733240128e-02 }
                  - { var:17, quality:3.5743167996406555e-01,
                      gt:1.0948941111564636e-02 }
                  - { var:23, quality:3.5736754536628723e-01,
                      gt:1.6420405358076096e-02 }
                  - { var:19, quality:3.5663023591041565e-01,
                      gt:1.0169520974159241e-02 }
                  - { var:22, quality:3.5587987303733826e-01,
                      le:6.9554790854454041e-02 }
                  - { var:15, quality:3.5419023036956787e-01,
                      gt:1.9872613251209259e-02 }
                  - { var:25, quality:3.5409331321716309e-01,
                      gt:3.0011545866727829e-02 }
                  - { var:20, quality:3.5358658432960510e-01,
                      gt:9.4538237899541855e-03 }
                  - { var:9, quality:3.5227084159851074e-01,
                      gt:2.0040160045027733e-02 }
                  - { var:24, quality:3.5190966725349426e-01,
                      le:8.8673017919063568e-02 }
                  - { var:11, quality:3.5055768489837646e-01,
                      le:1.0251155495643616e-01 }
                  - { var:26, quality:3.4749898314476013e-01,
                      le:1.6638419032096863e-01 }
                  - { var:10, quality:3.4550687670707703e-01,
                      le:2.0121338963508606e-01 }
            -
               depth: 1
               sample_count: 2967
               value: 1.8728647317942798e-01
               norm_class_idx: 1
               Tn: 0
               complexity: 0
               alpha: 0.
               node_risk: 0.
               tree_risk: 0.
               tree_error: 0.
            -
               depth: 1
               sample_count: 1426
               value: -1.8728647317942798e-01
               norm_class_idx: 0
               Tn: 0
               complexity: 0
               alpha: 0.
               node_risk: 0.
               tree_risk: 0.
               tree_error: 0.
      -
         best_tree_idx: -1
         nodes:
            -
               depth: 0
               sample_count: 3794
               value: -1.3869520691325449e-01
               norm_class_idx: 0
               Tn: 0
               complexity: 0
               alpha: 0.
               node_risk: 0.
               tree_risk: 0.
               tree_error: 0.
               splits:
                  - { var:11, quality:5.3461831808090210e-01,
                      le:6.8434610962867737e-02 }
                  - { var:10, quality:3.7502297759056091e-01,
                      le:9.0127006173133850e-02 }
                  - { var:12, quality:3.5894599556922913e-01,
                      le:6.5355628728866577e-02 }
                  - { var:18, quality:3.5738828778266907e-01,
                      gt:3.7466831505298615e-02 }
                  - { var:19, quality:3.4841734170913696e-01,
                      gt:3.4370988607406616e-02 }
                  - { var:17, quality:3.4664437174797058e-01,
                      gt:3.4565329551696777e-02 }
                  - { var:20, quality:3.4656098484992981e-01,
                      gt:3.7684373557567596e-02 }
                  - { var:21, quality:3.4078758955001831e-01,
                      gt:3.7017952650785446e-02 }
                  - { var:13, quality:3.3550074696540833e-01,
                      le:9.0194746851921082e-02 }
                  - { var:9, quality:3.3400562405586243e-01,
                      le:4.6237826347351074e-02 }
                  - { var:16, quality:3.3362913131713867e-01,
                      gt:2.0367467775940895e-02 }
                  - { var:2, quality:3.2958593964576721e-01,
                      le:6.9431615993380547e-03 }
                  - { var:7, quality:3.2952955365180969e-01,
                      le:5.2998987957835197e-03 }
                  - { var:0, quality:3.2951191067695618e-01,
                      le:5.6556342169642448e-03 }
                  - { var:8, quality:3.2942056655883789e-01,
                      le:6.9045843556523323e-03 }
                  - { var:6, quality:3.2930484414100647e-01,
                      le:6.6047683358192444e-03 }
                  - { var:4, quality:3.2929286360740662e-01,
                      le:5.4643019102513790e-03 }
                  - { var:5, quality:3.2926315069198608e-01,
                      le:5.8029992505908012e-03 }
                  - { var:3, quality:3.2926315069198608e-01,
                      le:6.1459634453058243e-03 }
                  - { var:1, quality:3.2918730378150940e-01,
                      le:6.0435943305492401e-03 }
            -
               depth: 1
               sample_count: 2470
               value: -1.3869520691325449e-01
               norm_class_idx: 0
               Tn: 0
               complexity: 0
               alpha: 0.
               node_risk: 0.
               tree_risk: 0.
               tree_error: 0.
            -
               depth: 1
               sample_count: 1324
               value: 1.3869520691325449e-01
               norm_class_idx: 1
               Tn: 0
               complexity: 0
               alpha: 0.
               node_risk: 0.
               tree_risk: 0.
               tree_error: 0.
      -
         best_tree_idx: -1
         nodes:
            -
               depth: 0
               sample_count: 4001
               value: -1.1114507512780424e-01
               norm_class_idx: 0
               Tn: 0
               complexity: 0
               alpha: 0.
               node_risk: 0.
               tree_risk: 0.
               tree_error: 0.
               splits:
                  - { var:26, quality:5.2769798040390015e-01,
                      le:6.9287598133087158e-02 }
                  - { var:10, quality:3.8685548305511475e-01,
                      le:6.8151399493217468e-02 }
                  - { var:16, quality:3.8202801346778870e-01,
                      gt:4.3669082224369049e-02 }
                  - { var:17, quality:3.8089933991432190e-01,
                      gt:4.7499731183052063e-02 }
                  - { var:9, quality:3.7859401106834412e-01,
                      le:3.7846364080905914e-02 }
                  - { var:18, quality:3.7397736310958862e-01,
                      gt:5.0123933702707291e-02 }
                  - { var:15, quality:3.7048718333244324e-01,
                      gt:4.8801019787788391e-02 }
                  - { var:19, quality:3.6796957254409790e-01,
                      gt:4.4087618589401245e-02 }
                  - { var:25, quality:3.6588993668556213e-01,
                      le:5.8906033635139465e-02 }
                  - { var:20, quality:3.6443513631820679e-01,
                      gt:4.6773619949817657e-02 }
                  - { var:14, quality:3.4265559911727905e-01,
                      gt:5.0188891589641571e-02 }
                  - { var:21, quality:3.4093528985977173e-01,
                      gt:4.5970961451530457e-02 }
                  - { var:11, quality:3.2690930366516113e-01,
                      le:5.1276773214340210e-02 }
                  - { var:22, quality:3.2683557271957397e-01,
                      gt:4.7344651073217392e-02 }
                  - { var:13, quality:3.2411196827888489e-01,
                      gt:5.3649041801691055e-02 }
                  - { var:24, quality:3.0768778920173645e-01,
                      le:3.8058623671531677e-02 }
                  - { var:12, quality:3.0175155401229858e-01,
                      gt:9.1864317655563354e-02 }
                  - { var:1, quality:3.0077448487281799e-01,
                      le:8.4177139797247946e-05 }
                  - { var:5, quality:3.0037537217140198e-01,
                      le:8.8773813331499696e-05 }
                  - { var:7, quality:3.0028355121612549e-01,
                      le:8.2886523159686476e-05 }
                  - { var:3, quality:3.0026119947433472e-01,
                      le:8.5401108663063496e-05 }
                  - { var:4, quality:3.0025553703308105e-01,
                      le:8.3263017586432397e-05 }
                  - { var:8, quality:3.0022823810577393e-01,
                      le:6.9626257754862309e-05 }
                  - { var:2, quality:3.0011841654777527e-01,
                      le:7.1335103712044656e-05 }
                  - { var:6, quality:2.9961454868316650e-01,
                      le:7.7707998570986092e-05 }
                  - { var:0, quality:2.9894217848777771e-01,
                      le:6.9128946051932871e-05 }
                  - { var:23, quality:2.9633182287216187e-01,
                      gt:6.7600205540657043e-02 }
            -
               depth: 1
               sample_count: 2083
               value: -1.1114507512780424e-01
               norm_class_idx: 0
               Tn: 0
               complexity: 0
               alpha: 0.
               node_risk: 0.
               tree_risk: 0.
               tree_error: 0.
            -
               depth: 1
               sample_count: 1918
               value: 1.1114507512780424e-01
               norm_class_idx: 1
               Tn: 0
               complexity: 0
               alpha: 0.
               node_risk: 0.
               tree_risk: 0.
               tree_error: 0.
      -
         best_tree_idx: -1
         nodes:
            -
               depth: 0
               sample_count: 3999
               value: -1.0242027417274993e-01
               norm_class_idx: 0
               Tn: 0
               complexity: 0
               alpha: 0.
               node_risk: 0.
               tree_risk: 0.
               tree_error: 0.
               splits:
                  - { var:0, quality:5.2337545156478882e-01,
                      le:2.6889012660831213e-03 }
                  - { var:2, quality:4.9725899100303650e-01,
                      le:3.0889525078237057e-03 }
                  - { var:6, quality:4.9412089586257935e-01,
                      le:2.9096966609358788e-03 }
                  - { var:8, quality:4.7883495688438416e-01,
                      le:3.0846837908029556e-03 }
                  - { var:1, quality:4.4410002231597900e-01,
                      le:3.3236742019653320e-03 }
                  - { var:3, quality:4.4332769513130188e-01,
                      le:3.4841964952647686e-03 }
                  - { var:7, quality:4.4318059086799622e-01,
                      le:3.3802809193730354e-03 }
                  - { var:4, quality:4.4310978055000305e-01,
                      le:3.4544789232313633e-03 }
                  - { var:5, quality:4.4310718774795532e-01,
                      le:3.1790826469659805e-03 }
                  - { var:23, quality:4.2007839679718018e-01,
                      gt:9.2880148440599442e-03 }
                  - { var:16, quality:4.1953018307685852e-01,
                      gt:3.6426432779990137e-04 }
                  - { var:18, quality:4.1929301619529724e-01,
                      gt:9.9800399038940668e-04 }
                  - { var:15, quality:4.1909432411193848e-01,
                      gt:2.2935161541681737e-04 }
                  - { var:12, quality:4.1855955123901367e-01,
                      gt:4.1822940693236887e-04 }
                  - { var:17, quality:4.1849815845489502e-01,
                      gt:1.3491271238308400e-04 }
                  - { var:11, quality:4.1840147972106934e-01,
                      gt:1.2911824509501457e-02 }
                  - { var:14, quality:4.1749593615531921e-01,
                      gt:6.7456357646733522e-04 }
                  - { var:19, quality:4.1745859384536743e-01,
                      gt:1.0793017281685024e-04 }
                  - { var:22, quality:4.1711464524269104e-01,
                      le:1.0694749653339386e-01 }
                  - { var:13, quality:4.1682913899421692e-01,
                      gt:8.6771566420793533e-03 }
                  - { var:24, quality:4.1669905185699463e-01,
                      gt:5.7017542421817780e-03 }
                  - { var:10, quality:4.1657042503356934e-01,
                      le:3.2197493314743042e-01 }
                  - { var:9, quality:4.1655483841896057e-01,
                      le:4.8666143417358398e-01 }
                  - { var:26, quality:4.1652068495750427e-01,
                      le:2.6170954108238220e-01 }
                  - { var:25, quality:4.1652053594589233e-01,
                      le:1.9040879607200623e-01 }
                  - { var:20, quality:4.1640633344650269e-01,
                      gt:4.5870323083363473e-04 }
            -
               depth: 1
               sample_count: 3066
               value: -1.0242027417274993e-01
               norm_class_idx: 0
               Tn: 0
               complexity: 0
               alpha: 0.
               node_risk: 0.
               tree_risk: 0.
               tree_error: 0.
            -
               depth: 1
               sample_count: 933
               value: 1.0242027417274993e-01
               norm_class_idx: 1
               Tn: 0
               complexity: 0
               alpha: 0.
               node_risk: 0.
               tree_risk: 0.
               tree_error: 0.
      -
         best_tree_idx: -1
         nodes:
            -
               depth: 0
               sample_count: 4443
               value: 2.3368116963095065e-01
               norm_class_idx: 1
               Tn: 0
               complexity: 0
               alpha: 0.
               node_risk: 0.
               tree_risk: 0.
               tree_error: 0.
               splits:
                  - { var:18, quality:5.4498273134231567e-01,
                      le:3.9608903229236603e-02 }
                  - { var:17, quality:4.0629491209983826e-01,
                      le:3.4693565219640732e-02 }
                  - { var:19, quality:4.0349787473678589e-01,
                      le:3.5733066499233246e-02 }
                  - { var:10, quality:4.0106424689292908e-01,
                      gt:8.5568830370903015e-02 }
                  - { var:26, quality:4.0038910508155823e-01,
                      gt:8.5867144167423248e-02 }
                  - { var:16, quality:3.8804787397384644e-01,
                      le:3.3251121640205383e-02 }
                  - { var:20, quality:3.8748228549957275e-01,
                      le:3.3462904393672943e-02 }
                  - { var:9, quality:3.8209715485572815e-01,
                      gt:5.0185825675725937e-02 }
                  - { var:11, quality:3.7213405966758728e-01,
                      gt:7.6422542333602905e-02 }
                  - { var:15, quality:3.6942949891090393e-01,
                      le:3.1457535922527313e-02 }
                  - { var:25, quality:3.6614203453063965e-01,
                      gt:7.3110938072204590e-02 }
                  - { var:21, quality:3.6130595207214355e-01,
                      le:3.2813936471939087e-02 }
                  - { var:14, quality:3.4512850642204285e-01,
                      le:3.2573118805885315e-02 }
                  - { var:22, quality:3.4420946240425110e-01,
                      le:2.9377460479736328e-02 }
                  - { var:0, quality:3.3024585247039795e-01,
                      gt:2.4298015050590038e-03 }
                  - { var:13, quality:3.2978028059005737e-01,
                      le:2.5041807442903519e-02 }
                  - { var:12, quality:3.2746228575706482e-01,
                      gt:6.7196458578109741e-02 }
                  - { var:23, quality:3.2601171731948853e-01,
                      le:2.0696794614195824e-02 }
                  - { var:24, quality:3.2577243447303772e-01,
                      gt:7.4154160916805267e-02 }
                  - { var:2, quality:3.2535704970359802e-01,
                      gt:2.8244410641491413e-03 }
                  - { var:6, quality:3.2432094216346741e-01,
                      gt:2.7081272564828396e-03 }
                  - { var:4, quality:3.2136875391006470e-01,
                      gt:3.6300611682236195e-03 }
                  - { var:1, quality:3.2055509090423584e-01,
                      gt:4.4476385228335857e-03 }
                  - { var:8, quality:3.2041338086128235e-01,
                      gt:2.8842114843428135e-03 }
                  - { var:7, quality:3.1877151131629944e-01,
                      gt:3.1679316889494658e-03 }
                  - { var:3, quality:3.1874135136604309e-01,
                      gt:4.6419054269790649e-03 }
                  - { var:5, quality:3.1813186407089233e-01,
                      gt:4.8296954482793808e-03 }
            -
               depth: 1
               sample_count: 1453
               value: -2.3368116963095065e-01
               norm_class_idx: 0
               Tn: 0
               complexity: 0
               alpha: 0.
               node_risk: 0.
               tree_risk: 0.
               tree_error: 0.
            -
               depth: 1
               sample_count: 2990
               value: 2.3368116963095065e-01
               norm_class_idx: 1
               Tn: 0
               complexity: 0
               alpha: 0.
               node_risk: 0.
               tree_risk: 0.
               tree_error: 0.
      -
         best_tree_idx: -1
         nodes:
            -
               depth: 0
               sample_count: 3854
               value: -9.6247923818031295e-02
               norm_class_idx: 0
               Tn: 0
               complexity: 0
               alpha: 0.
               node_risk: 0.
               tree_risk: 0.
               tree_error: 0.
               splits:
                  - { var:26, quality:5.2344769239425659e-01,
                      le:6.8402126431465149e-02 }
                  - { var:10, quality:3.8722756505012512e-01,
                      le:6.7140132188796997e-02 }
                  - { var:16, quality:3.8025650382041931e-01,
                      gt:4.3669082224369049e-02 }
                  - { var:17, quality:3.7916177511215210e-01,
                      gt:4.7499731183052063e-02 }
                  - { var:9, quality:3.7849229574203491e-01,
                      le:3.7846364080905914e-02 }
                  - { var:18, quality:3.7228751182556152e-01,
                      gt:5.5563855916261673e-02 }
                  - { var:15, quality:3.6989709734916687e-01,
                      gt:4.8801019787788391e-02 }
                  - { var:20, quality:3.6513885855674744e-01,
                      gt:4.8320297151803970e-02 }
                  - { var:19, quality:3.6342820525169373e-01,
                      gt:4.5648477971553802e-02 }
                  - { var:25, quality:3.6211115121841431e-01,
                      le:5.6721396744251251e-02 }
                  - { var:14, quality:3.4621423482894897e-01,
                      gt:5.0267376005649567e-02 }
                  - { var:21, quality:3.4004595875740051e-01,
                      gt:4.5970961451530457e-02 }
                  - { var:11, quality:3.2818567752838135e-01,
                      le:5.1276773214340210e-02 }
                  - { var:22, quality:3.2795849442481995e-01,
                      gt:4.7344651073217392e-02 }
                  - { var:13, quality:3.2565125823020935e-01,
                      gt:6.0730975121259689e-02 }
                  - { var:24, quality:3.0866482853889465e-01,
                      le:1.8829934298992157e-02 }
                  - { var:12, quality:3.0611672997474670e-01,
                      gt:9.1864317655563354e-02 }
                  - { var:1, quality:3.0492302775382996e-01,
                      le:8.4177139797247946e-05 }
                  - { var:5, quality:3.0456900596618652e-01,
                      le:8.8773813331499696e-05 }
                  - { var:3, quality:3.0444106459617615e-01,
                      le:8.5401108663063496e-05 }
                  - { var:7, quality:3.0441471934318542e-01,
                      le:8.2886523159686476e-05 }
                  - { var:4, quality:3.0441293120384216e-01,
                      le:8.3263017586432397e-05 }
                  - { var:8, quality:3.0431738495826721e-01,
                      le:6.9626257754862309e-05 }
                  - { var:2, quality:3.0424195528030396e-01,
                      le:7.1335103712044656e-05 }
                  - { var:6, quality:3.0379292368888855e-01,
                      le:7.7707998570986092e-05 }
                  - { var:0, quality:3.0308023095130920e-01,
                      le:6.9128946051932871e-05 }
                  - { var:23, quality:3.0108568072319031e-01,
                      gt:6.7600205540657043e-02 }
            -
               depth: 1
               sample_count: 1884
               value: -9.6247923818031295e-02
               norm_class_idx: 0
               Tn: 0
               complexity: 0
               alpha: 0.
               node_risk: 0.
               tree_risk: 0.
               tree_error: 0.
            -
               depth: 1
               sample_count: 1970
               value: 9.6247923818031295e-02
               norm_class_idx: 1
               Tn: 0
               complexity: 0
               alpha: 0.
               node_risk: 0.
               tree_risk: 0.
               tree_error: 0.
      -
         best_tree_idx: -1
         nodes:
            -
               depth: 0
               sample_count: 4441
               value: 1.4921847379822184e-01
               norm_class_idx: 1
               Tn: 0
               complexity: 0
               alpha: 0.
               node_risk: 0.
               tree_risk: 0.
               tree_error: 0.
               splits:
                  - { var:16, quality:5.2689921855926514e-01,
                      le:3.0605999752879143e-02 }
                  - { var:17, quality:4.2656493186950684e-01,
                      le:2.8464587405323982e-02 }
                  - { var:15, quality:4.1867378354072571e-01,
                      le:2.9641015455126762e-02 }
                  - { var:19, quality:4.1215550899505615e-01,
                      le:2.7654672041535378e-02 }
                  - { var:20, quality:4.0982556343078613e-01,
                      le:2.3350432515144348e-02 }
                  - { var:26, quality:4.0842100977897644e-01,
                      gt:9.7117662429809570e-02 }
                  - { var:18, quality:4.0823799371719360e-01,
                      le:2.6472546160221100e-02 }
                  - { var:10, quality:4.0805181860923767e-01,
                      gt:1.0900165885686874e-01 }
                  - { var:9, quality:4.0708547830581665e-01,
                      gt:7.0419512689113617e-02 }
                  - { var:14, quality:3.9445540308952332e-01,
                      le:2.8711633756756783e-02 }
                  - { var:21, quality:3.9186257123947144e-01,
                      le:2.6189442723989487e-02 }
                  - { var:22, quality:3.8913610577583313e-01,
                      le:2.7832560241222382e-02 }
                  - { var:13, quality:3.7799108028411865e-01,
                      le:2.5928389281034470e-02 }
                  - { var:25, quality:3.7020593881607056e-01,
                      gt:8.9458175003528595e-02 }
                  - { var:23, quality:3.6715841293334961e-01,
                      le:1.5131073072552681e-02 }
                  - { var:11, quality:3.6353984475135803e-01,
                      gt:9.9263712763786316e-02 }
                  - { var:12, quality:3.6194518208503723e-01,
                      le:1.4606159180402756e-02 }
                  - { var:24, quality:3.5918578505516052e-01,
                      le:2.8368851635605097e-03 }
                  - { var:3, quality:3.5574650764465332e-01,
                      gt:5.1234671846032143e-03 }
                  - { var:7, quality:3.5563468933105469e-01,
                      gt:4.8274993896484375e-03 }
                  - { var:5, quality:3.5501289367675781e-01,
                      gt:5.2905152551829815e-03 }
                  - { var:8, quality:3.5500863194465637e-01,
                      gt:5.7745305821299553e-03 }
                  - { var:6, quality:3.5492521524429321e-01,
                      gt:4.6515623107552528e-03 }
                  - { var:0, quality:3.5492181777954102e-01,
                      gt:3.2334057614207268e-03 }
                  - { var:2, quality:3.5444054007530212e-01,
                      gt:6.1161573976278305e-03 }
            -
               depth: 1
               sample_count: 1182
               value: -1.4921847379822184e-01
               norm_class_idx: 0
               Tn: 0
               complexity: 0
               alpha: 0.
               node_risk: 0.
               tree_risk: 0.
               tree_error: 0.
            -
               depth: 1
               sample_count: 3259
               value: 1.4921847379822184e-01
               norm_class_idx: 1
               Tn: 0
               complexity: 0
               alpha: 0.
               node_risk: 0.
               tree_risk: 0.
               tree_error: 0.
      -
         best_tree_idx: -1
         nodes:
            -
               depth: 0
               sample_count: 3832
               value: -9.1382562360742214e-02
               norm_class_idx: 0
               Tn: 0
               complexity: 0
               alpha: 0.
               node_risk: 0.
               tree_risk: 0.
               tree_error: 0.
               splits:
                  - { var:0, quality:5.1943534612655640e-01,
                      le:4.6603903174400330e-03 }
                  - { var:2, quality:5.1358914375305176e-01,
                      le:4.7940919175744057e-03 }
                  - { var:6, quality:5.1003891229629517e-01,
                      le:4.3160174973309040e-03 }
                  - { var:8, quality:5.0814688205718994e-01,
                      le:4.7175916843116283e-03 }
                  - { var:7, quality:4.9534887075424194e-01,
                      le:5.2781328558921814e-03 }
                  - { var:1, quality:4.9528217315673828e-01,
                      le:5.3618280217051506e-03 }
                  - { var:4, quality:4.9462339282035828e-01,
                      le:5.4043801501393318e-03 }
                  - { var:10, quality:4.9452936649322510e-01,
                      le:3.5822755098342896e-01 }
                  - { var:25, quality:4.9407744407653809e-01,
                      le:2.4001705646514893e-01 }
                  - { var:3, quality:4.9406245350837708e-01,
                      le:5.7843327522277832e-03 }
                  - { var:5, quality:4.9405094981193542e-01,
                      le:5.4595093242824078e-03 }
                  - { var:15, quality:4.9401551485061646e-01,
                      le:3.2401639223098755e-01 }
                  - { var:16, quality:4.9400687217712402e-01,
                      le:3.6081880331039429e-01 }
                  - { var:26, quality:4.9397477507591248e-01,
                      le:3.5710832476615906e-01 }
                  - { var:17, quality:4.9395617842674255e-01,
                      le:2.9296875000000000e-01 }
                  - { var:14, quality:4.9395492672920227e-01,
                      le:2.1011647582054138e-01 }
            -
               depth: 1
               sample_count: 3598
               value: -9.1382562360742214e-02
               norm_class_idx: 0
               Tn: 0
               complexity: 0
               alpha: 0.
               node_risk: 0.
               tree_risk: 0.
               tree_error: 0.
            -
               depth: 1
               sample_count: 234
               value: 9.1382562360742214e-02
               norm_class_idx: 1
               Tn: 0
               complexity: 0
               alpha: 0.
               node_risk: 0.
               tree_risk: 0.
               tree_error: 0.
      -
         best_tree_idx: -1
         nodes:
            -
               depth: 0
               sample_count: 3849
               value: -6.3908154558879299e-02
               norm_class_idx: 0
               Tn: 0
               complexity: 0
               alpha: 0.
               node_risk: 0.
               tree_risk: 0.
               tree_error: 0.
               splits:
                  - { var:19, quality:5.1542675495147705e-01,
                      le:4.7968979924917221e-02 }
                  - { var:20, quality:3.9408949017524719e-01,
                      le:4.7094449400901794e-02 }
                  - { var:17, quality:3.9295467734336853e-01,
                      le:4.8598665744066238e-02 }
                  - { var:10, quality:3.8262152671813965e-01,
                      gt:6.5715812146663666e-02 }
                  - { var:18, quality:3.6908677220344543e-01,
                      le:5.1305979490280151e-02 }
                  - { var:9, quality:3.6845719814300537e-01,
                      gt:3.5008624196052551e-02 }
                  - { var:21, quality:3.6560192704200745e-01,
                      le:5.1209181547164917e-02 }
                  - { var:26, quality:3.6328390240669250e-01,
                      gt:6.1047472059726715e-02 }
                  - { var:16, quality:3.5948267579078674e-01,
                      le:4.5548029243946075e-02 }
                  - { var:15, quality:3.5300758481025696e-01,
                      le:5.3437665104866028e-02 }
                  - { var:11, quality:3.4534195065498352e-01,
                      gt:4.2934499680995941e-02 }
                  - { var:22, quality:3.4153860807418823e-01,
                      le:5.5640771985054016e-02 }
                  - { var:1, quality:3.4007006883621216e-01,
                      le:5.2500348538160324e-03 }
                  - { var:4, quality:3.3964872360229492e-01,
                      le:5.4269493557512760e-03 }
                  - { var:7, quality:3.3925828337669373e-01,
                      le:5.4646129719913006e-03 }
                  - { var:14, quality:3.3897337317466736e-01,
                      le:1.3689243793487549e-01 }
                  - { var:5, quality:3.3895957469940186e-01,
                      gt:2.2385941065294901e-06 }
            -
               depth: 1
               sample_count: 2326
               value: 6.3908154558879299e-02
               norm_class_idx: 1
               Tn: 0
               complexity: 0
               alpha: 0.
               node_risk: 0.
               tree_risk: 0.
               tree_error: 0.
            -
               depth: 1
               sample_count: 1523
               value: -6.3908154558879299e-02
               norm_class_idx: 0
               Tn: 0
               complexity: 0
               alpha: 0.
               node_risk: 0.
               tree_risk: 0.
               tree_error: 0.
      -
         best_tree_idx: -1
         nodes:
            -
               depth: 0
               sample_count: 3880
               value: -9.7205681583303102e-02
               norm_class_idx: 0
               Tn: 0
               complexity: 0
               alpha: 0.
               node_risk: 0.
               tree_risk: 0.
               tree_error: 0.
               splits:
                  - { var:2, quality:5.0847494602203369e-01,
                      le:1.7189563950523734e-03 }
                  - { var:6, quality:4.9544072151184082e-01,
                      le:1.6683030407875776e-03 }
                  - { var:8, quality:4.9204599857330322e-01,
                      le:1.7828629352152348e-03 }
                  - { var:0, quality:4.7313740849494934e-01,
                      le:1.4948894968256354e-03 }
                  - { var:5, quality:4.6731033921241760e-01,
                      le:2.0491133909672499e-03 }
                  - { var:4, quality:4.6630123257637024e-01,
                      le:2.0077137742191553e-03 }
                  - { var:1, quality:4.6520352363586426e-01,
                      le:2.0385759416967630e-03 }
                  - { var:3, quality:4.6487295627593994e-01,
                      le:2.0044723059982061e-03 }
                  - { var:7, quality:4.6457472443580627e-01,
                      le:1.8315745983272791e-03 }
                  - { var:13, quality:3.1974318623542786e-01,
                      gt:2.8129450976848602e-02 }
                  - { var:12, quality:3.1937551498413086e-01,
                      gt:3.7089947611093521e-02 }
                  - { var:14, quality:3.1578427553176880e-01,
                      gt:2.2652199491858482e-02 }
                  - { var:21, quality:3.1492793560028076e-01,
                      gt:1.9876956939697266e-02 }
                  - { var:25, quality:3.1421554088592529e-01,
                      gt:3.5105843096971512e-02 }
                  - { var:9, quality:3.1393298506736755e-01,
                      gt:2.0739603787660599e-02 }
                  - { var:23, quality:3.1346517801284790e-01,
                      gt:2.7041651308536530e-02 }
                  - { var:17, quality:3.1333625316619873e-01,
                      gt:1.6551755368709564e-02 }
                  - { var:16, quality:3.1292343139648438e-01,
                      gt:1.8683867529034615e-02 }
                  - { var:22, quality:3.1095534563064575e-01,
                      gt:2.0431354641914368e-02 }
                  - { var:15, quality:3.1082373857498169e-01,
                      gt:1.8783602863550186e-02 }
                  - { var:11, quality:3.1067407131195068e-01,
                      gt:3.9688598364591599e-02 }
                  - { var:26, quality:3.0983722209930420e-01,
                      gt:3.8608588278293610e-02 }
                  - { var:18, quality:3.0928438901901245e-01,
                      gt:9.7335511818528175e-03 }
                  - { var:19, quality:3.0835795402526855e-01,
                      gt:9.9380258470773697e-03 }
                  - { var:10, quality:3.0829885601997375e-01,
                      gt:4.2036443948745728e-02 }
                  - { var:20, quality:3.0823382735252380e-01,
                      gt:1.8773496150970459e-02 }
                  - { var:24, quality:3.0728793144226074e-01,
                      gt:2.9208928346633911e-02 }
            -
               depth: 1
               sample_count: 2171
               value: -9.7205681583303102e-02
               norm_class_idx: 0
               Tn: 0
               complexity: 0
               alpha: 0.
               node_risk: 0.
               tree_risk: 0.
               tree_error: 0.
            -
               depth: 1
               sample_count: 1709
               value: 9.7205681583303102e-02
               norm_class_idx: 1
               Tn: 0
               complexity: 0
               alpha: 0.
               node_risk: 0.
               tree_risk: 0.
               tree_error: 0.
      -
         best_tree_idx: -1
         nodes:
            -
               depth: 0
               sample_count: 4336
               value: 1.4610785326117540e-01
               norm_class_idx: 1
               Tn: 0
               complexity: 0
               alpha: 0.
               node_risk: 0.
               tree_risk: 0.
               tree_error: 0.
               splits:
                  - { var:7, quality:5.2592235803604126e-01,
                      le:2.9839952476322651e-03 }
                  - { var:4, quality:5.0566542148590088e-01,
                      le:2.9782149940729141e-03 }
                  - { var:1, quality:5.0560402870178223e-01,
                      le:2.9212832450866699e-03 }
                  - { var:5, quality:5.0217586755752563e-01,
                      le:2.8615691699087620e-03 }
                  - { var:3, quality:5.0118017196655273e-01,
                      le:2.8685946017503738e-03 }
                  - { var:8, quality:4.8446696996688843e-01,
                      le:2.7953637763857841e-03 }
                  - { var:2, quality:4.7460827231407166e-01,
                      le:2.6050789747387171e-03 }
                  - { var:6, quality:4.7299084067344666e-01,
                      le:2.5194010231643915e-03 }
                  - { var:0, quality:4.4909155368804932e-01,
                      le:2.4778866209089756e-03 }
                  - { var:17, quality:4.0168300271034241e-01,
                      gt:1.3491271238308400e-04 }
                  - { var:22, quality:4.0163701772689819e-01,
                      gt:1.0208332911133766e-02 }
                  - { var:18, quality:4.0161448717117310e-01,
                      gt:9.9800399038940668e-04 }
                  - { var:16, quality:4.0085005760192871e-01,
                      gt:3.6426432779990137e-04 }
                  - { var:23, quality:4.0079474449157715e-01,
                      gt:1.0016722604632378e-02 }
                  - { var:15, quality:4.0042161941528320e-01,
                      gt:2.2935161541681737e-04 }
                  - { var:13, quality:4.0020462870597839e-01,
                      gt:1.0025124996900558e-02 }
                  - { var:20, quality:3.9994311332702637e-01,
                      gt:4.5870323083363473e-04 }
                  - { var:14, quality:3.9940115809440613e-01,
                      gt:9.7166057676076889e-03 }
                  - { var:12, quality:3.9843022823333740e-01,
                      le:1.0318343341350555e-01 }
                  - { var:10, quality:3.9792451262474060e-01,
                      le:2.3362571001052856e-01 }
                  - { var:24, quality:3.9787018299102783e-01,
                      le:1.0544848442077637e-01 }
                  - { var:26, quality:3.9773386716842651e-01,
                      le:2.1981307864189148e-01 }
                  - { var:19, quality:3.9720866084098816e-01,
                      gt:9.6269696950912476e-03 }
                  - { var:9, quality:3.9693313837051392e-01,
                      le:4.6802598237991333e-01 }
                  - { var:25, quality:3.9691424369812012e-01,
                      le:1.5505421161651611e-01 }
                  - { var:11, quality:3.9679330587387085e-01,
                      le:2.1525302529335022e-01 }
            -
               depth: 1
               sample_count: 3418
               value: 1.4610785326117540e-01
               norm_class_idx: 1
               Tn: 0
               complexity: 0
               alpha: 0.
               node_risk: 0.
               tree_risk: 0.
               tree_error: 0.
            -
               depth: 1
               sample_count: 918
               value: -1.4610785326117540e-01
               norm_class_idx: 0
               Tn: 0
               complexity: 0
               alpha: 0.
               node_risk: 0.
               tree_risk: 0.
               tree_error: 0.
      -
         best_tree_idx: -1
         nodes:
            -
               depth: 0
               sample_count: 3850
               value: -7.5414907515201204e-02
               norm_class_idx: 0
               Tn: 0
               complexity: 0
               alpha: 0.
               node_risk: 0.
               tree_risk: 0.
               tree_error: 0.
               splits:
                  - { var:0, quality:5.1524245738983154e-01,
                      le:4.6603903174400330e-03 }
                  - { var:2, quality:5.0967949628829956e-01,
                      le:4.7940919175744057e-03 }
                  - { var:6, quality:5.0623893737792969e-01,
                      le:4.3160174973309040e-03 }
                  - { var:8, quality:5.0437897443771362e-01,
                      le:4.7175916843116283e-03 }
                  - { var:7, quality:4.9196723103523254e-01,
                      le:5.2781328558921814e-03 }
                  - { var:1, quality:4.9186143279075623e-01,
                      le:5.3618280217051506e-03 }
                  - { var:4, quality:4.9129834771156311e-01,
                      le:5.4043801501393318e-03 }
                  - { var:10, quality:4.9121910333633423e-01,
                      le:3.5822755098342896e-01 }
                  - { var:25, quality:4.9078220129013062e-01,
                      le:2.4001705646514893e-01 }
                  - { var:3, quality:4.9078139662742615e-01,
                      le:5.7843327522277832e-03 }
                  - { var:5, quality:4.9077051877975464e-01,
                      le:5.4595093242824078e-03 }
                  - { var:15, quality:4.9072867631912231e-01,
                      le:3.2401639223098755e-01 }
                  - { var:16, quality:4.9072828888893127e-01,
                      le:3.6081880331039429e-01 }
                  - { var:26, quality:4.9072393774986267e-01,
                      le:3.5710832476615906e-01 }
                  - { var:17, quality:4.9067997932434082e-01,
                      le:2.9296875000000000e-01 }
            -
               depth: 1
               sample_count: 3619
               value: -7.5414907515201204e-02
               norm_class_idx: 0
               Tn: 0
               complexity: 0
               alpha: 0.
               node_risk: 0.
               tree_risk: 0.
               tree_error: 0.
            -
               depth: 1
               sample_count: 231
               value: 7.5414907515201204e-02
               norm_class_idx: 1
               Tn: 0
               complexity: 0
               alpha: 0.
               node_risk: 0.
               tree_risk: 0.
               tree_error: 0.
      -
         best_tree_idx: -1
         nodes:
            -
               depth: 0
               sample_count: 4367
               value: 1.6732849083204751e-01
               norm_class_idx: 1
               Tn: 0
               complexity: 0
               alpha: 0.
               node_risk: 0.
               tree_risk: 0.
               tree_error: 0.
               splits:
                  - { var:1, quality:5.2475601434707642e-01,
                      le:7.7922246418893337e-05 }
                  - { var:3, quality:5.2448469400405884e-01,
                      le:7.8451746958307922e-05 }
                  - { var:5, quality:5.2379941940307617e-01,
                      le:7.4642324761953205e-05 }
                  - { var:4, quality:5.2356290817260742e-01,
                      le:7.4399744335096329e-05 }
                  - { var:7, quality:5.2341574430465698e-01,
                      le:7.7030941611155868e-05 }
                  - { var:8, quality:5.2172249555587769e-01,
                      le:6.9218665885273367e-05 }
                  - { var:2, quality:5.2082288265228271e-01,
                      le:6.8594184995163232e-05 }
                  - { var:6, quality:5.2013003826141357e-01,
                      le:6.3894171034917235e-05 }
                  - { var:0, quality:5.1593434810638428e-01,
                      le:4.3703672417905182e-05 }
            -
               depth: 1
               sample_count: 184
               value: -1.6732849083204751e-01
               norm_class_idx: 0
               Tn: 0
               complexity: 0
               alpha: 0.
               node_risk: 0.
               tree_risk: 0.
               tree_error: 0.
            -
               depth: 1
               sample_count: 4183
               value: 1.6732849083204751e-01
               norm_class_idx: 1
               Tn: 0
               complexity: 0
               alpha: 0.
               node_risk: 0.
               tree_risk: 0.
               tree_error: 0.
      -
         best_tree_idx: -1
         nodes:
            -
               depth: 0
               sample_count: 3815
               value: -1.3669081097452479e-01
               norm_class_idx: 0
               Tn: 0
               complexity: 0
               alpha: 0.
               node_risk: 0.
               tree_risk: 0.
               tree_error: 0.
               splits:
                  - { var:8, quality:5.3210031986236572e-01,
                      le:5.0731012597680092e-03 }
                  - { var:6, quality:5.2879929542541504e-01,
                      le:5.1052505150437355e-03 }
                  - { var:2, quality:5.2749198675155640e-01,
                      le:5.9080845676362514e-03 }
                  - { var:0, quality:5.2690511941909790e-01,
                      le:6.1993701383471489e-03 }
                  - { var:7, quality:5.2306300401687622e-01,
                      le:5.2781328558921814e-03 }
                  - { var:10, quality:5.2253365516662598e-01,
                      le:3.5822755098342896e-01 }
                  - { var:1, quality:5.2237629890441895e-01,
                      le:5.4608536884188652e-03 }
                  - { var:4, quality:5.2223664522171021e-01,
                      le:5.5424729362130165e-03 }
                  - { var:3, quality:5.2220469713211060e-01,
                      le:5.7843327522277832e-03 }
                  - { var:5, quality:5.2219468355178833e-01,
                      le:5.4595093242824078e-03 }
                  - { var:16, quality:5.2212363481521606e-01,
                      le:3.6081880331039429e-01 }
            -
               depth: 1
               sample_count: 3707
               value: -1.3669081097452479e-01
               norm_class_idx: 0
               Tn: 0
               complexity: 0
               alpha: 0.
               node_risk: 0.
               tree_risk: 0.
               tree_error: 0.
            -
               depth: 1
               sample_count: 108
               value: 1.3669081097452479e-01
               norm_class_idx: 1
               Tn: 0
               complexity: 0
               alpha: 0.
               node_risk: 0.
               tree_risk: 0.
               tree_error: 0.
      -
         best_tree_idx: -1
         nodes:
            -
               depth: 0
               sample_count: 3862
               value: -2.9384364599389187e-02
               norm_class_idx: 0
               Tn: 0
               complexity: 0
               alpha: 0.
               node_risk: 0.
               tree_risk: 0.
               tree_error: 0.
               splits:
                  - { var:11, quality:5.0663977861404419e-01,
                      le:6.4318083226680756e-02 }
                  - { var:10, quality:3.4890523552894592e-01,
                      le:7.7283710241317749e-02 }
                  - { var:12, quality:3.3355516195297241e-01,
                      le:5.6142419576644897e-02 }
                  - { var:18, quality:3.3002880215644836e-01,
                      gt:3.8023278117179871e-02 }
                  - { var:19, quality:3.2570141553878784e-01,
                      gt:3.7714932113885880e-02 }
                  - { var:20, quality:3.2550477981567383e-01,
                      gt:3.8450904190540314e-02 }
                  - { var:17, quality:3.2105073332786560e-01,
                      gt:4.1762031614780426e-02 }
                  - { var:9, quality:3.1943348050117493e-01,
                      le:3.8995064795017242e-02 }
                  - { var:21, quality:3.1328630447387695e-01,
                      gt:3.7017952650785446e-02 }
                  - { var:16, quality:3.0354440212249756e-01,
                      gt:3.7603735923767090e-02 }
                  - { var:26, quality:3.0110073089599609e-01,
                      le:6.7688755691051483e-02 }
                  - { var:22, quality:2.9826149344444275e-01,
                      gt:4.4127792119979858e-02 }
                  - { var:13, quality:2.9182332754135132e-01,
                      le:5.8600291609764099e-02 }
                  - { var:25, quality:2.8460597991943359e-01,
                      le:7.0124454796314240e-02 }
                  - { var:8, quality:2.8395065665245056e-01,
                      le:4.6303411945700645e-03 }
                  - { var:23, quality:2.8316941857337952e-01,
                      gt:4.8536550253629684e-02 }
                  - { var:7, quality:2.8292226791381836e-01,
                      le:4.5272400602698326e-03 }
                  - { var:0, quality:2.8254914283752441e-01,
                      le:5.8863628655672073e-03 }
                  - { var:6, quality:2.8229293227195740e-01,
                      le:4.4955061748623848e-03 }
                  - { var:2, quality:2.8177377581596375e-01,
                      le:4.9836458638310432e-03 }
                  - { var:4, quality:2.8163811564445496e-01,
                      le:4.7371294349431992e-03 }
                  - { var:15, quality:2.8136879205703735e-01,
                      gt:4.4003464281558990e-02 }
                  - { var:5, quality:2.8073671460151672e-01,
                      le:5.8029992505908012e-03 }
                  - { var:3, quality:2.8073671460151672e-01,
                      le:6.1459634453058243e-03 }
                  - { var:1, quality:2.8071746230125427e-01,
                      le:5.3768479265272617e-03 }
            -
               depth: 1
               sample_count: 2307
               value: -2.9384364599389187e-02
               norm_class_idx: 0
               Tn: 0
               complexity: 0
               alpha: 0.
               node_risk: 0.
               tree_risk: 0.
               tree_error: 0.
            -
               depth: 1
               sample_count: 1555
               value: 2.9384364599389187e-02
               norm_class_idx: 1
               Tn: 0
               complexity: 0
               alpha: 0.
               node_risk: 0.
               tree_risk: 0.
               tree_error: 0.
      -
         best_tree_idx: -1
         nodes:
            -
               depth: 0
               sample_count: 3874
               value: -4.5930098279200506e-02
               norm_class_idx: 0
               Tn: 0
               complexity: 0
               alpha: 0.
               node_risk: 0.
               tree_risk: 0.
               tree_error: 0.
               splits:
                  - { var:22, quality:5.0379258394241333e-01,
                      le:5.7646118104457855e-02 }
                  - { var:21, quality:4.2218714952468872e-01,
                      le:6.6813692450523376e-02 }
                  - { var:23, quality:4.1947466135025024e-01,
                      le:7.3428533971309662e-02 }
                  - { var:24, quality:4.1639688611030579e-01,
                      le:1.2966877222061157e-01 }
                  - { var:4, quality:4.1611412167549133e-01,
                      le:5.4520983248949051e-03 }
                  - { var:20, quality:4.1562446951866150e-01,
                      le:1.9926747679710388e-01 }
                  - { var:1, quality:4.1553705930709839e-01,
                      le:6.2815258279442787e-03 }
            -
               depth: 1
               sample_count: 3094
               value: -4.5930098279200506e-02
               norm_class_idx: 0
               Tn: 0
               complexity: 0
               alpha: 0.
               node_risk: 0.
               tree_risk: 0.
               tree_error: 0.
            -
               depth: 1
               sample_count: 780
               value: 4.5930098279200506e-02
               norm_class_idx: 1
               Tn: 0
               complexity: 0
               alpha: 0.
               node_risk: 0.
               tree_risk: 0.
               tree_error: 0.
      -
         best_tree_idx: -1
         nodes:
            -
               depth: 0
               sample_count: 4287
               value: 1.4978253091268759e-01
               norm_class_idx: 1
               Tn: 0
               complexity: 0
               alpha: 0.
               node_risk: 0.
               tree_risk: 0.
               tree_error: 0.
               splits:
                  - { var:5, quality:5.1500517129898071e-01,
                      le:7.1148271672427654e-05 }
                  - { var:1, quality:5.1450294256210327e-01,
                      le:7.1137408667709678e-05 }
                  - { var:7, quality:5.1429206132888794e-01,
                      le:7.2680188168305904e-05 }
                  - { var:4, quality:5.1415425539016724e-01,
                      le:7.3560557211749256e-05 }
                  - { var:3, quality:5.1415002346038818e-01,
                      le:7.4784766184166074e-05 }
                  - { var:8, quality:5.1142030954360962e-01,
                      le:6.2491664721164852e-05 }
                  - { var:2, quality:5.1039028167724609e-01,
                      le:6.3059800595510751e-05 }
                  - { var:6, quality:5.0965887308120728e-01,
                      le:6.3894171034917235e-05 }
                  - { var:0, quality:5.0660556554794312e-01,
                      le:3.5422774089965969e-05 }
            -
               depth: 1
               sample_count: 171
               value: -1.4978253091268759e-01
               norm_class_idx: 0
               Tn: 0
               complexity: 0
               alpha: 0.
               node_risk: 0.
               tree_risk: 0.
               tree_error: 0.
            -
               depth: 1
               sample_count: 4116
               value: 1.4978253091268759e-01
               norm_class_idx: 1
               Tn: 0
               complexity: 0
               alpha: 0.
               node_risk: 0.
               tree_risk: 0.
               tree_error: 0.
      -
         best_tree_idx: -1
         nodes:
            -
               depth: 0
               sample_count: 3834
               value: -1.0987527012407028e-01
               norm_class_idx: 0
               Tn: 0
               complexity: 0
               alpha: 0.
               node_risk: 0.
               tree_risk: 0.
               tree_error: 0.
               splits:
                  - { var:21, quality:5.2357763051986694e-01,
                      le:7.8634023666381836e-02 }
                  - { var:22, quality:5.1071023941040039e-01,
                      le:1.3617497682571411e-01 }
                  - { var:20, quality:5.1011627912521362e-01,
                      le:1.9926747679710388e-01 }
            -
               depth: 1
               sample_count: 3679
               value: -1.0987527012407028e-01
               norm_class_idx: 0
               Tn: 0
               complexity: 0
               alpha: 0.
               node_risk: 0.
               tree_risk: 0.
               tree_error: 0.
            -
               depth: 1
               sample_count: 155
               value: 1.0987527012407028e-01
               norm_class_idx: 1
               Tn: 0
               complexity: 0
               alpha: 0.
               node_risk: 0.
               tree_risk: 0.
               tree_error: 0.
      -
         best_tree_idx: -1
         nodes:
            -
               depth: 0
               sample_count: 4257
               value: 1.2230471414903388e-01
               norm_class_idx: 1
               Tn: 0
               complexity: 0
               alpha: 0.
               node_risk: 0.
               tree_risk: 0.
               tree_error: 0.
               splits:
                  - { var:10, quality:5.1017433404922485e-01,
                      le:7.4145145714282990e-02 }
                  - { var:9, quality:3.8457244634628296e-01,
                      le:4.2457930743694305e-02 }
                  - { var:19, quality:3.7812918424606323e-01,
                      gt:3.8349017500877380e-02 }
                  - { var:26, quality:3.7016782164573669e-01,
                      le:7.2551734745502472e-02 }
                  - { var:20, quality:3.6991462111473083e-01,
                      gt:4.2451560497283936e-02 }
                  - { var:17, quality:3.6991274356842041e-01,
                      gt:3.9170391857624054e-02 }
                  - { var:18, quality:3.6883139610290527e-01,
                      gt:3.8023278117179871e-02 }
                  - { var:16, quality:3.6539450287818909e-01,
                      gt:3.9186157286167145e-02 }
                  - { var:21, quality:3.5959485173225403e-01,
                      gt:3.6844983696937561e-02 }
                  - { var:11, quality:3.5420459508895874e-01,
                      le:6.3129693269729614e-02 }
                  - { var:15, quality:3.4747794270515442e-01,
                      gt:3.9900630712509155e-02 }
                  - { var:22, quality:3.3881804347038269e-01,
                      gt:4.4048279523849487e-02 }
                  - { var:14, quality:3.1584742665290833e-01,
                      gt:4.0364548563957214e-02 }
                  - { var:23, quality:3.0915242433547974e-01,
                      gt:4.6690493822097778e-02 }
                  - { var:25, quality:2.9899665713310242e-01,
                      le:6.2423869967460632e-02 }
                  - { var:13, quality:2.9155439138412476e-01,
                      gt:4.1829593479633331e-02 }
                  - { var:12, quality:2.8752720355987549e-01,
                      le:6.4665898680686951e-02 }
                  - { var:0, quality:2.7481332421302795e-01,
                      le:2.3971651680767536e-03 }
                  - { var:24, quality:2.7365013957023621e-01,
                      gt:4.7010973095893860e-02 }
                  - { var:6, quality:2.6951220631599426e-01,
                      le:4.5970743522047997e-03 }
                  - { var:2, quality:2.6864191889762878e-01,
                      le:2.8633195906877518e-03 }
                  - { var:8, quality:2.6841980218887329e-01,
                      le:4.7329184599220753e-03 }
                  - { var:1, quality:2.6767668128013611e-01,
                      le:3.2798047177493572e-03 }
                  - { var:7, quality:2.6675876975059509e-01,
                      le:3.4542700741440058e-03 }
                  - { var:3, quality:2.6574286818504333e-01,
                      le:4.9923174083232880e-03 }
                  - { var:4, quality:2.6538407802581787e-01,
                      le:4.8722098581492901e-03 }
                  - { var:5, quality:2.6420733332633972e-01,
                      le:4.8296954482793808e-03 }
            -
               depth: 1
               sample_count: 2517
               value: 1.2230471414903388e-01
               norm_class_idx: 1
               Tn: 0
               complexity: 0
               alpha: 0.
               node_risk: 0.
               tree_risk: 0.
               tree_error: 0.
            -
               depth: 1
               sample_count: 1740
               value: -1.2230471414903388e-01
               norm_class_idx: 0
               Tn: 0
               complexity: 0
               alpha: 0.
               node_risk: 0.
               tree_risk: 0.
               tree_error: 0.
      -
         best_tree_idx: -1
         nodes:
            -
               depth: 0
               sample_count: 3832
               value: -6.9159758900910515e-02
               norm_class_idx: 0
               Tn: 0
               complexity: 0
               alpha: 0.
               node_risk: 0.
               tree_risk: 0.
               tree_error: 0.
               splits:
                  - { var:26, quality:5.1542860269546509e-01,
                      le:6.6675707697868347e-02 }
                  - { var:10, quality:3.8409101963043213e-01,
                      le:6.4400359988212585e-02 }
                  - { var:16, quality:3.7527129054069519e-01,
                      gt:4.6745780855417252e-02 }
                  - { var:17, quality:3.7484151124954224e-01,
                      gt:4.7499731183052063e-02 }
                  - { var:18, quality:3.7356975674629211e-01,
                      gt:5.5563855916261673e-02 }
                  - { var:9, quality:3.6918857693672180e-01,
                      le:3.7846364080905914e-02 }
                  - { var:15, quality:3.6502107977867126e-01,
                      gt:4.8801019787788391e-02 }
                  - { var:20, quality:3.6251559853553772e-01,
                      gt:4.8320297151803970e-02 }
                  - { var:19, quality:3.6067935824394226e-01,
                      gt:4.9868069589138031e-02 }
                  - { var:25, quality:3.5841917991638184e-01,
                      le:5.6721396744251251e-02 }
                  - { var:14, quality:3.4345042705535889e-01,
                      gt:5.0267376005649567e-02 }
                  - { var:21, quality:3.3606806397438049e-01,
                      gt:5.1364623010158539e-02 }
                  - { var:11, quality:3.2958200573921204e-01,
                      le:5.1276773214340210e-02 }
                  - { var:13, quality:3.2319170236587524e-01,
                      gt:6.1035439372062683e-02 }
                  - { var:22, quality:3.2255703210830688e-01,
                      gt:4.7344651073217392e-02 }
                  - { var:24, quality:3.1164699792861938e-01,
                      le:1.8829934298992157e-02 }
                  - { var:1, quality:3.0807018280029297e-01,
                      le:8.4177139797247946e-05 }
                  - { var:12, quality:3.0779486894607544e-01,
                      gt:9.1864317655563354e-02 }
                  - { var:5, quality:3.0766928195953369e-01,
                      le:8.8773813331499696e-05 }
                  - { var:3, quality:3.0754154920578003e-01,
                      le:8.5401108663063496e-05 }
                  - { var:4, quality:3.0752724409103394e-01,
                      le:8.3263017586432397e-05 }
                  - { var:7, quality:3.0746829509735107e-01,
                      le:8.2886523159686476e-05 }
                  - { var:8, quality:3.0710285902023315e-01,
                      le:6.9626257754862309e-05 }
                  - { var:2, quality:3.0704092979431152e-01,
                      le:7.4711701017804444e-05 }
                  - { var:6, quality:3.0667841434478760e-01,
                      le:7.7707998570986092e-05 }
                  - { var:0, quality:3.0605420470237732e-01,
                      le:4.1180304833687842e-05 }
                  - { var:23, quality:3.0197817087173462e-01,
                      le:8.9589727576822042e-04 }
            -
               depth: 1
               sample_count: 1796
               value: -6.9159758900910515e-02
               norm_class_idx: 0
               Tn: 0
               complexity: 0
               alpha: 0.
               node_risk: 0.
               tree_risk: 0.
               tree_error: 0.
            -
               depth: 1
               sample_count: 2036
               value: 6.9159758900910515e-02
               norm_class_idx: 1
               Tn: 0
               complexity: 0
               alpha: 0.
               node_risk: 0.
               tree_risk: 0.
               tree_error: 0.
      -
         best_tree_idx: -1
         nodes:
            -
               depth: 0
               sample_count: 3855
               value: -5.0333361129511117e-02
               norm_class_idx: 0
               Tn: 0
               complexity: 0
               alpha: 0.
               node_risk: 0.
               tree_risk: 0.
               tree_error: 0.
               splits:
                  - { var:10, quality:5.1086205244064331e-01,
                      le:9.6997126936912537e-02 }
                  - { var:9, quality:4.1306161880493164e-01,
                      le:6.6566027700901031e-02 }
                  - { var:20, quality:4.0576526522636414e-01,
                      gt:2.4983737617731094e-02 }
                  - { var:18, quality:4.0506231784820557e-01,
                      gt:2.6071758940815926e-02 }
                  - { var:17, quality:4.0208810567855835e-01,
                      gt:2.2844096645712852e-02 }
                  - { var:21, quality:3.9971143007278442e-01,
                      gt:2.5918830186128616e-02 }
                  - { var:19, quality:3.9934280514717102e-01,
                      gt:2.2888291627168655e-02 }
                  - { var:16, quality:3.9784950017929077e-01,
                      gt:2.2042628377676010e-02 }
                  - { var:26, quality:3.9470991492271423e-01,
                      le:9.8293632268905640e-02 }
                  - { var:15, quality:3.9161473512649536e-01,
                      gt:2.7572631835937500e-02 }
                  - { var:22, quality:3.8950696587562561e-01,
                      gt:2.8237197548151016e-02 }
                  - { var:11, quality:3.8678702712059021e-01,
                      le:8.2655645906925201e-02 }
                  - { var:14, quality:3.7389734387397766e-01,
                      gt:1.5535995364189148e-02 }
                  - { var:23, quality:3.7207081913948059e-01,
                      gt:2.3428350687026978e-02 }
                  - { var:8, quality:3.6834150552749634e-01,
                      le:5.1253968849778175e-03 }
                  - { var:6, quality:3.6791533231735229e-01,
                      le:5.6620268151164055e-03 }
                  - { var:2, quality:3.6734995245933533e-01,
                      le:6.0915062204003334e-03 }
                  - { var:5, quality:3.6725780367851257e-01,
                      le:5.4595093242824078e-03 }
                  - { var:3, quality:3.6725187301635742e-01,
                      le:5.9190019965171814e-03 }
                  - { var:0, quality:3.6724323034286499e-01,
                      le:6.3370950520038605e-03 }
                  - { var:12, quality:3.6699301004409790e-01,
                      le:1.3370577991008759e-01 }
                  - { var:7, quality:3.6691328883171082e-01,
                      le:5.3207143209874630e-03 }
            -
               depth: 1
               sample_count: 2874
               value: -5.0333361129511117e-02
               norm_class_idx: 0
               Tn: 0
               complexity: 0
               alpha: 0.
               node_risk: 0.
               tree_risk: 0.
               tree_error: 0.
            -
               depth: 1
               sample_count: 981
               value: 5.0333361129511117e-02
               norm_class_idx: 1
               Tn: 0
               complexity: 0
               alpha: 0.
               node_risk: 0.
               tree_risk: 0.
               tree_error: 0.
      -
         best_tree_idx: -1
         nodes:
            -
